svm_type c_svc
kernel_type rbf
gamma 0.0078125
nr_class 4
total_sv 46
rho -2.37362 0.305564 1.08205 0.80253 1.33323 0.567107
label 4 1 2 -1
nr_sv 14 10 10 12
SV
0 0.7549540321681445 0 0:0.822549 1:0.208999 2:-0.457843 3:0.865686 4:0.23028 5:-0.656863 6:0.879412 7:0.129917 8:-0.953922 9:0.981373 10:-0.0570305 11:-1 12:0.958824 13:-0.146078 14:-0.989216 15:0.85098 16:-0.246078 17:-0.877451 18:0.748039 19:-0.317647 20:-0.969608 21:0.720588 22:-0.437255 23:-1 24:0.733333 25:-0.546078 26:-0.844118 27:0.801961 28:-0.586275 29:-0.632353 30:0.812193 31:-0.65 32:-0.558824 33:0.8 34:-0.762745 35:-0.504189 36:0.61599 37:-0.911765 38:-0.470588 39:0.439815 40:-0.968627 41:-0.305882 42:0.3536 43:-0.992157 44:-0.202941 45:0.240021 46:-1 47:-0.0696079 48:0.242621 49:-1 50:0.102941 51:0.154902 52:-0.983333 53:0.322549 54:0.0284313 55:-0.927685 56:0.645098 57:-0.201961 58:-0.796067 59:0.972549 60:-0.409804 61:-0.569355 62:1 63:-0.496078 64:-0.480874 65:0.965008 66:-0.437255 67:-0.469438 68:0.791252 69:-0.444118 70:-0.464244 71:0.83317 72:-0.509804 73:-0.483729 74:0.844342 75:-0.433333 76:-0.478431 77:0.672781 78:-0.27549 79:-0.319608 80:0.501961 81:0.0352941 82:-0.0431372 83:0.479412 84:0.598039 85:0.118627 86:0.683333 87:0.9729 88:0.34902 89:0.966667 
0 0 0.7641054995397918 0:0.909804 1:-0.230314 2:-0.923529 3:0.914706 4:-0.356234 5:-0.673529 6:0.85 7:-0.300358 8:-0.97549 9:0.536275 10:-0.250737 11:-1 12:0.505882 13:-0.270588 14:-1 15:0.954902 16:-0.416667 17:-1 18:1 19:-0.412745 20:-1 21:1 22:-0.591176 23:-1 24:1 25:-0.928431 26:-0.87451 27:1 28:-1 29:-0.484314 30:1 31:-1 32:-0.530392 33:0.922404 34:-1 35:-0.65106 36:0.590551 37:-1 38:-0.406863 39:0.481481 40:-1 41:-0.17549 42:0.36 43:-1 44:-0.0539216 45:0.037786 46:-1 47:0.184314 48:-0.374687 49:-1 50:0.551961 51:-0.797059 52:-1 53:0.913725 54:-0.946078 55:-1 56:1 57:-0.755882 58:-1 59:1 60:-0.363726 61:-1 62:0.799294 63:0.25098 64:-0.870219 65:0.352652 66:0.940196 67:-0.511002 68:0.717694 69:1 70:-0.138335 71:0.964671 72:1 73:0.344733 74:0.779826 75:1 76:0.217647 77:0.676748 78:1 79:-0.130392 80:-0.0176471 81:1 82:-0.338235 83:-0.905882 84:1 85:-0.547059 86:-0.95098 87:1 88:-0.754902 89:-1 
0 1.356860628915814 0 0:1 1:0.103612 2:-0.412745 3:0.870588 4:-0.0127226 5:-0.779412 6:0.690196 7:-0.0774731 8:-0.989216 9:0.722549 10:-0.13766 11:-1 12:0.82451 13:-0.129412 14:-1 15:0.92549 16:-0.216667 17:-1 18:1 19:-0.297059 20:-1 21:0.990196 22:-0.410784 23:-1 24:0.797059 25:-0.546078 26:-0.943137 27:0.77549 28:-0.645098 29:-0.682353 30:0.842674 31:-0.713725 32:-0.680392 33:0.713661 34:-0.823529 35:-0.617546 36:0.45003 37:-0.934314 38:-0.453922 39:0.334491 40:-0.992157 41:-0.338235 42:0.266133 43:-1 44:-0.168627 45:0.149548 46:-1 47:-0.106863 48:0.0225113 49:-0.992157 50:0.119608 51:-0.109804 52:-0.960784 53:0.227451 54:-0.295098 55:-0.924447 56:0.306863 57:-0.501961 58:-0.756737 59:0.637255 60:-0.667647 61:-0.593548 62:0.982854 63:-0.518627 64:-0.825137 65:1 66:-0.00980395 67:-0.99511 68:0.843936 69:0.423529 70:-0.907386 71:0.388616 72:0.929412 73:-0.714286 74:0.804403 75:1 76:-0.85098 77:0.995042 78:1 79:-1 80:0.0147059 81:1 82:-0.745098 83:-0.995098 84:1 85:-0.563725 86:-0.979412 87:1 88:-0.948039 89:-0.597059 
1.047106723107422 2.818069294431522 1.94164795958924 0:0.777451 1:0.584369 2:0.110784 3:0.970588 4:0.625954 5:-0.386275 6:0.947059 7:0.42789 8:-0.704902 9:0.827451 10:-0.0216322 11:-0.788235 12:0.65098 13:-0.267647 14:-0.987255 15:0.55098 16:-0.364706 17:-1 18:0.587255 19:-0.371569 20:-1 21:0.634314 22:-0.409804 23:-1 24:0.516667 25:-0.522549 26:-1 27:0.484314 28:-0.60098 29:-1 30:0.738446 31:-0.567647 32:-1 33:0.971585 34:-0.665686 35:-1 36:0.9043 37:-0.991176 38:-1 39:0.936343 40:-1 41:-0.872549 42:1 43:-1 44:-0.581373 45:1 46:-1 47:-0.579412 48:0.991996 49:-1 50:-0.593137 51:0.790196 52:-1 53:-0.436275 54:0.561765 55:-1 56:-0.0833334 57:0.426471 58:-1 59:0.10098 60:0.230392 61:-1 62:0.174987 63:0.0294117 64:-1 65:0.199563 66:-0.205882 67:-1 68:0.429423 69:-0.405882 70:-0.950762 71:0.583906 72:-0.495098 73:-0.879757 74:0.74808 75:-0.497059 76:-0.851961 77:0.956371 78:-0.463725 79:-0.862745 80:1 81:-0.609804 82:-0.938235 83:1 84:-0.5 85:-1 86:0.893137 87:0.270461 88:-0.987255 89:0.351961 
2.149660956872335 0 0 0:0.991176 1:0.208999 2:-0.263726 3:1 4:0.568702 5:-0.89902 6:1 7:0.365912 8:-0.659804 9:0.819608 10:-0.14061 11:-0.119608 12:0.695098 13:-0.397059 14:-0.223529 15:0.692157 16:-0.322549 17:-0.894118 18:0.683333 19:-0.135294 20:-1 21:0.733333 22:-0.261765 23:-1 24:0.92549 25:-0.453922 26:-0.928431 27:1 28:-0.443137 29:-0.819608 30:0.996067 31:-0.478431 32:-0.997059 33:1 34:-0.679412 35:-1 36:0.804967 37:-0.988235 38:-0.929412 39:0.65162 40:-1 41:-0.633333 42:0.706667 43:-1 44:-0.493137 45:0.449707 46:-1 47:-0.420588 48:0.23962 49:-1 50:-0.206863 51:0.144118 52:-1 53:-0.0813726 54:-0.032353 55:-1 56:0.101961 57:-0.359804 58:-1 59:0.643137 60:-0.542157 61:-0.806452 62:1 63:-0.542157 64:-0.551913 65:1 66:-0.363726 67:-0.584352 68:0.985089 69:0.0401961 70:-0.559203 71:0.728165 72:0.254902 73:-0.412024 74:0.467486 75:0.481373 76:-0.233333 77:0.497273 78:0.882353 79:-0.0460784 80:0.694118 81:1 82:0.0715686 83:0.779412 84:1 85:0.0911765 86:0.401961 87:1 88:-0.0362745 89:0.122549 
2.41259471769319 0 0 0:0.828431 1:0.799882 2:-1 3:0.715686 4:0.87659 5:-0.986275 6:0.669608 7:0.706794 8:-0.745098 9:0.55098 10:0.305801 11:-0.527451 12:0.433333 13:0.24902 14:-0.443137 15:0.466667 16:0.193137 17:-0.45 18:0.571569 19:0.0843137 20:-0.67549 21:0.527451 22:-0.0264706 23:-0.765686 24:0.296078 25:-0.138235 26:-0.55098 27:0.409804 28:-0.235294 29:-0.548039 30:0.53589 31:-0.37549 32:-0.703922 33:0.353005 34:-0.569608 35:-0.698374 36:0.150818 37:-0.729412 38:-0.362745 39:0.0648148 40:-0.755882 41:0.0303921 42:0.0154666 43:-0.633333 44:0.171569 45:-0.0580096 46:-0.521569 47:0.181373 48:0.0305153 49:-0.467647 50:0.167647 51:0.146078 52:-0.409804 53:0.265686 54:0.176471 55:-0.232596 56:0.403922 57:0.17549 58:0.225055 59:0.862745 60:0.158824 61:0.533871 62:1 63:0.396078 64:0.386612 65:1 66:0.567647 67:0.374083 68:0.889662 69:0.559804 70:0.757327 71:0.67419 72:0.521569 73:0.970215 74:0.850486 75:0.755882 76:0.737255 77:0.797719 78:1 79:0.802941 80:0.457843 81:1 82:0.726471 83:0.360784 84:1 85:0.530392 86:-0.121569 87:1 88:0.330392 89:-0.410784 
0 0.4647657506475622 0 0:0.987255 1:0.164002 2:-0.341176 3:0.828431 4:-0.00508903 5:-0.417647 6:0.883333 7:-0.35876 8:-0.651961 9:0.731373 10:-0.320551 11:-1 12:0.533333 13:-0.162745 14:-1 15:0.438235 16:-0.215686 17:-1 18:0.630392 19:-0.335294 20:-0.99902 21:0.904902 22:-0.318627 23:-1 24:0.894118 25:-0.35098 26:-1 27:0.718627 28:-0.543137 29:-1 30:0.719764 31:-0.728431 32:-0.971569 33:0.789071 34:-0.919608 35:-0.781173 36:0.784373 37:-1 38:-0.653922 39:0.511574 40:-1 41:-0.483333 42:0.1808 43:-1 44:-0.238235 45:-0.0250133 46:-1 47:-0.0284314 48:-0.127564 49:-1 50:0.134314 51:-0.276471 52:-0.991176 53:0.194118 54:-0.421569 55:-0.907177 56:0.415686 57:-0.557843 58:-0.596504 59:0.806863 60:-0.596078 61:-0.398387 62:1 63:-0.480392 64:-0.474044 65:1 66:-0.19902 67:-0.394865 68:1 69:0.114706 70:-0.330598 71:0.961727 72:0.476471 73:-0.209046 74:0.704045 75:0.858824 76:-0.0264706 77:0.574616 78:1 79:0.137255 80:0.511765 81:1 82:0.276471 83:0.326471 84:1 85:0.167647 86:0.0911764 87:1 88:-0.0990196 89:-0.326471 
0 0.1052731874695198 0 0:0.742157 1:0.0882179 2:-0.296078 3:0.793137 4:0.00127229 5:-0.432353 6:0.819608 7:-0.159714 8:-0.781373 9:0.89902 10:-0.265487 11:-1 12:0.984314 13:-0.358823 14:-1 15:0.859804 16:-0.548039 17:-1 18:0.67549 19:-0.661765 20:-0.911765 21:0.590196 22:-0.764706 23:-0.85098 24:0.598039 25:-0.902941 26:-0.857843 27:0.60098 28:-1 29:-0.778431 30:0.366765 31:-1 32:-0.501961 33:-0.0557377 34:-1 35:-0.271562 36:-0.317989 37:-0.94902 38:-0.213726 39:-0.302083 40:-0.860784 41:-0.104902 42:-0.290667 43:-0.77451 44:0.0127451 45:-0.395423 46:-0.705882 47:0.218627 48:-0.458729 49:-0.609804 50:0.47549 51:-0.479412 52:-0.511765 53:0.805882 54:-0.494118 55:-0.331894 56:1 57:-0.496078 58:-0.0954115 59:1 60:-0.396078 61:-0.117742 62:0.956631 63:0.0401961 64:-0.277322 65:0.605249 66:0.706863 67:-0.333741 68:0.539761 69:1 70:-0.237984 71:0.494603 72:1 73:0.18257 74:0.108039 75:1 76:0.416667 77:-0.164105 78:1 79:0.356863 80:-0.128431 81:1 82:0.0862745 83:0.143137 84:1 85:-0.37451 86:0.00882351 87:1 88:-0.468627 89:-0.865686 
0 1.205531443507506 0 0:1 1:0.312019 2:-0.176471 3:0.985294 4:0.277354 5:-0.278431 6:0.983333 7:0.137068 8:-0.44902 9:0.988235 10:-0.126844 11:-0.705882 12:0.887255 13:-0.153922 14:-0.966667 15:0.685294 16:-0.213725 17:-0.987255 18:0.668627 19:-0.359804 20:-0.817647 21:0.627451 22:-0.59902 23:-0.77549 24:0.398039 25:-0.802941 26:-0.747059 27:0.135294 28:-0.887255 29:-0.621569 30:0.0186824 31:-0.896078 32:-0.566667 33:-0.191257 34:-0.90098 35:-0.395761 36:-0.481526 37:-0.82549 38:-0.219608 39:-0.556713 40:-0.756863 41:0.118627 42:-0.480533 43:-0.738235 44:0.463725 45:-0.766897 46:-0.584314 47:0.831373 48:-0.771886 49:-0.397059 50:1 51:-0.447059 52:-0.354902 53:1 54:-0.0176471 55:-0.296276 56:0.962745 57:0.3 58:0.010925 59:0.783333 60:0.57451 61:0.179032 62:0.603631 63:0.941176 64:0.114754 65:0.494806 66:1 67:0.133252 68:0.583499 69:1 70:0.0445487 71:0.299313 72:1 73:-0.0921125 74:-0.262673 75:1 76:-0.334314 77:-0.370352 78:1 79:-0.405882 80:-0.518627 81:1 82:-0.367647 83:-0.882353 84:0.955882 85:-0.216667 86:-1 87:0.904607 88:-0.161765 89:-1 
0 0 0.3253300066985996 0:0.646078 1:0.246892 2:-1 3:0.895098 4:0.503817 5:-1 6:0.777451 7:0.174017 8:-1 9:0.840196 10:-0.308751 11:-0.909804 12:0.947059 13:-0.560784 14:-0.676471 15:0.791176 16:-0.868627 17:-0.773529 18:0.431373 19:-1 20:-0.662745 21:0.313725 22:-1 23:-0.428431 24:0.184314 25:-1 26:-0.285294 27:0.0343137 28:-1 29:-0.159804 30:-0.13766 31:-1 32:-0.0166667 33:-0.461202 34:-1 35:0.552489 36:-0.880073 37:-0.947059 38:0.998039 39:-0.736111 40:-0.731373 41:1 42:-0.2992 43:-0.668627 44:0.976471 45:-0.110165 46:-0.558823 47:0.821569 48:0.124562 49:-0.404902 50:0.781372 51:0.288235 52:-0.207843 53:0.886275 54:0.588235 55:-0.0426335 56:0.815686 57:0.8 58:0.475601 59:0.54902 60:0.84902 61:1 62:0.547151 63:0.998039 64:0.849727 65:0.488245 66:1 67:0.535452 68:0.464215 69:1 70:0.344666 71:0.117762 72:1 73:0.226696 74:-0.488991 75:1 76:0.0343137 77:-0.773922 78:1 79:-0.122549 80:-0.657843 81:1 82:-0.201961 83:-0.576471 84:0.815686 85:-0.266667 86:-0.956863 87:0.321409 88:-0.0715686 89:-1 
0 0 0.9153275623973572 0:1 1:0.482534 2:-0.164706 3:1 4:0.260814 5:-0.623529 6:1 7:0.057211 8:-0.966667 9:0.965686 10:-0.170108 11:-1 12:0.791176 13:-0.251961 14:-1 15:0.828431 16:-0.364706 17:-1 18:0.989216 19:-0.407843 20:-1 21:1 22:-0.34902 23:-1 24:0.982353 25:-0.529412 26:-1 27:0.914706 28:-0.787255 29:-0.786275 30:0.80531 31:-0.881373 32:-0.483333 33:0.70929 34:-0.966667 35:-0.378019 36:0.534827 37:-1 38:-0.351961 39:0.326389 40:-1 41:-0.243137 42:0.1296 43:-1 44:-0.0245098 45:-0.0633316 46:-0.995098 47:0.142157 48:-0.150575 49:-0.883333 50:0.194118 51:-0.248039 52:-0.770588 53:0.159804 54:-0.338235 55:-0.62871 56:0.296078 57:-0.455882 58:-0.418791 59:0.342157 60:-0.576471 61:-0.412903 62:0.29299 63:-0.522549 64:-0.602459 65:0.302351 66:-0.148039 67:-0.628362 68:0.335984 69:0.257843 70:-0.313013 71:0.564279 72:0.356863 73:0.0380585 74:0.963134 75:0.60098 76:0.111765 77:1 78:0.989216 79:0.422549 80:1 81:1 82:0.735294 83:1 84:1 85:0.930392 86:0.966667 87:1 88:0.995098 89:0.912745 
83.80268524665014 9.72325862978334 7.297738874272862 0:-0.37451 1:-0.654233 2:0.858824 3:-0.0254902 4:-0.381679 5:0.227451 6:0.306863 7:-0.271752 8:0.0901961 9:0.00392155 10:-0.000983278 11:0.00392155 12:0.00392155 13:-0.00392155 14:0.00392155 15:0.00392155 16:-0.00392155 17:0.00392155 18:0.00392155 19:-0.00392155 20:0.00392155 21:0.00392155 22:-0.00392155 23:0.00392155 24:0.00392155 25:-0.00392155 26:0.00392155 27:0.00392155 28:-0.00392155 29:0.00392155 30:0.000983278 31:-0.00392155 32:0.00392155 33:-0.110383 34:-0.00392155 35:0.0093642 36:-0.230769 37:-0.00392155 38:0.00392155 39:-0.175926 40:-0.00392155 41:0.00392155 42:-0.0837334 43:-0.00392155 44:0.00392155 45:-0.0814263 46:-0.00392155 47:0.00392155 48:-0.0165082 49:-0.00392155 50:0.00392155 51:0.00392155 52:-0.00392155 53:0.00392155 54:0.00392155 55:0.0966001 56:0.00392155 57:0.00392155 58:0.479971 59:0.00392155 60:0.00392155 61:0.63871 62:-0.0247101 63:0.00392155 64:0.387978 65:-0.11099 66:0.00392155 67:0.242054 68:-0.00994035 69:0.00392155 70:0.19109 71:0.00294405 72:0.00392155 73:0.120794 74:-0.0404506 75:0.00392155 76:-0.00392155 77:-0.00743678 78:0.00392155 79:-0.00392155 80:0.00392155 81:0.00392155 82:-0.00392155 83:0.00392155 84:0.00392155 85:-0.00392155 86:0.00392155 87:-0.101355 88:-0.00392155 89:0.00392155 
0 0 0.3365343226881522 0:1 1:0.547661 2:-0.793137 3:1 4:0.42112 5:-0.513726 6:0.905882 7:-0.0822407 8:-0.733333 9:0.777451 10:-0.19764 11:-1 12:0.754902 13:-0.163725 14:-1 15:0.791176 16:-0.251961 17:-1 18:0.935294 19:-0.382353 20:-1 21:0.887255 22:-0.404902 23:-1 24:0.842157 25:-0.436275 26:-1 27:0.90098 28:-0.541176 29:-1 30:0.92527 31:-0.709804 32:-1 33:0.986885 34:-0.822549 35:-0.963529 36:1 37:-0.934314 38:-0.817647 39:0.980324 40:-1 41:-0.682353 42:0.812267 43:-1 44:-0.485294 45:0.608302 46:-1 47:-0.220588 48:0.53977 49:-1 50:0.0215686 51:0.30098 52:-1 53:0.208823 54:-0.0970588 55:-1 56:0.493137 57:-0.523529 58:-1 59:0.952941 60:-0.722549 61:-1 62:1 63:-0.486275 64:-1 65:0.948606 66:-0.222549 67:-0.94132 68:0.575547 69:-0.0519608 70:-0.642438 71:0.364082 72:0.205882 73:-0.384446 74:0.815668 75:0.598039 76:-0.146078 77:1 78:0.988235 79:0.171569 80:0.970588 81:1 82:0.504902 83:0.42549 84:1 85:0.653922 86:-0.0715686 87:1 88:0.487255 89:-0.62549 
56.23241660356704 0 0 0:0.997059 1:0.315571 2:-0.728431 3:0.867647 4:0.267176 5:-1 6:0.998039 7:0.1323 8:-1 9:0.947059 10:-0.228122 11:-1 12:0.00392155 13:-0.00392155 14:0.00392155 15:0.00392155 16:-0.00392155 17:0.00392155 18:0.00392155 19:-0.00392155 20:0.00392155 21:0.00392155 22:-0.00392155 23:0.00392155 24:0.00392155 25:-0.00392155 26:0.00392155 27:0.00392155 28:-0.00392155 29:0.00392155 30:0.000983278 31:-0.00392155 32:0.00392155 33:-0.110383 34:-0.00392155 35:0.0093642 36:-0.230769 37:-0.00392155 38:0.00392155 39:-0.175926 40:-0.00392155 41:0.00392155 42:-0.0837334 43:-0.00392155 44:0.00392155 45:-0.0814263 46:-0.00392155 47:0.00392155 48:-0.0165082 49:-0.00392155 50:0.00392155 51:0.00392155 52:-0.00392155 53:0.00392155 54:0.00392155 55:0.0966001 56:0.00392155 57:0.00392155 58:0.479971 59:0.00392155 60:0.00392155 61:0.63871 62:-0.0247101 63:0.00392155 64:0.387978 65:-0.11099 66:0.00392155 67:0.242054 68:-0.00994035 69:0.00392155 70:0.19109 71:0.00294405 72:0.00392155 73:0.120794 74:-0.0404506 75:0.00392155 76:-0.00392155 77:-0.00743678 78:0.00392155 79:-0.00392155 80:0.00392155 81:0.00392155 82:-0.00392155 83:0.00392155 84:0.00392155 85:-0.00392155 86:0.00392155 87:-0.101355 88:-0.00392155 89:0.00392155 
-0 0 0.6323456372034475 0:0.395098 1:-0.687389 2:1 3:0.847059 4:-0.885496 5:1 6:1 7:-0.998808 8:0.902941 9:0.906863 10:-1 11:0.708823 12:0.784314 13:-1 14:0.75098 15:1 16:-1 17:1 18:1 19:-1 20:0.647059 21:1 22:-1 23:0.255882 24:1 25:-1 26:0.382353 27:0.982353 28:-1 29:0.0284313 30:1 31:-1 32:-0.202941 33:1 34:-1 35:-0.596846 36:1 37:-1 38:-0.819608 39:1 40:-1 41:-0.663726 42:1 43:-1 44:-0.6 45:1 46:-0.985294 47:-0.561765 48:1 49:-0.839216 50:-0.384314 51:0.955882 52:-0.765686 53:-0.329412 54:0.779412 55:-0.450621 56:-0.494118 57:0.00392155 58:0.479971 59:0.00392155 60:0.00392155 61:0.63871 62:-0.0247101 63:0.00392155 64:0.387978 65:-0.11099 66:0.00392155 67:0.242054 68:-0.00994035 69:0.00392155 70:0.19109 71:0.00294405 72:0.00392155 73:0.120794 74:-0.0404506 75:0.00392155 76:-0.00392155 77:-0.00743678 78:0.00392155 79:-0.00392155 80:0.00392155 81:0.00392155 82:-0.00392155 83:0.00392155 84:0.00392155 85:-0.00392155 86:0.00392155 87:-0.101355 88:-0.00392155 89:0.00392155 
-0 0 1.542603306186753 0:-0.734314 1:-0.0159858 2:1 3:-0.660784 4:-0.0203562 5:1 6:-0.483333 7:-0.184744 8:1 9:-0.251961 10:-0.448378 11:1 12:-0.0470588 13:-0.652941 14:1 15:0.351961 16:-0.95 17:1 18:0.887255 19:-1 20:0.933333 21:1 22:-1 23:0.632353 24:0.802941 25:-1 26:0.456863 27:0.606863 28:-1 29:0.529412 30:0.834808 31:-1 32:0.747059 33:0.84918 34:-1 35:0.299162 36:0.697153 37:-1 38:-0.3 39:0.829861 40:-1 41:0.0852941 42:0.848533 43:-1 44:0.215686 45:0.820117 46:-1 47:-0.197059 48:0.98099 49:-1 50:-0.482353 51:1 52:-1 53:-0.740196 54:1 55:-1 56:-0.737255 57:1 58:-1 59:-0.711765 60:0.946078 61:-1 62:-0.76702 63:0.847059 64:-1 65:-0.855659 66:0.85098 67:-0.915648 68:-0.616302 69:0.842157 70:-0.618992 71:-0.506379 72:0.781372 73:-0.569774 74:-0.476702 75:0.00392155 76:-0.00392155 77:-0.00743678 78:0.00392155 79:-0.00392155 80:0.00392155 81:0.00392155 82:-0.00392155 83:0.00392155 84:0.00392155 85:-0.00392155 86:0.00392155 87:-0.101355 88:-0.00392155 89:0.00392155 
-1.196157015043445 0 0 0:-0.457843 1:-0.465956 2:1 3:-0.309804 4:-0.748092 5:1 6:-0.0205883 7:-0.989273 8:1 9:0.610784 10:-1 11:1 12:0.853921 13:-1 14:1 15:0.944118 16:-1 17:0.791176 18:1 19:-1 20:0.270588 21:1 22:-1 23:0.0588235 24:1 25:-1 26:0.2 27:0.947059 28:-1 29:0.15 30:1 31:-1 32:-0.226471 33:1 34:-1 35:-0.390833 36:1 37:-1 38:-0.804902 39:1 40:-1 41:-1 42:1 43:-1 44:-0.858824 45:0.996807 46:-1 47:-0.695098 48:0.815908 49:-0.997059 50:-0.733333 51:0.686274 52:-0.869608 53:-0.666667 54:0.721569 55:-0.67728 56:-0.559804 57:0.642157 58:-0.455208 59:-0.445098 60:0.526471 61:-0.220968 62:-0.288956 63:0.690196 64:-0.269126 65:-0.634773 66:0.789216 67:-0.0134474 68:-0.472167 69:0.8 70:-0.049238 71:-0.171737 72:0.79902 73:-0.218974 74:-0.409114 75:0.742157 76:-0.270588 77:-0.145265 78:0.859804 79:-0.220588 80:-0.102941 81:0.809804 82:-0.137255 83:-0.107843 84:0.787255 85:-0.155882 86:0.0284313 87:0.710569 88:-0.209804 89:0.17549 
-0 0 0.0395099187746892 0:-0.306863 1:-0.026643 2:1 3:-0.172549 4:-0.131043 5:1 6:0.0696078 7:-0.47199 8:1 9:0.745098 10:-0.828908 11:1 12:0.956863 13:-0.986274 14:1 15:1 16:-1 17:0.84902 18:0.958824 19:-1 20:0.65098 21:0.972549 22:-1 23:0.773529 24:1 25:-1 26:0.614706 27:0.985294 28:-1 29:-0.0656863 30:0.933137 31:-1 32:-0.27549 33:0.978142 34:-1 35:-0.0852637 36:0.917626 37:-1 38:-0.333333 39:0.99537 40:-1 41:-0.561765 42:1 43:-1 44:-0.862745 45:1 46:-1 47:-0.909804 48:0.977989 49:-1 50:-0.832353 51:0.912745 52:-1 53:-0.853922 54:0.828431 55:-0.994603 56:-0.960784 57:0.738235 58:-0.823744 59:-0.836274 60:0.683333 61:-0.546774 62:-0.577408 63:0.606863 64:-0.431694 65:-0.607436 66:0.598039 67:-0.414425 68:-0.553678 69:0.654902 70:-0.393904 71:-0.526987 72:0.695098 73:-0.325979 74:-0.409114 75:0.733333 76:-0.281373 77:-0.290035 78:0.809804 79:-0.213725 80:-0.334314 81:0.842157 82:-0.277451 83:-0.342157 84:0.809804 85:-0.37549 86:-0.144118 87:0.760434 88:-0.409804 89:0.0598039 
-1.576230906391485 0 0 0:-0.0970588 1:-0.881587 2:1 3:0.385294 4:-1 5:1 6:0.94902 7:-1 8:1 9:1 10:-1 11:0.906863 12:1 13:-1 14:0.747059 15:0.967647 16:-1 17:0.672549 18:0.99902 19:-1 20:0.526471 21:1 22:-1 23:0.160784 24:1 25:-1 26:-0.479412 27:1 28:-1 29:-0.990196 30:1 31:-1 32:-0.896078 33:0.985792 34:-1 35:-0.524889 36:0.969715 37:-1 38:-0.609804 39:0.998843 40:-1 41:-0.869608 42:1 43:-1 44:-0.981373 45:0.953166 46:-0.998039 47:-1 48:0.818909 49:-0.902941 50:-0.927451 51:0.684314 52:-0.782353 53:-0.737255 54:0.570588 55:-0.623313 56:-0.509804 57:0.55 58:-0.274581 59:-0.393137 60:0.00392155 61:0.63871 62:-0.0247101 63:0.00392155 64:0.387978 65:-0.11099 66:0.00392155 67:0.242054 68:-0.00994035 69:0.00392155 70:0.19109 71:0.00294405 72:0.00392155 73:0.120794 74:-0.0404506 75:0.00392155 76:-0.00392155 77:-0.00743678 78:0.00392155 79:-0.00392155 80:0.00392155 81:0.00392155 82:-0.00392155 83:0.00392155 84:0.00392155 85:-0.00392155 86:0.00392155 87:-0.101355 88:-0.00392155 89:0.00392155 
-128 4.57443882049165 4.168088213987732 0:0.517647 1:-0.121374 2:-0.187255 3:0.521569 4:-0.0534351 5:-0.188235 6:0.5 7:-0.0977354 8:-0.182353 9:0.00392155 10:-0.000983278 11:0.00392155 12:0.00392155 13:-0.00392155 14:0.00392155 15:0.00392155 16:-0.00392155 17:0.00392155 18:0.00392155 19:-0.00392155 20:0.00392155 21:0.00392155 22:-0.00392155 23:0.00392155 24:0.00392155 25:-0.00392155 26:0.00392155 27:0.00392155 28:-0.00392155 29:0.00392155 30:0.000983278 31:-0.00392155 32:0.00392155 33:-0.110383 34:-0.00392155 35:0.0093642 36:-0.230769 37:-0.00392155 38:0.00392155 39:-0.175926 40:-0.00392155 41:0.00392155 42:-0.0837334 43:-0.00392155 44:0.00392155 45:-0.0814263 46:-0.00392155 47:0.00392155 48:-0.0165082 49:-0.00392155 50:0.00392155 51:0.00392155 52:-0.00392155 53:0.00392155 54:0.00392155 55:0.0966001 56:0.00392155 57:0.00392155 58:0.479971 59:0.00392155 60:0.00392155 61:0.63871 62:-0.0247101 63:0.00392155 64:0.387978 65:-0.11099 66:0.00392155 67:0.242054 68:-0.00994035 69:0.00392155 70:0.19109 71:0.00294405 72:0.00392155 73:0.120794 74:-0.0404506 75:0.00392155 76:-0.00392155 77:-0.00743678 78:0.00392155 79:-0.00392155 80:0.00392155 81:0.00392155 82:-0.00392155 83:0.00392155 84:0.00392155 85:-0.00392155 86:0.00392155 87:-0.101355 88:-0.00392155 89:0.00392155 
-0 1.744269098390384 0 0:-0.402941 1:-0.10598 2:1 3:-0.232353 4:-0.165394 5:1 6:0.0578431 7:-0.418355 8:1 9:0.467647 10:-0.791544 11:1 12:0.657843 13:-0.99902 14:1 15:0.894118 16:-1 17:1 18:1 19:-1 20:0.993137 21:1 22:-1 23:0.594118 24:0.998039 25:-1 26:0.0107843 27:0.867647 28:-1 29:-0.226471 30:0.911504 31:-1 32:-0.427451 33:0.990164 34:-1 35:-0.954658 36:0.800121 37:-1 38:-0.947059 39:0.458333 40:-1 41:-0.486275 42:0.357867 43:-1 44:-0.472549 45:0.436935 46:-1 47:-0.716667 48:0.554777 49:-1 50:-0.846078 51:0.656863 52:-0.986274 53:-0.87451 54:0.547059 55:-0.943875 56:-0.917647 57:0.407843 58:-0.753824 59:-0.695098 60:0.435294 61:-0.517742 62:-0.531014 63:0.541176 64:-0.379781 65:-0.743029 66:0.00392155 67:0.242054 68:-0.00994035 69:0.00392155 70:0.19109 71:0.00294405 72:0.00392155 73:0.120794 74:-0.0404506 75:0.00392155 76:-0.00392155 77:-0.00743678 78:0.00392155 79:-0.00392155 80:0.00392155 81:0.00392155 82:-0.00392155 83:0.00392155 84:0.00392155 85:-0.00392155 86:0.00392155 87:-0.101355 88:-0.00392155 89:0.00392155 
-10.18267202270355 4.670027007321469 3.665373823268899 0:0.688235 1:-0.0905861 2:-0.0294118 3:0.77549 4:0.0114504 5:-0.0352941 6:0.00392155 7:0.210965 8:0.00392155 9:0.00392155 10:-0.000983278 11:0.00392155 12:0.00392155 13:-0.00392155 14:0.00392155 15:0.00392155 16:-0.00392155 17:0.00392155 18:0.00392155 19:-0.00392155 20:0.00392155 21:0.00392155 22:-0.00392155 23:0.00392155 24:0.00392155 25:-0.00392155 26:0.00392155 27:0.00392155 28:-0.00392155 29:0.00392155 30:0.000983278 31:-0.00392155 32:0.00392155 33:-0.110383 34:-0.00392155 35:0.0093642 36:-0.230769 37:-0.00392155 38:0.00392155 39:-0.175926 40:-0.00392155 41:0.00392155 42:-0.0837334 43:-0.00392155 44:0.00392155 45:-0.0814263 46:-0.00392155 47:0.00392155 48:-0.0165082 49:-0.00392155 50:0.00392155 51:0.00392155 52:-0.00392155 53:0.00392155 54:0.00392155 55:0.0966001 56:0.00392155 57:0.00392155 58:0.479971 59:0.00392155 60:0.00392155 61:0.63871 62:-0.0247101 63:0.00392155 64:0.387978 65:-0.11099 66:0.00392155 67:0.242054 68:-0.00994035 69:0.00392155 70:0.19109 71:0.00294405 72:0.00392155 73:0.120794 74:-0.0404506 75:0.00392155 76:-0.00392155 77:-0.00743678 78:0.00392155 79:-0.00392155 80:0.00392155 81:0.00392155 82:-0.00392155 83:0.00392155 84:0.00392155 85:-0.00392155 86:0.00392155 87:-0.101355 88:-0.00392155 89:0.00392155 
-4.689404303751655 0.4940029847804971 0.01044167240916995 0:1 1:-1 2:0.905882 3:1 4:-1 5:0.638235 6:1 7:-1 8:0.286274 9:1 10:-1 11:-0.0637255 12:1 13:-1 14:-0.295098 15:1 16:-1 17:-0.296078 18:1 19:-1 20:-0.164706 21:1 22:-1 23:-0.37451 24:0.915686 25:-1 26:-0.652941 27:0.796078 28:-1 29:-0.671569 30:0.780728 31:-1 32:-0.72451 33:0.784699 34:-1 35:-0.892558 36:0.745609 37:-1 38:-1 39:0.640046 40:-0.952941 41:-1 42:0.5424 43:-0.856863 44:-0.983333 45:0.527408 46:-0.723529 47:-0.821569 48:0.556778 49:-0.636274 50:-0.701961 51:0.631372 52:-0.545098 53:-0.671569 54:0.716667 55:-0.468969 56:-0.64902 57:0.711765 58:-0.446468 59:-0.523529 60:0.67451 61:-0.446774 62:-0.282905 63:0.693137 64:-0.502732 65:-0.118644 66:0.746078 67:-0.47066 68:0.054672 69:0.783333 70:-0.4068 71:0.00490675 72:0.00392155 73:0.120794 74:-0.0404506 75:0.00392155 76:-0.00392155 77:-0.00743678 78:0.00392155 79:-0.00392155 80:0.00392155 81:0.00392155 82:-0.00392155 83:0.00392155 84:0.00392155 85:-0.00392155 86:0.00392155 87:-0.101355 88:-0.00392155 89:0.00392155 
-0 0 2.318921684743071 0:-0.57549 1:0.52161 2:0.893137 3:-0.545098 4:0.576336 5:1 6:-0.490196 7:0.446961 8:1 9:-0.443137 10:0.167158 11:0.970588 12:-0.333333 13:0.0754902 14:0.977451 15:-0.215686 16:-0.05 17:1 18:-0.123529 19:-0.254902 20:1 21:0.0333333 22:-0.498039 23:1 24:0.382353 25:-0.713725 26:0.948039 27:0.871569 28:-0.873529 29:0.72549 30:0.958702 31:-0.997059 32:0.629412 33:0.76612 34:-1 35:0.691474 36:0.861902 37:-1 38:0.490196 39:0.940972 40:-1 41:-0.0803922 42:0.879467 43:-1 44:-0.315686 45:0.755189 46:-1 47:-0.430392 48:0.682841 49:-1 50:-0.469608 51:0.806863 52:-1 53:-0.553922 54:0.915686 55:-1 56:-0.701961 57:0.99902 58:-1 59:-0.776471 60:1 61:-0.974194 62:-0.807363 63:1 64:-0.953552 65:-0.944232 66:0.870588 67:-0.891198 68:-1 69:0.758823 70:-0.778429 71:-1 72:0.681372 73:-0.559846 74:-1 75:0.00392155 76:-0.00392155 77:-0.00743678 78:0.00392155 79:-0.00392155 80:0.00392155 81:0.00392155 82:-0.00392155 83:0.00392155 84:0.00392155 85:-0.00392155 86:0.00392155 87:-0.101355 88:-0.00392155 89:0.00392155 
-2.701551523658904 -2.848607755302359 2.011300092556391 0:-0.265686 1:0.387803 2:0.679412 3:-0.232353 4:0.456743 5:0.841176 6:-0.152941 7:0.296782 8:0.996078 9:-0.0617647 10:0.0353982 11:1 12:0.0215686 13:-0.0098039 14:1 15:0.0794117 16:-0.110784 17:1 18:0.0843137 19:-0.269608 20:0.82451 21:0.198039 22:-0.340196 23:0.213725 24:0.158824 25:-0.27549 26:-0.381373 27:-0.120588 28:-0.209804 29:-0.544118 30:-0.376598 31:-0.167647 32:-0.783333 33:-0.666667 34:-0.0117647 35:-1 36:-0.980618 37:0.198039 38:-1 39:-1 40:0.254902 41:-1 42:-0.8432 43:0.162745 44:-1 45:-0.760511 46:-0.022549 47:-1 48:-0.516758 49:-0.191176 50:-0.910784 51:-0.385294 52:-0.327451 53:-0.692157 54:-0.315686 55:-0.437669 56:-0.4 57:-0.223529 58:-0.316824 59:0.0813725 60:-0.154902 61:-0.125806 62:0.365608 63:-0.172549 64:-0.286885 65:0.352652 66:-0.132353 67:-0.385086 68:0.560636 69:-0.160784 70:-0.432591 71:0.930324 72:-0.169608 73:-0.426365 74:1 75:-0.12549 76:-0.473529 77:1 78:-0.107843 79:-0.473529 80:1 81:-0.0931373 82:-0.480392 83:1 84:-0.0852941 85:-0.467647 86:1 87:-0.21626 88:-0.490196 89:1 
-3.053146777033804 -0 0 0:-0.0333334 1:-0.865009 2:0.564706 3:0.384314 4:-0.917303 5:-0.158824 6:0.253922 7:-0.722288 8:-0.604902 9:-0.183333 10:-0.539823 11:-0.969608 12:-0.0411765 13:-0.356863 14:-1 15:0.0196078 16:-0.205882 17:-1 18:-0.236275 19:-0.0323529 20:-1 21:-0.339216 22:0.05 23:-1 24:-0.301961 25:0.000980415 26:-1 27:-0.284314 28:-0.128431 29:-1 30:-0.26647 31:-0.211765 32:-1 33:-0.339891 34:-0.236274 35:-0.933958 36:-0.430648 37:-0.289216 38:-0.869608 39:-0.364583 40:-0.34902 41:-0.696078 42:-0.259733 43:-0.384314 44:-0.487255 45:-0.211283 46:-0.421569 47:-0.273529 48:-0.128564 49:-0.477451 50:-0.0470588 51:-0.116667 52:-0.536275 53:0.240196 54:-0.235294 55:-0.51538 56:0.576471 57:-0.306863 58:-0.270211 59:0.959804 60:-0.390196 61:-0.130645 62:1 63:-0.461765 64:-0.285519 65:1 66:-0.509804 67:-0.46577 68:1 69:-0.517647 70:-0.520516 71:1 72:-0.492157 73:-0.588527 74:1 75:-0.32549 76:-0.785294 77:1 78:-0.17451 79:-0.946078 80:0.892157 81:-0.0901961 82:-1 83:0.322549 84:0.103922 85:-0.842157 86:-0.556863 87:0.125203 88:-0.52549 89:-0.505882 
-0.05151392792074705 -0 0 0:-0.359804 1:-0.455299 2:0.997059 3:-0.246078 4:-0.759542 5:0.767647 6:0.0460784 7:-0.994041 8:0.173529 9:0.273529 10:-0.816126 11:-0.57549 12:0.0117647 13:-0.448039 14:-0.992157 15:-0.0137255 16:-0.313725 17:-0.930392 18:0.0598039 19:-0.262745 20:-0.997059 21:0.0980392 22:-0.114706 23:-1 24:0.0980392 25:0.0245098 26:-1 27:0.0578431 28:0.0460785 29:-1 30:0.00491641 31:-0.00784311 32:-1 33:-0.120219 34:-0.0970588 35:-1 36:-0.158086 37:-0.177451 38:-1 39:-0.0925926 40:-0.265686 41:-0.992157 42:-0.0250667 43:-0.384314 44:-0.837255 45:-0.0931347 46:-0.491176 47:-0.686275 48:-0.0455228 49:-0.584314 50:-0.453922 51:-0.122549 52:-0.660784 53:-0.293137 54:-0.256863 55:-0.684835 56:-0.00882355 57:-0.283333 58:-0.624181 59:0.251961 60:-0.298039 61:-0.604839 62:0.623802 63:-0.418627 64:-0.550546 65:0.969382 66:-0.513726 67:-0.511002 68:1 69:-0.6 70:-0.486518 71:1 72:-0.658824 73:-0.528958 74:1 75:-0.583333 76:-0.59902 77:1 78:-0.516667 79:-0.60098 80:1 81:-0.52549 82:-0.694118 83:1 84:-0.405882 85:-0.966667 86:1 87:-0.191328 88:-1 89:0.626471 
-0 -0.8708296258745855 0 0:-0.398039 1:0.297809 2:0.829412 3:-0.411765 4:0.282443 5:0.994118 6:-0.396078 7:0.0810489 8:1 9:-0.29902 10:-0.227139 11:1 12:-0.183333 13:-0.352941 14:0.797059 15:-0.0421569 16:-0.476471 17:0.463725 18:0.101961 19:-0.543137 20:0.104902 21:0.0578431 22:-0.582353 23:-0.308824 24:-0.0970588 25:-0.505882 26:-0.861765 27:-0.32549 28:-0.341176 29:-1 30:-0.415929 31:-0.129412 32:-1 33:-0.59235 34:0.0421569 35:-1 36:-0.809812 37:0.0617647 38:-1 39:-0.547454 40:-0.0656863 41:-1 42:-0.202133 43:-0.17451 44:-1 45:-0.255987 46:-0.246078 47:-0.788235 48:-0.227614 49:-0.256863 50:-0.516667 51:-0.176471 52:-0.231373 53:-0.359804 54:-0.336275 55:-0.17755 56:-0.0598039 57:-0.483333 58:0.175528 59:0.231373 60:-0.452941 61:0.414516 62:0.341402 63:-0.442157 64:0.277322 65:0.307818 66:-0.529412 67:0.171149 68:0.307157 69:-0.645098 70:0.143025 71:0.388616 72:-0.761765 73:0.0700497 74:0.583205 75:-0.753922 76:-0.105882 77:0.91175 78:-0.758824 79:-0.183333 80:1 81:-0.831373 82:-0.242157 83:1 84:-0.776471 85:-0.280392 86:1 87:-0.738753 88:-0.383333 89:0.993137 
-0 -0.3474618867952641 0 0:-0.0833334 1:0.120189 2:0.883333 3:-0.0392157 4:0.0368957 5:0.752941 6:-0.244118 7:-0.178784 8:0.359804 9:-0.35 10:-0.367748 11:-0.204902 12:-0.277451 13:-0.27549 14:-0.635294 15:-0.441177 16:-0.197059 17:-0.858824 18:-0.643137 19:-0.0372549 20:-1 21:-0.597059 22:0.115686 23:-1 24:-0.357843 25:0.148039 26:-1 27:-0.178431 28:0.173529 29:-1 30:-0.107178 31:0.173529 32:-1 33:-0.0710383 34:0.0705883 35:-1 36:-0.165354 37:-0.0294117 38:-0.82451 39:-0.146991 40:-0.106863 41:-0.526471 42:-0.166933 43:-0.195098 44:-0.315686 45:-0.336881 46:-0.243137 47:-0.0441177 48:-0.329665 49:-0.309804 50:0.334314 51:-0.267647 52:-0.284314 53:0.768627 54:-0.404902 55:-0.105235 56:0.933333 57:-0.582353 58:0.293518 59:0.99902 60:-0.723529 61:0.46129 62:1 63:-0.733333 64:0.178962 65:1 66:-0.686275 67:-0.0342298 68:1 69:-0.569608 70:-0.166471 71:1 72:-0.421569 73:-0.335907 74:0.960061 75:-0.278431 76:-0.492157 77:0.685672 78:-0.231373 79:-0.533333 80:0.376471 81:0.00196076 82:-0.552941 83:0.0539215 84:0.39902 85:-0.50098 86:-0.445098 87:0.241192 88:-0.370588 89:-0.62451 
-2.82242922396006 -4.099932036376071 0.3118722627351151 0:-0.193137 1:0.282416 2:-0.834314 3:-0.189216 4:0.398219 5:-0.967647 6:-0.17451 7:0.363528 8:-1 9:-0.206863 10:0.146509 11:-1 12:-0.189216 13:0.134314 14:-1 15:-0.0598039 16:0.108824 17:-1 18:0.0215686 19:0.0862745 20:-1 21:0.0205882 22:0.0480392 23:-0.984314 24:-0.00392159 25:-0.00784311 26:-0.785294 27:-0.0460785 28:-0.0686274 29:-0.548039 30:-0.148476 31:-0.112745 32:-0.35 33:-0.414208 34:-0.143137 35:-0.209463 36:-0.733495 37:-0.17451 38:-0.0117647 39:-0.737268 40:-0.229412 41:0.192157 42:-0.6192 43:-0.261765 44:0.623529 45:-0.697712 46:-0.169608 47:0.909804 48:-0.798899 49:-0.109804 50:0.99902 51:-0.890196 52:-0.131373 53:1 54:-0.766667 55:-0.11279 56:0.996078 57:-0.586275 58:0.184268 59:0.896078 60:-0.496078 61:0.282258 62:0.904186 63:-0.341176 64:-0.0546448 65:0.659923 66:-0.142157 67:-0.190709 68:0.183897 69:-0.072549 70:-0.0808909 71:-0.262022 72:-0.123529 73:0.00275788 74:-0.469534 75:-0.178431 76:-0.0441176 77:-0.501239 78:-0.208824 79:-0.0284313 80:-0.662745 81:-0.340196 82:0.0294118 83:-0.960784 84:-0.608824 85:0.186275 86:-1 87:-0.803794 88:0.191176 89:-1 
-3.458324328593609 -0.9700499336104446 2.682928293199663 0:-0.0421569 1:-0.362937 2:-0.0343137 3:0.0588235 4:-0.0966921 5:-0.67549 6:0.0637255 7:0.11323 8:-0.993137 9:-0.0931373 10:0.126844 11:-1 12:-0.152941 13:0.241176 14:-1 15:-0.0441177 16:0.251961 17:-1 18:-0.0137255 19:0.242157 20:-1 21:0.104902 22:0.180392 23:-1 24:0.122549 25:0.0784314 26:-0.953922 27:0.0754902 28:0.00686277 29:-0.659804 30:0.00983284 31:-0.0745098 32:-0.443137 33:-0.262295 34:-0.177451 35:-0.243963 36:-0.552998 37:-0.256863 38:0.0823529 39:-0.572917 40:-0.297059 41:0.546078 42:-0.611733 43:-0.263725 44:0.853921 45:-0.769026 46:-0.214706 47:1 48:-0.701851 49:-0.182353 50:1 51:-0.661765 52:-0.193137 53:1 54:-0.64902 55:-0.157043 56:1 57:-0.566667 58:0.0502549 59:1 60:-0.398039 61:-0.0193548 62:0.993949 63:-0.167647 64:-0.36612 65:0.732094 66:-0.12451 67:-0.52445 68:0.447316 69:-0.146078 70:-0.514654 71:-0.00588814 72:-0.128431 73:-0.470491 74:-0.571941 75:-0.05 76:-0.382353 77:-0.945463 78:-0.27451 79:-0.201961 80:-1 81:-0.581373 82:0.00980395 83:-1 84:-0.690196 85:0.160784 86:-1 87:-0.867751 88:0.106863 89:-1 
-0.1784813436551687 -0 0.7279904956150581 0:-0.248039 1:-0.463588 2:1 3:-0.0431373 4:-0.676845 5:0.998039 6:0.0529412 7:-0.966627 8:0.642157 9:0.131373 10:-0.99705 11:-0.134314 12:0.101961 13:-0.880392 14:-0.817647 15:-0.0215687 16:-0.55 17:-1 18:-0.0362745 19:-0.103922 20:-1 21:-0.230392 22:0.106863 23:-1 24:-0.363726 25:0.192157 26:-1 27:-0.181373 28:0.14902 29:-1 30:-0.0855457 31:-0.0205882 32:-1 33:-0.186885 34:-0.131373 35:-0.882701 36:-0.314355 37:-0.180392 38:-0.644118 39:-0.212963 40:-0.24902 41:-0.528431 42:-0.0773334 43:-0.331373 44:-0.363726 45:-0.0665248 46:-0.442157 47:-0.119608 48:-0.0755378 49:-0.54902 50:0.157843 51:-0.0990196 52:-0.57451 53:0.439216 54:-0.186275 55:-0.512142 56:0.832353 57:-0.389216 58:-0.318281 59:1 60:-0.484314 61:-0.233871 62:1 63:-0.537255 64:-0.334699 65:1 66:-0.559804 67:-0.418093 68:1 69:-0.516667 70:-0.528722 71:1 72:-0.395098 73:-0.648097 74:1 75:-0.318627 76:-0.746078 77:1 78:-0.30098 79:-0.852941 80:1 81:-0.188235 82:-0.997059 83:0.977451 84:0.15 85:-1 86:0.52451 87:0.459079 88:-1 89:-0.301961 
-0.7812068081426453 -0 0 0:-0.248039 1:0.207815 2:1 3:-0.0588236 4:0.0890586 5:1 6:-0.105882 7:-0.175209 8:0.905882 9:-0.322549 10:-0.442478 11:0.32549 12:-0.554902 13:-0.386274 14:-0.564706 15:-0.208824 16:-0.152941 17:-1 18:0.167647 19:-0.0196078 20:-1 21:-0.0156863 22:0.0960785 23:-1 24:-0.0392157 25:0.177451 26:-1 27:0.0852941 28:0.209804 29:-1 30:0.12586 31:0.196078 32:-1 33:0.0273224 34:0.14902 35:-1 36:-0.127801 37:0.0813726 38:-0.987255 39:-0.106481 40:0.0029412 41:-0.794118 42:-0.0410667 43:-0.0921568 44:-0.581373 45:-0.124002 46:-0.197059 47:-0.378431 48:-0.195598 49:-0.288235 50:-0.213726 51:-0.388235 52:-0.37549 53:0.0343137 54:-0.467647 55:-0.347005 56:0.488235 57:-0.498039 58:0.0517116 59:0.853921 60:-0.645098 61:0.296774 62:1 63:-0.636275 64:0.0846995 65:1 66:-0.592157 67:-0.0684596 68:1 69:-0.653922 70:-0.152403 71:1 72:-0.679412 73:-0.223387 74:1 75:-0.371569 76:-0.454902 77:0.993059 78:0.109804 79:-0.589216 80:0.639216 81:0.310784 82:-0.5 83:0.262745 84:0.213725 85:-0.398039 86:-0.0137255 87:-0.0449865 88:-0.34902 89:-0.511765 
-3.382059033958467 -2.345856673025276 2.193884699904528 0:-0.473529 1:-0.162818 2:1 3:-0.505882 4:-0.236641 5:1 6:-0.478431 7:-0.49702 8:1 9:-0.361765 10:-0.772861 11:0.801961 12:-0.281373 13:-0.910784 14:0.418627 15:-0.0950981 16:-0.986274 17:0.10098 18:0.255882 19:-0.883333 20:-0.373529 21:0.510784 22:-0.512745 23:-0.906863 24:0.165686 25:-0.314706 26:-0.872549 27:-0.104902 28:-0.307843 29:-0.948039 30:-0.0550639 31:-0.153922 32:-1 33:0.10929 34:-0.0205882 35:-1 36:-0.122956 37:0.0392157 38:-1 39:-0.123843 40:0.0450981 41:-1 42:-0.0368 43:-0.0441176 44:-1 45:-0.064396 46:-0.14902 47:-1 48:0.00450226 49:-0.209804 50:-1 51:0.0382353 52:-0.272549 53:-0.961765 54:0.05 55:-0.343767 56:-0.9 57:0.000980369 58:-0.426074 59:-0.665686 60:-0.0705883 61:-0.61129 62:-0.357539 63:-0.140196 64:-0.706284 65:-0.0180427 66:-0.19902 67:-0.679707 68:0.468191 69:-0.248039 70:-0.609613 71:0.744848 72:-0.372549 73:-0.573083 74:0.971326 75:-0.448039 76:-0.563725 77:1 78:-0.49902 79:-0.55098 80:1 81:-0.530392 82:-0.553922 83:1 84:-0.489216 85:-0.547059 86:1 87:-0.533875 88:-0.516667 89:1 
-1.855858098057523 -2.819310987847156 -1.408362655371401 0:0.583333 1:-0.190053 2:0.730392 3:0.886275 4:0.380407 5:1 6:1 7:1 8:1 9:1 10:1 11:1 12:1 13:1 14:1 15:1 16:1 17:1 18:1 19:0.82451 20:1 21:0.97549 22:0.409804 23:0.944118 24:0.788235 25:0.0705883 26:0.873529 27:0.559804 28:-0.228431 29:0.841176 30:0.277286 31:-0.465686 32:0.769608 33:-0.0928962 34:-0.581373 35:0.64416 36:-0.319201 37:-0.592157 38:0.521569 39:-0.358796 40:-0.6 41:0.353922 42:-0.381333 43:-0.635294 44:0.12549 45:-0.658329 46:-0.747059 47:-0.113726 48:-0.984992 49:-0.835294 50:-0.0745098 51:-1 52:-0.863726 53:0.277451 54:-1 55:-0.955747 56:0.398039 57:-0.929412 58:-1 59:0.194118 60:-0.281373 61:-1 62:-0.0408472 63:0.377451 64:-1 65:-0.31766 66:0.82549 67:-0.886308 68:0.0258449 69:1 70:-0.214537 71:0.896958 72:1 73:0.772752 74:1 75:1 76:0.998039 77:0.91175 78:1 79:1 80:0.565686 81:1 82:1 83:0.656863 84:0.956863 85:0.979412 86:0.706863 87:0.843902 88:0.844118 89:0.394118 
-0.8632520943574672 -0.7253576307986817 -0 0:-0.292157 1:-0.387803 2:0.0911764 3:0.205882 4:-0.368957 5:-0.0029412 6:0.579412 7:-0.352801 8:-0.0705883 9:0.681372 10:-0.419862 11:0.268627 12:0.810784 13:-0.147059 14:0.95 15:1 16:0.631373 17:1 18:1 19:1 20:0.754902 21:1 22:1 23:0.195098 24:1 25:1 26:0.521569 27:1 28:0.992157 29:0.613725 30:1 31:0.723529 32:0.443137 33:0.945355 34:0.384314 35:0.448004 36:0.728649 37:0.0852941 38:0.498039 39:0.451389 40:-0.173529 41:0.50098 42:0.1936 43:-0.37549 44:0.6 45:-0.007983 46:-0.45 47:0.590196 48:-0.0625313 49:-0.472549 50:0.4 51:-0.155882 52:-0.485294 53:0.167647 54:-0.316667 55:-0.522936 56:-0.0784314 57:-0.709804 58:-0.576111 59:-0.215686 60:-1 61:-0.658065 62:0.0499243 63:-1 64:-0.763661 65:0.291416 66:-0.989216 67:-0.952323 68:0.146123 69:-0.514706 70:-1 71:-0.296369 72:0.0568627 73:-1 74:-0.661034 75:0.666667 76:-0.984314 77:-0.335647 78:0.983333 79:-0.690196 80:0.561765 81:1 82:-0.00882351 83:1 84:1 85:0.721569 86:1 87:1 88:1 89:1 
-0.2002658345108849 -0.1758243470965616 -0 0:-0.022549 1:0.365305 2:0.265686 3:-0.301961 4:0.0954199 5:0.238235 6:-0.660784 7:-0.218117 8:0.313725 9:-0.811765 10:-0.46411 11:0.362745 12:-0.535294 13:-0.454902 14:0.067647 15:0.0235294 16:-0.269608 17:-0.143137 18:0.37549 19:0.0313726 20:0.0862745 21:0.867647 22:0.489216 23:0.646078 24:1 25:0.943137 26:0.762745 27:1 28:1 29:0.342157 30:1 31:1 32:0.0529412 33:1 34:1 35:-0.173977 36:1 37:0.965686 38:-0.256863 39:0.865741 40:0.65 41:0.0970588 42:0.668267 43:0.327451 44:0.415686 45:0.470995 46:0.0382353 47:0.510784 48:0.283642 49:-0.171569 50:0.434314 51:0.0852941 52:-0.286274 53:0.383333 54:-0.0598039 55:-0.285483 56:0.378431 57:-0.219608 58:-0.284778 59:0.177451 60:-0.67549 61:-0.633871 62:-0.0922844 63:-1 64:-0.864754 65:0.0377255 66:-1 67:-0.900978 68:0.368787 69:-0.961765 70:-0.958968 71:0.165849 72:-0.372549 73:-0.904026 74:-0.223758 75:0.291176 76:-0.729412 77:-0.497273 78:0.676471 79:-0.466667 80:-0.127451 81:0.989216 82:0.157843 83:0.842157 84:1 85:0.848039 86:0.871569 87:1 88:1 89:0.358823 
-0.1573402747513414 -0.4880268697268259 -0 0:-0.0441177 1:0.345175 2:0.115686 3:-0.215686 4:0.243003 5:0.109804 6:-0.371569 7:-0.0834326 8:0.0617647 9:-0.694118 10:-0.468043 11:-0.0617647 12:-0.995098 13:-0.67549 14:-0.00686277 15:-1 16:-0.814706 17:0.0568627 18:-0.957843 19:-0.945098 20:0.0421568 21:-0.278431 22:-0.953921 23:-0.0490196 24:0.387255 25:-0.778431 26:-0.15098 27:0.710784 28:-0.45098 29:0.208823 30:0.996067 31:0.223529 32:0.914706 33:1 34:0.933333 35:1 36:1 37:1 38:0.422549 39:1 40:1 41:-0.184314 42:1 43:1 44:-0.328431 45:1 46:0.861765 47:-0.236275 48:0.984993 49:0.378431 50:0.142157 51:0.820588 52:0.00392159 53:0.381373 54:0.573529 55:-0.243389 56:0.389216 57:0.24902 58:-0.286234 59:0.448039 60:-0.0117647 61:-0.5 62:0.371659 63:-0.505882 64:-0.946721 65:-0.0508475 66:-1 67:-1 68:-0.138171 69:-1 70:-1 71:0.256133 72:-1 73:-1 74:0.0855095 75:-0.32549 76:-1 77:-0.552801 78:0.730392 79:-0.817647 80:-0.442157 81:0.996078 82:-0.207843 83:0.543137 84:1 85:0.647059 86:1 87:1 88:0.995098 89:0.920588 
-0 -0 -0.5324973277690395 0:-0.389216 1:-0.2836 2:-0.0127451 3:-0.768627 4:-0.492366 5:-0.277451 6:-1 7:-0.676996 8:-0.254902 9:-1 10:-0.880039 11:0.160784 12:-0.901961 13:-0.967647 14:0.297059 15:-0.338235 16:-0.941176 17:0.077451 18:0.143137 19:-0.832353 20:-0.184314 21:0.544118 22:-0.712745 23:-0.129412 24:0.932353 25:-0.297059 26:0.45098 27:1 28:0.486275 29:0.990196 30:1 31:0.997059 32:0.823529 33:1 34:1 35:-0.00640711 36:1 37:1 38:-0.236275 39:1 40:1 41:-0.101961 42:1 43:0.929412 44:-0.0382353 45:1 46:0.528431 47:0.227451 48:0.936968 49:0.121569 50:0.388235 51:0.747059 52:-0.173529 53:0.376471 54:0.533333 55:-0.345925 56:0.391176 57:0.259804 58:-0.354698 59:0.480392 60:0.0470588 61:-0.398387 62:0.416036 63:-0.137255 64:-0.635246 65:0.108803 66:-0.680392 67:-0.93643 68:-0.145129 69:-1 70:-1 71:-0.0736016 72:-1 73:-1 74:0.344598 75:-1 76:-1 77:0.378285 78:-0.646078 79:-1 80:-0.0303922 81:-0.0264706 82:-0.990196 83:-0.290196 84:0.383333 85:-0.938235 86:-0.235294 87:0.744173 88:-0.773529 89:0.376471 
-1.465718460406118 -1.881092483279814 -0.532927951997067 0:-0.717647 1:-0.0870337 2:-0.00490198 3:-0.777451 4:-0.119593 5:0.0245098 6:-0.681373 7:-0.28963 8:0.0558823 9:-0.362745 10:-0.489676 11:-0.0372549 12:0.178431 13:-0.466667 14:-0.0833334 15:0.39902 16:-0.381373 17:0.0470588 18:0.538235 19:-0.213725 20:0.385294 21:0.969608 22:0.155882 23:0.815686 24:1 25:0.721569 26:0.941176 27:1 28:1 29:0.803922 30:1 31:1 32:0.598039 33:1 34:1 35:0.200591 36:1 37:1 38:0.0156863 39:1 40:0.838235 41:0.227451 42:0.986133 43:0.406863 44:0.465686 45:0.782863 46:0.00490198 47:0.635294 48:0.544772 49:-0.280392 50:0.59902 51:0.369608 52:-0.459804 53:0.440196 54:0.217647 55:-0.539126 56:0.355882 57:0.045098 58:-0.453751 59:0.469608 60:-0.0843137 61:-0.406452 62:0.312153 63:-0.198039 64:-0.486339 65:-0.0617824 66:-0.448039 67:-0.671149 68:-0.238569 69:-0.918627 70:-0.853458 71:-0.323847 72:-1 73:-0.859901 74:-0.0947261 75:-1 76:-0.958824 77:0.242439 78:-1 79:-1 80:0.166667 81:-0.864706 82:-1 83:-0.128431 84:-0.194118 85:-1 86:-0.266667 87:0.653116 88:-1 89:0.310784 
-3.497465326146328 -3.88087147168903 -2.500446418825559 0:0.502941 1:0.860272 2:0.356863 3:0.301961 4:0.667939 5:0.193137 6:0.0568627 7:0.256257 8:0.095098 9:-0.168627 10:-0.174041 11:0.0970588 12:-0.416667 13:-0.421569 14:0.163725 15:-0.802941 16:-0.666667 17:-0.0235294 18:-1 19:-0.837255 20:-0.247059 21:-1 22:-0.926471 23:-0.126471 24:-0.996078 25:-1 26:0.0480392 27:-0.589216 28:-1 29:0.027451 30:0.0353982 31:-0.992157 32:-0.0578432 33:0.500546 34:-0.859804 35:0.0970921 36:0.946699 37:-0.428431 38:0.853921 39:1 40:0.458824 41:1 42:1 43:1 44:0.892157 45:1 46:1 47:0.0519608 48:1 49:1 50:-0.0411765 51:1 52:1 53:0.0254902 54:1 55:1 56:0.0568627 57:1 58:1 59:0.217647 60:0.959804 61:0.532258 62:0.302068 63:0.689216 64:-0.195355 65:0.376709 66:0.356863 67:-0.547677 68:0.602386 69:0.0833333 70:-0.661196 71:0.622179 72:-0.054902 73:-0.738555 74:0.308756 75:-0.435294 76:-0.926471 77:-0.0639564 78:-0.986275 79:-1 80:-0.12549 81:-1 82:-1 83:0.414706 84:-1 85:-1 86:0.544118 87:-0.97832 88:-1 89:0.0715686 
-0.7290344297168679 -0.5181953494604016 -0.4040700369801273 0:0.173529 1:0.387803 2:0.164706 3:-0.0627451 4:0.171756 5:0.15 6:-0.334314 7:-0.239571 8:0.135294 9:-0.778431 10:-0.674533 11:-0.00784316 12:-1 13:-0.885294 14:-0.054902 15:-1 16:-0.995098 17:0.144118 18:-1 19:-1 20:0.164706 21:-0.555882 22:-1 23:-0.0627451 24:0.382353 25:-1 26:-0.119608 27:0.839216 28:-0.9 29:0.405882 30:1 31:-0.2 32:0.980392 33:1 34:0.747059 35:0.899458 36:1 37:1 38:0.151961 39:1 40:1 41:-0.231373 42:1 43:1 44:-0.218627 45:1 46:0.891177 47:-0.283333 48:1 49:0.407843 50:-0.0186275 51:0.956863 52:-0.0794117 53:0.279412 54:0.653922 55:-0.353481 56:0.434314 57:0.39902 58:-0.442098 59:0.540196 60:0.0803921 61:-0.529032 62:0.598588 63:-0.148039 64:-0.636612 65:0.431383 66:-0.411765 67:-0.882641 68:0.0437376 69:-0.941176 70:-1 71:-0.16683 72:-1 73:-1 74:0.364055 75:-1 76:-1 77:0.546852 78:-0.935294 79:-1 80:0.045098 81:0.0303921 82:-1 83:-0.45 84:0.865686 85:-1 86:-0.455882 87:1 88:-0.75098 89:0.248039 
-0 -0 -1.154221137186317 0:-0.717647 1:-0.345175 2:0.0362745 3:-0.983333 4:-0.478371 5:0.335294 6:-0.960784 7:-0.673421 8:0.434314 9:-0.432353 10:-0.909538 11:0.35098 12:0.353922 13:-0.903922 14:0.385294 15:0.871569 16:-0.539216 17:0.571569 18:1 19:0.0803922 20:0.928431 21:1 22:0.851961 23:0.977451 24:1 25:1 26:0.558823 27:1 28:1 29:0.0107843 30:1 31:1 32:-0.214706 33:1 34:0.943137 35:-0.234105 36:0.967293 37:0.533333 38:-0.104902 39:0.72338 40:0.165686 41:0.141176 42:0.461333 43:-0.131373 44:0.322549 45:0.184673 46:-0.306863 47:0.326471 48:-0.0385193 49:-0.395098 50:0.261765 51:-0.213726 52:-0.408824 53:0.206863 54:-0.368627 55:-0.395575 56:0.0598039 57:-0.605882 58:-0.434814 59:-0.0696079 60:-0.980392 61:-0.729032 62:0.0146243 63:-1 64:-0.744535 65:0.451066 66:-1 67:-0.9511 68:0.437376 69:-0.819608 70:-1 71:0.0549558 72:-0.22549 73:-1 74:-0.147977 75:0.406863 76:-1 77:-0.0282598 78:0.968627 79:-0.997059 80:0.245098 81:1 82:-0.334314 83:0.569608 84:1 85:0.402941 86:0.643137 87:1 88:0.923529 89:0.812745 
-0.02950921728293036 -0 -0.1118099096444606 0:-0.981373 1:-0.96566 2:0.358823 3:-0.382353 4:-1 5:0.0754902 6:0.671569 7:-1 8:0.264706 9:1 10:-0.771878 11:0.881373 12:1 13:0.127451 14:1 15:1 16:0.909804 17:0.932353 18:1 19:1 20:0.811765 21:1 22:1 23:0.62549 24:1 25:0.995098 26:0.173529 27:1 28:0.688235 29:-0.0970588 30:0.93707 31:0.290196 32:0.0294117 33:0.699453 34:-0.0323529 35:0.276491 36:0.402786 37:-0.301961 38:0.416667 39:0.202546 40:-0.490196 41:0.422549 42:-0.0154667 43:-0.6 44:0.305882 45:-0.307078 46:-0.60098 47:0.193137 48:-0.4007 49:-0.677451 50:-0.0401961 51:-0.69902 52:-0.928431 53:-0.121569 54:-1 55:-0.987048 56:0.418627 57:-1 58:-0.915513 59:0.679412 60:-1 61:-1 62:0.121533 63:-0.380392 64:-1 65:-0.397485 66:0.687255 67:-1 68:-0.166998 69:1 70:-0.699883 71:0.375859 72:1 73:0.000551583 74:0.612903 75:1 76:0.545098 77:0.601388 78:1 79:0.954902 80:0.684314 81:1 82:1 83:0.856863 84:1 85:1 86:0.634314 87:0.900271 88:0.937255 89:0.354902 
-0.7996102270316996 -0.6696725978297036 -0.5679051626076784 0:-0.147059 1:0.053878 2:0.131373 3:-0.346078 4:-0.270992 5:0.113725 6:-0.867647 7:-0.84267 8:0.178431 9:-1 10:-1 11:0.307843 12:-1 13:-1 14:0.320588 15:-0.77451 16:-1 17:0.110784 18:0.239216 19:-0.95098 20:-0.0421569 21:0.968627 22:-0.370588 23:0.316667 24:1 25:0.490196 26:0.422549 27:1 28:0.997059 29:0.0568627 30:1 31:1 32:-0.213726 33:1 34:1 35:-0.272548 36:1 37:0.993137 38:-0.270588 39:1 40:0.644118 41:-0.119608 42:0.866667 43:0.227451 44:0.182353 45:0.575306 46:-0.107843 47:0.328431 48:0.27964 49:-0.404902 50:0.455882 51:-0.0372549 52:-0.526471 53:0.592157 54:-0.276471 55:-0.58122 56:0.487255 57:-0.496078 58:-0.678077 59:0.0882353 60:-0.942157 61:-0.991935 62:-0.22945 63:-1 64:-1 65:0.11099 66:-1 67:-1 68:0.306163 69:-0.779412 70:-1 71:-1.74202e-08 72:0.343137 73:-0.970215 74:-0.197133 75:0.972549 76:-0.506863 77:0.131383 78:1 79:0.162745 80:0.687255 81:1 82:0.839216 83:0.72451 84:1 85:1 86:0.703922 87:1 88:1 89:0.793137 
-1.982630262924842 -1.218932518845589 -0.7157352436291056 0:-0.902941 1:-0.381883 2:0.42451 3:-0.539216 4:-0.43257 5:0.185294 6:-0.0490196 7:-0.439809 8:-0.0343137 9:0.493137 10:-0.385447 11:0.0705882 12:0.941176 13:0.00784316 14:0.492157 15:1 16:0.602941 17:0.896078 18:1 19:0.994118 20:0.866667 21:1 22:1 23:0.535294 24:1 25:1 26:0.179412 27:1 28:0.97451 29:-0.00686277 30:1 31:0.627451 32:0.102941 33:0.783607 34:0.17549 35:0.398719 36:0.373713 37:-0.163725 38:0.543137 39:0.159722 40:-0.404902 41:0.580392 42:-0.0581334 43:-0.561765 44:0.461765 45:-0.337946 46:-0.686274 47:0.288235 48:-0.704852 49:-0.957843 50:0.15 51:-1 52:-1 53:0.352941 54:-1 55:-1 56:0.584314 57:-1 58:-1 59:0.171569 60:-0.606863 61:-1 62:-0.465456 63:0.164706 64:-0.953552 65:-0.72444 66:0.789216 67:-0.562347 68:-0.00497017 69:1 70:0.184056 71:0.617272 72:1 73:0.984556 74:0.701997 75:1 76:1 77:0.565692 78:1 79:1 80:0.805882 81:0.876471 82:0.982353 83:0.831373 84:0.62451 85:0.817647 86:0.752941 87:0.415718 88:0.65098 89:0.516667 
