svm_type c_svc
kernel_type rbf
gamma 0.03125
nr_class 5
total_sv 103
rho -0.445115 -0.415293 -0.326726 -0.265997 0.354256 0.166184 0.90645 -0.0451156 0.190025 0.0984938
label -1 1 3 2 4
nr_sv 18 15 30 15 25
SV
0.05884031645139502 0.2195374036369177 0.2479361709673958 0.2174213038652349 0:-0.137255 1:0.135583 2:0.233333 3:-0.17451 4:0.157761 5:0.153922 6:-0.241176 7:0.011919 8:0.0578431 9:-0.310784 10:-0.251721 11:-0.0647059 12:-0.491176 13:-0.391176 14:-0.157843 15:-0.852941 16:-0.632353 17:-0.194118 18:-1 19:-0.815686 20:-0.196078 21:-1 22:-0.963726 23:-0.155882 24:-0.629412 25:-1 26:-0.0696079 27:0.134314 28:-1 29:-0.0343137 30:0.496558 31:-0.985294 32:0.0823529 33:0.783607 34:-0.738235 35:0.720588 36:1 37:-0.0607843 38:1 39:1 40:0.837255 41:1 42:1 43:1 44:1 45:1 46:1 47:1 48:1 49:1 50:0.729412 51:1 52:0.976471 53:0.267647 54:1 55:0.691311 56:0.409804 57:0.920588 58:0.424618 59:0.781372 60:0.570588 61:-0.246734 62:0.847705 63:0.240196 64:-0.629781 65:0.790049 66:0.0333333 67:-0.821516 68:0.763419 69:-0.10098 70:-0.916764 71:0.445535 72:-0.458824 73:-0.998897 74:-0.240143 75:-0.986275 76:-1 77:-0.540902 78:-1 79:-1 80:-0.0696079 81:-1 82:-1 83:0.147059 84:-0.834314 85:-1 86:-0.138235 87:0.0840108 88:-1 89:-0.431373 
0.6837981240730314 0.7480284368984487 0.5554904012659851 0.7770145269643987 0:0.583333 1:-0.190053 2:0.730392 3:0.886275 4:0.380407 5:1 6:1 7:1 8:1 9:1 10:1 11:1 12:1 13:1 14:1 15:1 16:1 17:1 18:1 19:0.82451 20:1 21:0.97549 22:0.409804 23:0.944118 24:0.788235 25:0.0705883 26:0.873529 27:0.559804 28:-0.228431 29:0.841176 30:0.277286 31:-0.465686 32:0.769608 33:-0.0928962 34:-0.581373 35:0.635294 36:-0.319201 37:-0.592157 38:0.521569 39:-0.358796 40:-0.6 41:0.353922 42:-0.381333 43:-0.635294 44:0.12549 45:-0.658329 46:-0.747059 47:-0.113726 48:-0.984992 49:-0.835294 50:-0.0745098 51:-1 52:-0.863726 53:0.277451 54:-1 55:-0.955747 56:0.398039 57:-0.929412 58:-1 59:0.194118 60:-0.281373 61:-1 62:-0.0408472 63:0.377451 64:-1 65:-0.31766 66:0.82549 67:-0.886308 68:0.0258449 69:1 70:-0.214537 71:0.896958 72:1 73:0.772752 74:1 75:1 76:0.998039 77:0.91175 78:1 79:1 80:0.565686 81:1 82:1 83:0.656863 84:0.956863 85:0.979412 86:0.706863 87:0.843902 88:0.844118 89:0.394118 
0.1738226169679424 0.1939507670364246 0.1499612314181296 0.1286647225286217 0:0.0627451 1:-0.308467 2:0.118627 3:0.396078 4:-0.223919 5:0.228431 6:0.566667 7:-0.0393325 8:0.617647 9:0.916667 10:0.214356 11:0.996078 12:1 13:0.839216 14:1 15:1 16:1 17:0.904902 18:1 19:1 20:0.580392 21:1 22:1 23:0.65098 24:1 25:0.981373 26:0.582353 27:1 28:0.698039 29:0.484314 30:0.917404 31:0.35 32:0.528431 33:0.655738 34:0.0303922 35:0.526471 36:0.343428 37:-0.219608 38:0.512745 39:0.130787 40:-0.394118 41:0.536275 42:0.024 43:-0.492157 44:0.469608 45:-0.165514 46:-0.52549 47:0.322549 48:-0.273637 49:-0.529412 50:0.177451 51:-0.45 52:-0.577451 53:-0.0186275 54:-0.833333 55:-0.616838 56:-0.24902 57:-1 58:-0.602331 59:-0.197059 60:-1 61:-0.728592 62:0.149773 63:-1 64:-0.9153 65:0.287042 66:-0.781373 67:-0.997555 68:0.17992 69:-0.161765 70:-1 71:0.00883217 72:0.413725 73:-1 74:-0.12852 75:0.851961 76:-0.97451 77:0.237481 78:1 79:-0.45 80:0.964706 81:1 82:0.513726 83:1 84:1 85:0.992157 86:0.888235 87:1 88:1 89:0.62549 
0.3152162014440248 0.54122030111974 0 0.353662094892456 0:-0.292157 1:-0.387803 2:0.0911764 3:0.205882 4:-0.368957 5:-0.0029412 6:0.579412 7:-0.352801 8:-0.0705883 9:0.681372 10:-0.419862 11:0.268627 12:0.810784 13:-0.147059 14:0.95 15:1 16:0.631373 17:1 18:1 19:1 20:0.754902 21:1 22:1 23:0.195098 24:1 25:1 26:0.521569 27:1 28:0.992157 29:0.613725 30:1 31:0.723529 32:0.443137 33:0.945355 34:0.384314 35:0.440196 36:0.728649 37:0.0852941 38:0.498039 39:0.451389 40:-0.173529 41:0.50098 42:0.1936 43:-0.37549 44:0.6 45:-0.007983 46:-0.45 47:0.590196 48:-0.0625313 49:-0.472549 50:0.4 51:-0.155882 52:-0.485294 53:0.167647 54:-0.316667 55:-0.522936 56:-0.0784314 57:-0.709804 58:-0.576111 59:-0.215686 60:-1 61:-0.692308 62:0.0499243 63:-1 64:-0.763661 65:0.291416 66:-0.989216 67:-0.952323 68:0.146123 69:-0.514706 70:-1 71:-0.296369 72:0.0568627 73:-1 74:-0.661034 75:0.666667 76:-0.984314 77:-0.335647 78:0.983333 79:-0.690196 80:0.561765 81:1 82:-0.00882351 83:1 84:1 85:0.721569 86:1 87:1 88:1 89:1 
0.02776207611122772 0 0 0.01763822675284109 0:-0.022549 1:0.365305 2:0.265686 3:-0.301961 4:0.0954199 5:0.238235 6:-0.660784 7:-0.218117 8:0.313725 9:-0.811765 10:-0.46411 11:0.362745 12:-0.535294 13:-0.454902 14:0.067647 15:0.0235294 16:-0.269608 17:-0.143137 18:0.37549 19:0.0313726 20:0.0862745 21:0.867647 22:0.489216 23:0.646078 24:1 25:0.943137 26:0.762745 27:1 28:1 29:0.342157 30:1 31:1 32:0.0529412 33:1 34:1 35:-0.178431 36:1 37:0.965686 38:-0.256863 39:0.865741 40:0.65 41:0.0970588 42:0.668267 43:0.327451 44:0.415686 45:0.470995 46:0.0382353 47:0.510784 48:0.283642 49:-0.171569 50:0.434314 51:0.0852941 52:-0.286274 53:0.383333 54:-0.0598039 55:-0.285483 56:0.378431 57:-0.219608 58:-0.284778 59:0.177451 60:-0.67549 61:-0.670537 62:-0.0922844 63:-1 64:-0.864754 65:0.0377255 66:-1 67:-0.900978 68:0.368787 69:-0.961765 70:-0.958968 71:0.165849 72:-0.372549 73:-0.904026 74:-0.223758 75:0.291176 76:-0.729412 77:-0.497273 78:0.676471 79:-0.466667 80:-0.127451 81:0.989216 82:0.157843 83:0.842157 84:1 85:0.848039 86:0.871569 87:1 88:1 89:0.358823 
0.3803192852652781 0.4316984463601418 0.2284022771323979 0.4132050770379918 0:-0.0441177 1:0.345175 2:0.115686 3:-0.215686 4:0.243003 5:0.109804 6:-0.371569 7:-0.0834326 8:0.0617647 9:-0.694118 10:-0.468043 11:-0.0617647 12:-0.995098 13:-0.67549 14:-0.00686277 15:-1 16:-0.814706 17:0.0568627 18:-0.957843 19:-0.945098 20:0.0421568 21:-0.278431 22:-0.953921 23:-0.0490196 24:0.387255 25:-0.778431 26:-0.15098 27:0.710784 28:-0.45098 29:0.208823 30:0.996067 31:0.223529 32:0.914706 33:1 34:0.933333 35:0.989216 36:1 37:1 38:0.422549 39:1 40:1 41:-0.184314 42:1 43:1 44:-0.328431 45:1 46:0.861765 47:-0.236275 48:0.984993 49:0.378431 50:0.142157 51:0.820588 52:0.00392159 53:0.381373 54:0.573529 55:-0.243389 56:0.389216 57:0.24902 58:-0.286234 59:0.448039 60:-0.0117647 61:-0.550073 62:0.371659 63:-0.505882 64:-0.946721 65:-0.0508475 66:-1 67:-1 68:-0.138171 69:-1 70:-1 71:0.256133 72:-1 73:-1 74:0.0855095 75:-0.32549 76:-1 77:-0.552801 78:0.730392 79:-0.817647 80:-0.442157 81:0.996078 82:-0.207843 83:0.543137 84:1 85:0.647059 86:1 87:1 88:0.995098 89:0.920588 
0.6142925362813385 0.8667385670605818 0.4524768344152855 0.6622487043374786 0:-0.717647 1:-0.0870337 2:-0.00490198 3:-0.777451 4:-0.119593 5:0.0245098 6:-0.681373 7:-0.28963 8:0.0558823 9:-0.362745 10:-0.489676 11:-0.0372549 12:0.178431 13:-0.466667 14:-0.0833334 15:0.39902 16:-0.381373 17:0.0470588 18:0.538235 19:-0.213725 20:0.385294 21:0.969608 22:0.155882 23:0.815686 24:1 25:0.721569 26:0.941176 27:1 28:1 29:0.803922 30:1 31:1 32:0.598039 33:1 34:1 35:0.194118 36:1 37:1 38:0.0156863 39:1 40:0.838235 41:0.227451 42:0.986133 43:0.406863 44:0.465686 45:0.782863 46:0.00490198 47:0.635294 48:0.544772 49:-0.280392 50:0.59902 51:0.369608 52:-0.459804 53:0.440196 54:0.217647 55:-0.539126 56:0.355882 57:0.045098 58:-0.453751 59:0.469608 60:-0.0843137 61:-0.465893 62:0.312153 63:-0.198039 64:-0.486339 65:-0.0617824 66:-0.448039 67:-0.671149 68:-0.238569 69:-0.918627 70:-0.853458 71:-0.323847 72:-1 73:-0.859901 74:-0.0947261 75:-1 76:-0.958824 77:0.242439 78:-1 79:-1 80:0.166667 81:-0.864706 82:-1 83:-0.128431 84:-0.194118 85:-1 86:-0.266667 87:0.653116 88:-1 89:0.310784 
0.9349071288904606 0.9489546378121603 0.6699529543799504 0.9147605803276173 0:0.502941 1:0.860272 2:0.356863 3:0.301961 4:0.667939 5:0.193137 6:0.0568627 7:0.256257 8:0.095098 9:-0.168627 10:-0.174041 11:0.0970588 12:-0.416667 13:-0.421569 14:0.163725 15:-0.802941 16:-0.666667 17:-0.0235294 18:-1 19:-0.837255 20:-0.247059 21:-1 22:-0.926471 23:-0.126471 24:-0.996078 25:-1 26:0.0480392 27:-0.589216 28:-1 29:0.027451 30:0.0353982 31:-0.992157 32:-0.0578432 33:0.500546 34:-0.859804 35:0.0911764 36:0.946699 37:-0.428431 38:0.853921 39:1 40:0.458824 41:1 42:1 43:1 44:0.892157 45:1 46:1 47:0.0519608 48:1 49:1 50:-0.0411765 51:1 52:1 53:0.0254902 54:1 55:1 56:0.0568627 57:1 58:1 59:0.217647 60:0.959804 61:0.37881 62:0.302068 63:0.689216 64:-0.195355 65:0.376709 66:0.356863 67:-0.547677 68:0.602386 69:0.0833333 70:-0.661196 71:0.622179 72:-0.054902 73:-0.738555 74:0.308756 75:-0.435294 76:-0.926471 77:-0.0639564 78:-0.986275 79:-1 80:-0.12549 81:-1 82:-1 83:0.414706 84:-1 85:-1 86:0.544118 87:-0.97832 88:-1 89:0.0715686 
0.3322530015370916 0.2718175211785729 0.3303904123603115 0.3204911139841595 0:0.173529 1:0.387803 2:0.164706 3:-0.0627451 4:0.171756 5:0.15 6:-0.334314 7:-0.239571 8:0.135294 9:-0.778431 10:-0.674533 11:-0.00784316 12:-1 13:-0.885294 14:-0.054902 15:-1 16:-0.995098 17:0.144118 18:-1 19:-1 20:0.164706 21:-0.555882 22:-1 23:-0.0627451 24:0.382353 25:-1 26:-0.119608 27:0.839216 28:-0.9 29:0.405882 30:1 31:-0.2 32:0.980392 33:1 34:0.747059 35:0.889216 36:1 37:1 38:0.151961 39:1 40:1 41:-0.231373 42:1 43:1 44:-0.218627 45:1 46:0.891177 47:-0.283333 48:1 49:0.407843 50:-0.0186275 51:0.956863 52:-0.0794117 53:0.279412 54:0.653922 55:-0.353481 56:0.434314 57:0.39902 58:-0.442098 59:0.540196 60:0.0803921 61:-0.576197 62:0.598588 63:-0.148039 64:-0.636612 65:0.431383 66:-0.411765 67:-0.882641 68:0.0437376 69:-0.941176 70:-1 71:-0.16683 72:-1 73:-1 74:0.364055 75:-1 76:-1 77:0.546852 78:-0.935294 79:-1 80:0.045098 81:0.0303921 82:-1 83:-0.45 84:0.865686 85:-1 86:-0.455882 87:1 88:-0.75098 89:0.248039 
0.1242491800096959 0.0826689636005056 0.2160244307582238 0.04803649091431766 0:-0.531373 1:-0.150977 2:0.131373 3:-0.881373 4:-0.277354 5:0.369608 6:-1 7:-0.454112 8:0.578431 9:-0.995098 10:-0.704031 11:0.518627 12:-0.655882 13:-0.902941 14:0.287255 15:-0.00980395 16:-0.995098 17:0.142157 18:0.705882 19:-0.910784 20:0.272549 21:0.996078 22:-0.516667 23:0.456863 24:1 25:0.0970588 26:0.831373 27:1 28:0.762745 29:0.820588 30:1 31:1 32:0.265686 33:1 34:1 35:-0.20098 36:1 37:1 38:-0.370588 39:1 40:0.918627 41:-0.360784 42:1 43:0.523529 44:-0.237255 45:0.948909 46:0.166667 47:0.0627451 48:0.770885 49:-0.0990196 50:0.262745 51:0.593137 52:-0.309804 53:0.334314 54:0.357843 55:-0.400971 56:0.360784 57:0.146078 58:-0.271668 59:0.353922 60:-0.0137255 61:-0.367199 62:0.331316 63:-0.190196 64:-0.684426 65:0.0650629 66:-0.719608 67:-1 68:0.0228628 69:-1 70:-1 71:0.707556 72:-1 73:-1 74:0.974398 75:-0.957843 76:-1 77:0.419931 78:-0.107843 79:-1 80:-0.248039 81:0.776471 82:-0.959804 83:-0.316667 84:0.951961 85:-0.554902 86:0.27549 87:1 88:0.0892157 89:0.780392 
0.05582578797506448 0.0960648359104319 0.1924911695128487 0.1370016686512454 0:-0.281373 1:-0.895796 2:0.14902 3:0.370588 4:-1 5:0.180392 6:0.963726 7:-0.897497 8:0.351961 9:1 10:-0.289086 11:0.935294 12:1 13:0.67549 14:1 15:1 16:1 17:0.65 18:1 19:1 20:0.619608 21:1 22:1 23:0.987255 24:1 25:1 26:0.708823 27:1 28:0.777451 29:0.334314 30:0.985251 31:0.408824 32:0.337255 33:0.784699 34:0.0627451 35:0.452941 36:0.419746 37:-0.221569 38:0.568627 39:0.181713 40:-0.413725 41:0.619608 42:0.0624 43:-0.521569 44:0.52549 45:-0.104843 46:-0.537255 47:0.329412 48:-0.165583 49:-0.561765 50:0.126471 51:-0.262745 52:-0.652941 53:-0.110784 54:-0.569608 55:-0.842418 56:-0.201961 57:-0.985294 58:-0.924253 59:0.176471 60:-1 61:-0.917271 62:0.515885 63:-1 64:-0.994535 65:0.250957 66:-0.865686 67:-1 68:-0.0407555 69:-0.439216 70:-1 71:-0.204122 72:0.180392 73:-1 74:-0.359959 75:0.846078 76:-0.993137 77:0.435796 78:1 79:-0.281373 80:1 81:1 82:0.780392 83:0.894118 84:1 85:1 86:0.821569 87:1 88:1 89:0.901961 
0 0.09681107568841678 0 0.04685985199993811 0:-0.522549 1:-0.455299 2:0.0137255 3:-0.919608 4:-0.681934 5:0.183333 6:-1 7:-0.864124 8:0.458824 9:-0.996078 10:-1 11:0.35098 12:-0.360784 13:-1 14:0.207843 15:0.391176 16:-0.998039 17:0.0333333 18:0.6 19:-0.877451 20:0.0411764 21:0.946078 22:-0.526471 23:0.814706 24:1 25:0.406863 26:1 27:1 28:0.998039 29:1 30:1 31:1 32:0.868627 33:1 34:1 35:0.361765 36:1 37:1 38:0.00784311 39:1 40:0.868628 41:-0.267647 42:0.995733 43:0.480392 44:-0.12549 45:0.819053 46:0.121569 47:0.190196 48:0.53977 49:-0.170588 50:0.406863 51:0.312745 52:-0.391176 53:0.431373 54:0.130392 55:-0.423637 56:0.401961 57:-0.0176471 58:-0.268754 59:0.313725 60:-0.146078 61:-0.304789 62:0.160867 63:-0.198039 64:-0.531421 65:-0.18316 66:-0.482353 67:-0.948655 68:-0.185885 69:-0.998039 70:-1 71:0.515211 72:-1 73:-1 74:0.989759 75:-0.984314 76:-1 77:0.60238 78:-0.102941 79:-1 80:0.00588233 81:0.968627 82:-1 83:-0.310784 84:1 85:-0.913725 86:0.355882 87:1 88:-0.106863 89:0.97451 
0.01971840115170533 0 0.2145811648469348 0 0:-0.717647 1:-0.345175 2:0.0362745 3:-0.983333 4:-0.478371 5:0.335294 6:-0.960784 7:-0.673421 8:0.434314 9:-0.432353 10:-0.909538 11:0.35098 12:0.353922 13:-0.903922 14:0.385294 15:0.871569 16:-0.539216 17:0.571569 18:1 19:0.0803922 20:0.928431 21:1 22:0.851961 23:0.977451 24:1 25:1 26:0.558823 27:1 28:1 29:0.0107843 30:1 31:1 32:-0.214706 33:1 34:0.943137 35:-0.238235 36:0.967293 37:0.533333 38:-0.104902 39:0.72338 40:0.165686 41:0.141176 42:0.461333 43:-0.131373 44:0.322549 45:0.184673 46:-0.306863 47:0.326471 48:-0.0385193 49:-0.395098 50:0.261765 51:-0.213726 52:-0.408824 53:0.206863 54:-0.368627 55:-0.395575 56:0.0598039 57:-0.605882 58:-0.434814 59:-0.0696079 60:-0.980392 61:-0.756168 62:0.0146243 63:-1 64:-0.744535 65:0.451066 66:-1 67:-0.9511 68:0.437376 69:-0.819608 70:-1 71:0.0549558 72:-0.22549 73:-1 74:-0.147977 75:0.406863 76:-1 77:-0.0282598 78:0.968627 79:-0.997059 80:0.245098 81:1 82:-0.334314 83:0.569608 84:1 85:0.402941 86:0.643137 87:1 88:0.923529 89:0.812745 
0 0 0.01090629094388771 0 0:-0.981373 1:-0.96566 2:0.358823 3:-0.382353 4:-1 5:0.0754902 6:0.671569 7:-1 8:0.264706 9:1 10:-0.771878 11:0.881373 12:1 13:0.127451 14:1 15:1 16:0.909804 17:0.932353 18:1 19:1 20:0.811765 21:1 22:1 23:0.62549 24:1 25:0.995098 26:0.173529 27:1 28:0.688235 29:-0.0970588 30:0.93707 31:0.290196 32:0.0294117 33:0.699453 34:-0.0323529 35:0.269608 36:0.402786 37:-0.301961 38:0.416667 39:0.202546 40:-0.490196 41:0.422549 42:-0.0154667 43:-0.6 44:0.305882 45:-0.307078 46:-0.60098 47:0.193137 48:-0.4007 49:-0.677451 50:-0.0401961 51:-0.69902 52:-0.928431 53:-0.121569 54:-1 55:-0.987048 56:0.418627 57:-1 58:-0.915513 59:0.679412 60:-1 61:-1 62:0.121533 63:-0.380392 64:-1 65:-0.397485 66:0.687255 67:-1 68:-0.166998 69:1 70:-0.699883 71:0.375859 72:1 73:0.000551583 74:0.612903 75:1 76:0.545098 77:0.601388 78:1 79:0.954902 80:0.684314 81:1 82:1 83:0.856863 84:1 85:1 86:0.634314 87:0.900271 88:0.937255 89:0.354902 
0 0.06738964093236055 0 0 0:-0.979412 1:-0.428064 2:0.00686272 3:-1 4:-0.577608 5:0.242157 6:-0.892157 7:-0.928486 8:0.195098 9:-0.288235 10:-1 11:0.212745 12:0.411765 13:-1 14:0.318627 15:0.936274 16:-0.82451 17:0.466667 18:1 19:-0.281373 20:0.92549 21:1 22:0.680392 23:1 24:1 25:1 26:1 27:1 28:1 29:1 30:1 31:1 32:0.894118 33:1 34:0.996078 35:0.376471 36:1 37:0.785294 38:0.376471 39:0.883102 40:0.490196 41:0.139216 42:0.703467 43:0.197059 44:0.316667 45:0.425226 46:-0.0666666 47:0.443137 48:0.196598 49:-0.284314 50:0.552941 51:0.0352941 52:-0.379412 53:0.542157 54:-0.129412 55:-0.359957 56:0.363725 57:-0.27451 58:-0.162418 59:0.15098 60:-0.387255 61:-0.2627 62:-0.0559758 63:-0.585294 64:-0.688525 65:-0.32094 66:-0.981373 67:-0.997555 68:-0.0934394 69:-1 70:-1 71:0.421001 72:-1 73:-1 74:0.577061 75:-0.579412 76:-1 77:0.248389 78:0.562745 79:-1 80:0.0323529 81:1 82:-0.982353 83:0.568627 84:1 85:-0.221569 86:0.995098 87:1 88:0.72451 89:0.831373 
0.3530069276893089 0.388083675550823 0.3795722294150706 0.4583903156277241 0:-0.147059 1:0.053878 2:0.131373 3:-0.346078 4:-0.270992 5:0.113725 6:-0.867647 7:-0.84267 8:0.178431 9:-1 10:-1 11:0.307843 12:-1 13:-1 14:0.320588 15:-0.77451 16:-1 17:0.110784 18:0.239216 19:-0.95098 20:-0.0421569 21:0.968627 22:-0.370588 23:0.316667 24:1 25:0.490196 26:0.422549 27:1 28:0.997059 29:0.0568627 30:1 31:1 32:-0.213726 33:1 34:1 35:-0.276471 36:1 37:0.993137 38:-0.270588 39:1 40:0.644118 41:-0.119608 42:0.866667 43:0.227451 44:0.182353 45:0.575306 46:-0.107843 47:0.328431 48:0.27964 49:-0.404902 50:0.455882 51:-0.0372549 52:-0.526471 53:0.592157 54:-0.276471 55:-0.58122 56:0.487255 57:-0.496078 58:-0.678077 59:0.0882353 60:-0.942157 61:-0.992743 62:-0.22945 63:-1 64:-1 65:0.11099 66:-1 67:-1 68:0.306163 69:-0.779412 70:-1 71:-1.74202e-08 72:0.343137 73:-0.970215 74:-0.197133 75:0.972549 76:-0.506863 77:0.131383 78:1 79:0.162745 80:0.687255 81:1 82:0.839216 83:0.72451 84:1 85:1 86:0.703922 87:1 88:1 89:0.793137 
0.1383482960982808 0.1559820573840889 0.09269879452612166 0.1946982913453166 0:-1 1:-0.612789 2:0.341176 3:-0.906863 4:-0.768448 5:0.267647 6:-0.37451 7:-0.898689 8:0.0735294 9:0.215686 10:-0.872173 11:-0.0627451 12:0.896078 13:-0.563725 14:0.160784 15:1 16:0.0568628 17:0.484314 18:1 19:0.705882 20:0.815686 21:1 22:1 23:0.979412 24:1 25:1 26:0.609804 27:1 28:1 29:0.143137 30:1 31:0.992157 32:-0.0460785 33:1 34:0.709804 35:0.00294115 36:0.898243 37:0.310784 38:0.211765 39:0.579861 40:-0.0264706 41:0.417647 42:0.3408 43:-0.303922 44:0.483333 45:0.104843 46:-0.42549 47:0.390196 48:-0.00750375 49:-0.560784 50:0.223529 51:-0.287255 52:-0.810784 53:0.05 54:-0.89902 55:-1 56:0.0441176 57:-1 58:-1 59:0.580392 60:-1 61:-1 62:0.598588 63:-0.853922 64:-1 65:-0.0716238 66:-0.0539216 67:-1 68:-0.333996 69:0.666667 70:-0.783118 71:-0.179588 72:1 73:-0.209046 74:0.602663 75:1 76:0.444118 77:1 78:1 79:0.94902 80:0.773529 81:1 82:1 83:0.447059 84:1 85:1 86:0.168627 87:1 88:0.978431 89:-0.113726 
0.4082674585375782 0.5176609722661797 0.3429535408953215 0.5604071434195234 0:-0.902941 1:-0.381883 2:0.42451 3:-0.539216 4:-0.43257 5:0.185294 6:-0.0490196 7:-0.439809 8:-0.0343137 9:0.493137 10:-0.385447 11:0.0705882 12:0.941176 13:0.00784316 14:0.492157 15:1 16:0.602941 17:0.896078 18:1 19:0.994118 20:0.866667 21:1 22:1 23:0.535294 24:1 25:1 26:0.179412 27:1 28:0.97451 29:-0.00686277 30:1 31:0.627451 32:0.102941 33:0.783607 34:0.17549 35:0.391176 36:0.373713 37:-0.163725 38:0.543137 39:0.159722 40:-0.404902 41:0.580392 42:-0.0581334 43:-0.561765 44:0.461765 45:-0.337946 46:-0.686274 47:0.288235 48:-0.704852 49:-0.957843 50:0.15 51:-1 52:-1 53:0.352941 54:-1 55:-1 56:0.584314 57:-1 58:-1 59:0.171569 60:-0.606863 61:-1 62:-0.465456 63:0.164706 64:-0.953552 65:-0.72444 66:0.789216 67:-0.562347 68:-0.00497017 69:1 70:0.184056 71:0.617272 72:1 73:0.984556 74:0.701997 75:1 76:1 77:0.565692 78:1 79:1 80:0.805882 81:0.876471 82:0.982353 83:0.831373 84:0.62451 85:0.817647 86:0.752941 87:0.415718 88:0.65098 89:0.516667 
-0.2724005274989323 0.8333917426073602 0 0 0:0.395098 1:-0.687389 2:1 3:0.847059 4:-0.885496 5:1 6:1 7:-0.998808 8:0.902941 9:0.906863 10:-1 11:0.708823 12:0.784314 13:-1 14:0.75098 15:1 16:-1 17:1 18:1 19:-1 20:0.647059 21:1 22:-1 23:0.255882 24:1 25:-1 26:0.382353 27:0.982353 28:-1 29:0.0284313 30:1 31:-1 32:-0.202941 33:1 34:-1 35:-0.59902 36:1 37:-1 38:-0.819608 39:1 40:-1 41:-0.663726 42:1 43:-1 44:-0.6 45:1 46:-0.985294 47:-0.561765 48:1 49:-0.839216 50:-0.384314 51:0.955882 52:-0.765686 53:-0.329412 54:0.779412 55:-0.450621 56:-0.494118 57:0.00392155 58:0.479971 59:0.00392155 60:0.00392155 61:0.474601 62:-0.0247101 63:0.00392155 64:0.387978 65:-0.11099 66:0.00392155 67:0.242054 68:-0.00994035 69:0.00392155 70:0.19109 71:0.00294405 72:0.00392155 73:0.120794 74:-0.0404506 75:0.00392155 76:-0.00392155 77:-0.00743678 78:0.00392155 79:-0.00392155 80:0.00392155 81:0.00392155 82:-0.00392155 83:0.00392155 84:0.00392155 85:-0.00392155 86:0.00392155 87:-0.101355 88:-0.00392155 89:0.00392155 
-0.09985509031338141 0.2368956052185277 0.06345540329039412 0.2230127944289539 0:-0.734314 1:-0.0159858 2:1 3:-0.660784 4:-0.0203562 5:1 6:-0.483333 7:-0.184744 8:1 9:-0.251961 10:-0.448378 11:1 12:-0.0470588 13:-0.652941 14:1 15:0.351961 16:-0.95 17:1 18:0.887255 19:-1 20:0.933333 21:1 22:-1 23:0.632353 24:0.802941 25:-1 26:0.456863 27:0.606863 28:-1 29:0.529412 30:0.834808 31:-1 32:0.747059 33:0.84918 34:-1 35:0.292157 36:0.697153 37:-1 38:-0.3 39:0.829861 40:-1 41:0.0852941 42:0.848533 43:-1 44:0.215686 45:0.820117 46:-1 47:-0.197059 48:0.98099 49:-1 50:-0.482353 51:1 52:-1 53:-0.740196 54:1 55:-1 56:-0.737255 57:1 58:-1 59:-0.711765 60:0.946078 61:-1 62:-0.76702 63:0.847059 64:-1 65:-0.855659 66:0.85098 67:-0.915648 68:-0.616302 69:0.842157 70:-0.618992 71:-0.506379 72:0.781372 73:-0.569774 74:-0.476702 75:0.00392155 76:-0.00392155 77:-0.00743678 78:0.00392155 79:-0.00392155 80:0.00392155 81:0.00392155 82:-0.00392155 83:0.00392155 84:0.00392155 85:-0.00392155 86:0.00392155 87:-0.101355 88:-0.00392155 89:0.00392155 
-0.031543956071869 0 0 0.137280257235893 0:-0.457843 1:-0.465956 2:1 3:-0.309804 4:-0.748092 5:1 6:-0.0205883 7:-0.989273 8:1 9:0.610784 10:-1 11:1 12:0.853921 13:-1 14:1 15:0.944118 16:-1 17:0.791176 18:1 19:-1 20:0.270588 21:1 22:-1 23:0.0588235 24:1 25:-1 26:0.2 27:0.947059 28:-1 29:0.15 30:1 31:-1 32:-0.226471 33:1 34:-1 35:-0.394118 36:1 37:-1 38:-0.804902 39:1 40:-1 41:-1 42:1 43:-1 44:-0.858824 45:0.996807 46:-1 47:-0.695098 48:0.815908 49:-0.997059 50:-0.733333 51:0.686274 52:-0.869608 53:-0.666667 54:0.721569 55:-0.67728 56:-0.559804 57:0.642157 58:-0.455208 59:-0.445098 60:0.526471 61:-0.298984 62:-0.288956 63:0.690196 64:-0.269126 65:-0.634773 66:0.789216 67:-0.0134474 68:-0.472167 69:0.8 70:-0.049238 71:-0.171737 72:0.79902 73:-0.218974 74:-0.409114 75:0.742157 76:-0.270588 77:-0.145265 78:0.859804 79:-0.220588 80:-0.102941 81:0.809804 82:-0.137255 83:-0.107843 84:0.787255 85:-0.155882 86:0.0284313 87:0.710569 88:-0.209804 89:0.17549 
-0.178072376951917 0 0.3411530089474485 0.5570310618594294 0:-0.0970588 1:-0.881587 2:1 3:0.385294 4:-1 5:1 6:0.94902 7:-1 8:1 9:1 10:-1 11:0.906863 12:1 13:-1 14:0.747059 15:0.967647 16:-1 17:0.672549 18:0.99902 19:-1 20:0.526471 21:1 22:-1 23:0.160784 24:1 25:-1 26:-0.479412 27:1 28:-1 29:-0.990196 30:1 31:-1 32:-0.896078 33:0.985792 34:-1 35:-0.527451 36:0.969715 37:-1 38:-0.609804 39:0.998843 40:-1 41:-0.869608 42:1 43:-1 44:-0.981373 45:0.953166 46:-0.998039 47:-1 48:0.818909 49:-0.902941 50:-0.927451 51:0.684314 52:-0.782353 53:-0.737255 54:0.570588 55:-0.623313 56:-0.509804 57:0.55 58:-0.274581 59:-0.393137 60:0.00392155 61:0.474601 62:-0.0247101 63:0.00392155 64:0.387978 65:-0.11099 66:0.00392155 67:0.242054 68:-0.00994035 69:0.00392155 70:0.19109 71:0.00294405 72:0.00392155 73:0.120794 74:-0.0404506 75:0.00392155 76:-0.00392155 77:-0.00743678 78:0.00392155 79:-0.00392155 80:0.00392155 81:0.00392155 82:-0.00392155 83:0.00392155 84:0.00392155 85:-0.00392155 86:0.00392155 87:-0.101355 88:-0.00392155 89:0.00392155 
-1.027886130738745 3.721616427889249 1.302533283421219 32 0:0.517647 1:-0.121374 2:-0.187255 3:0.521569 4:-0.0534351 5:-0.188235 6:0.5 7:-0.0977354 8:-0.182353 9:0.00392155 10:-0.000983278 11:0.00392155 12:0.00392155 13:-0.00392155 14:0.00392155 15:0.00392155 16:-0.00392155 17:0.00392155 18:0.00392155 19:-0.00392155 20:0.00392155 21:0.00392155 22:-0.00392155 23:0.00392155 24:0.00392155 25:-0.00392155 26:0.00392155 27:0.00392155 28:-0.00392155 29:0.00392155 30:0.000983278 31:-0.00392155 32:0.00392155 33:-0.110383 34:-0.00392155 35:0.00392155 36:-0.230769 37:-0.00392155 38:0.00392155 39:-0.175926 40:-0.00392155 41:0.00392155 42:-0.0837334 43:-0.00392155 44:0.00392155 45:-0.0814263 46:-0.00392155 47:0.00392155 48:-0.0165082 49:-0.00392155 50:0.00392155 51:0.00392155 52:-0.00392155 53:0.00392155 54:0.00392155 55:0.0966001 56:0.00392155 57:0.00392155 58:0.479971 59:0.00392155 60:0.00392155 61:0.474601 62:-0.0247101 63:0.00392155 64:0.387978 65:-0.11099 66:0.00392155 67:0.242054 68:-0.00994035 69:0.00392155 70:0.19109 71:0.00294405 72:0.00392155 73:0.120794 74:-0.0404506 75:0.00392155 76:-0.00392155 77:-0.00743678 78:0.00392155 79:-0.00392155 80:0.00392155 81:0.00392155 82:-0.00392155 83:0.00392155 84:0.00392155 85:-0.00392155 86:0.00392155 87:-0.101355 88:-0.00392155 89:0.00392155 
-0 0 0.2672077187106901 0 0:-0.402941 1:-0.10598 2:1 3:-0.232353 4:-0.165394 5:1 6:0.0578431 7:-0.418355 8:1 9:0.467647 10:-0.791544 11:1 12:0.657843 13:-0.99902 14:1 15:0.894118 16:-1 17:1 18:1 19:-1 20:0.993137 21:1 22:-1 23:0.594118 24:0.998039 25:-1 26:0.0107843 27:0.867647 28:-1 29:-0.226471 30:0.911504 31:-1 32:-0.427451 33:0.990164 34:-1 35:-0.954902 36:0.800121 37:-1 38:-0.947059 39:0.458333 40:-1 41:-0.486275 42:0.357867 43:-1 44:-0.472549 45:0.436935 46:-1 47:-0.716667 48:0.554777 49:-1 50:-0.846078 51:0.656863 52:-0.986274 53:-0.87451 54:0.547059 55:-0.943875 56:-0.917647 57:0.407843 58:-0.753824 59:-0.695098 60:0.435294 61:-0.566038 62:-0.531014 63:0.541176 64:-0.379781 65:-0.743029 66:0.00392155 67:0.242054 68:-0.00994035 69:0.00392155 70:0.19109 71:0.00294405 72:0.00392155 73:0.120794 74:-0.0404506 75:0.00392155 76:-0.00392155 77:-0.00743678 78:0.00392155 79:-0.00392155 80:0.00392155 81:0.00392155 82:-0.00392155 83:0.00392155 84:0.00392155 85:-0.00392155 86:0.00392155 87:-0.101355 88:-0.00392155 89:0.00392155 
-0.1346128319064757 0.8001107508871431 0 0.08998229706336806 0:0.67451 1:-0.951451 2:1 3:0.855882 4:-1 5:1 6:0.983333 7:-1 8:0.980392 9:1 10:-1 11:0.605882 12:1 13:-1 14:0.291176 15:0.971569 16:-1 17:0.0127451 18:0.772549 19:-1 20:-0.194118 21:0.90098 22:-1 23:-0.137255 24:1 25:-1 26:-0.389216 27:1 28:-1 29:-0.94902 30:1 31:-1 32:-1 33:0.897268 34:-1 35:-0.745098 36:0.585706 37:-1 38:-0.577451 39:0.619213 40:-0.938235 41:-0.714706 42:0.637333 43:-0.746078 44:-0.847059 45:0.631719 46:-0.638235 47:-0.718627 48:0.608804 49:-0.668627 50:-0.52549 51:0.506863 52:-0.607843 53:-0.366667 54:0.501961 55:-0.411765 56:-0.29902 57:0.563725 58:-0.0269483 59:-0.354902 60:0.65098 61:0.111756 62:-0.498739 63:0.644118 64:0.034153 65:-0.652269 66:0.568627 67:-0.0562347 68:-0.328032 69:0.57451 70:0.00234468 71:-0.165849 72:0.637255 73:0.0248208 74:-0.270865 75:0.721569 76:-0.0303921 77:-0.285077 78:0.718627 79:-0.0568627 80:-0.290196 81:0.738235 82:-0.117647 83:-0.111765 84:0.762745 85:-0.132353 86:0.0323529 87:0.772358 88:-0.103922 89:-0.00196081 
-0.08334228742235651 0 0.06336384115052136 0.3937346274729454 0:-0.292157 1:-0.391356 2:1 3:-0.120588 4:-0.486005 5:1 6:0.111765 7:-0.753278 8:1 9:0.295098 10:-0.981318 11:1 12:0.605882 13:-1 14:1 15:0.939216 16:-1 17:0.978431 18:1 19:-1 20:0.722549 21:1 22:-1 23:0.140196 24:1 25:-1 26:-0.251961 27:1 28:-1 29:-0.151961 30:1 31:-1 32:-0.0588236 33:1 34:-1 35:-0.342157 36:1 37:-1 38:-0.713726 39:1 40:-1 41:-0.772549 42:0.9712 43:-1 44:-0.539216 45:0.947845 46:-1 47:-0.578431 48:0.764882 49:-0.980392 50:-0.801961 51:0.655882 52:-0.880392 53:-0.663726 54:0.634314 55:-0.830545 56:-0.442157 57:0.00392155 58:0.479971 59:0.00392155 60:0.00392155 61:0.474601 62:-0.0247101 63:0.00392155 64:0.387978 65:-0.11099 66:0.00392155 67:0.242054 68:-0.00994035 69:0.00392155 70:0.19109 71:0.00294405 72:0.00392155 73:0.120794 74:-0.0404506 75:0.00392155 76:-0.00392155 77:-0.00743678 78:0.00392155 79:-0.00392155 80:0.00392155 81:0.00392155 82:-0.00392155 83:0.00392155 84:0.00392155 85:-0.00392155 86:0.00392155 87:-0.101355 88:-0.00392155 89:0.00392155 
-0.8875764516873912 1.76377131079797 1.090913107467181 0 0:0.688235 1:-0.0905861 2:-0.0294118 3:0.77549 4:0.0114504 5:-0.0352941 6:0.00392155 7:0.210965 8:0.00392155 9:0.00392155 10:-0.000983278 11:0.00392155 12:0.00392155 13:-0.00392155 14:0.00392155 15:0.00392155 16:-0.00392155 17:0.00392155 18:0.00392155 19:-0.00392155 20:0.00392155 21:0.00392155 22:-0.00392155 23:0.00392155 24:0.00392155 25:-0.00392155 26:0.00392155 27:0.00392155 28:-0.00392155 29:0.00392155 30:0.000983278 31:-0.00392155 32:0.00392155 33:-0.110383 34:-0.00392155 35:0.00392155 36:-0.230769 37:-0.00392155 38:0.00392155 39:-0.175926 40:-0.00392155 41:0.00392155 42:-0.0837334 43:-0.00392155 44:0.00392155 45:-0.0814263 46:-0.00392155 47:0.00392155 48:-0.0165082 49:-0.00392155 50:0.00392155 51:0.00392155 52:-0.00392155 53:0.00392155 54:0.00392155 55:0.0966001 56:0.00392155 57:0.00392155 58:0.479971 59:0.00392155 60:0.00392155 61:0.474601 62:-0.0247101 63:0.00392155 64:0.387978 65:-0.11099 66:0.00392155 67:0.242054 68:-0.00994035 69:0.00392155 70:0.19109 71:0.00294405 72:0.00392155 73:0.120794 74:-0.0404506 75:0.00392155 76:-0.00392155 77:-0.00743678 78:0.00392155 79:-0.00392155 80:0.00392155 81:0.00392155 82:-0.00392155 83:0.00392155 84:0.00392155 85:-0.00392155 86:0.00392155 87:-0.101355 88:-0.00392155 89:0.00392155 
-0.495810134836201 2.036012989984122 0.5968056965796076 1.344223692180933 0:1 1:-1 2:0.905882 3:1 4:-1 5:0.638235 6:1 7:-1 8:0.286274 9:1 10:-1 11:-0.0637255 12:1 13:-1 14:-0.295098 15:1 16:-1 17:-0.296078 18:1 19:-1 20:-0.164706 21:1 22:-1 23:-0.37451 24:0.915686 25:-1 26:-0.652941 27:0.796078 28:-1 29:-0.671569 30:0.780728 31:-1 32:-0.72451 33:0.784699 34:-1 35:-0.893137 36:0.745609 37:-1 38:-1 39:0.640046 40:-0.952941 41:-1 42:0.5424 43:-0.856863 44:-0.983333 45:0.527408 46:-0.723529 47:-0.821569 48:0.556778 49:-0.636274 50:-0.701961 51:0.631372 52:-0.545098 53:-0.671569 54:0.716667 55:-0.468969 56:-0.64902 57:0.711765 58:-0.446468 59:-0.523529 60:0.67451 61:-0.502177 62:-0.282905 63:0.693137 64:-0.502732 65:-0.118644 66:0.746078 67:-0.47066 68:0.054672 69:0.783333 70:-0.4068 71:0.00490675 72:0.00392155 73:0.120794 74:-0.0404506 75:0.00392155 76:-0.00392155 77:-0.00743678 78:0.00392155 79:-0.00392155 80:0.00392155 81:0.00392155 82:-0.00392155 83:0.00392155 84:0.00392155 85:-0.00392155 86:0.00392155 87:-0.101355 88:-0.00392155 89:0.00392155 
-0.3703640066650161 0 0.0750500582648172 0.1576539821295674 0:-0.566667 1:-0.173475 2:1 3:-0.396078 4:-0.23028 5:1 6:-0.277451 7:-0.526818 8:1 9:0.276471 10:-0.867257 11:0.996078 12:0.472549 13:-0.966667 14:0.972549 15:0.65098 16:-1 17:1 18:0.952941 19:-1 20:0.99902 21:1 22:-1 23:0.84902 24:1 25:-1 26:0.537255 27:1 28:-1 29:0.15 30:1 31:-1 32:0.120588 33:1 34:-1 35:-0.107843 36:1 37:-1 38:-0.430392 39:1 40:-1 41:-0.435294 42:0.997867 43:-1 44:-0.371569 45:0.971261 46:-1 47:-0.582353 48:0.973987 49:-1 50:-0.776471 51:0.92549 52:-1 53:-0.897059 54:0.706863 55:-1 56:-0.889216 57:0.480392 58:-0.946103 59:-0.713726 60:0.420588 61:-0.780842 62:-0.679274 63:0.402941 64:-0.527322 65:-0.946419 66:0.422549 67:-0.512225 68:-0.904573 69:0.451961 70:-0.398593 71:-0.739941 72:0.419608 73:-0.39989 74:-0.640553 75:0.468627 76:-0.446078 77:-0.50818 78:0.607843 79:-0.415686 80:-0.50098 81:0.720588 82:-0.413725 83:-0.487255 84:0.762745 85:-0.485294 86:-0.379412 87:0.620596 88:-0.534314 89:-0.184314 
-0 0 0.03276636175786402 0.1200951838544812 0:-0.555882 1:0.130847 2:0.99902 3:-0.110784 4:-0.0343511 5:1 6:0.429412 7:-0.309893 8:1 9:0.593137 10:-0.54179 11:1 12:0.563725 13:-0.811765 14:1 15:0.889216 16:-1 17:1 18:1 19:-1 20:0.903922 21:1 22:-1 23:0.709804 24:0.945098 25:-1 26:0.735294 27:0.789216 28:-1 29:-0.022549 30:1 31:-1 32:-0.72549 33:1 34:-1 35:-1 36:0.955179 37:-1 38:-0.87549 39:0.686343 40:-1 41:-0.617647 42:0.7152 43:-1 44:-0.647059 45:0.907398 46:-1 47:-0.817647 48:0.896948 49:-1 50:-0.915686 51:0.786274 52:-0.952941 53:-0.951961 54:0.506863 55:-0.781975 56:-1 57:0.329412 58:-0.481427 59:-0.826471 60:0.405882 61:-0.317852 62:-0.434191 63:0.595098 64:-0.288251 65:-0.526517 66:0.708823 67:-0.229829 68:-0.621272 69:0.767647 70:-0.26143 71:-0.838077 72:0.704902 73:-0.325979 74:-0.969278 75:0.634314 76:-0.311765 77:-0.678731 78:0.67549 79:-0.243137 80:-0.508824 81:0.59902 82:-0.236274 83:-0.506863 84:0.584314 85:-0.280392 86:-0.508824 87:0.505691 88:-0.356863 89:-0.389216 
-1.039163544391139 1.109452006915012 0.6208592072547287 1.076263907773324 0:-0.57549 1:0.52161 2:0.893137 3:-0.545098 4:0.576336 5:1 6:-0.490196 7:0.446961 8:1 9:-0.443137 10:0.167158 11:0.970588 12:-0.333333 13:0.0754902 14:0.977451 15:-0.215686 16:-0.05 17:1 18:-0.123529 19:-0.254902 20:1 21:0.0333333 22:-0.498039 23:1 24:0.382353 25:-0.713725 26:0.948039 27:0.871569 28:-0.873529 29:0.72549 30:0.958702 31:-0.997059 32:0.629412 33:0.76612 34:-1 35:0.682353 36:0.861902 37:-1 38:0.490196 39:0.940972 40:-1 41:-0.0803922 42:0.879467 43:-1 44:-0.315686 45:0.755189 46:-1 47:-0.430392 48:0.682841 49:-1 50:-0.469608 51:0.806863 52:-1 53:-0.553922 54:0.915686 55:-1 56:-0.701961 57:0.99902 58:-1 59:-0.776471 60:1 61:-0.976778 62:-0.807363 63:1 64:-0.953552 65:-0.944232 66:0.870588 67:-0.891198 68:-1 69:0.758823 70:-0.778429 71:-1 72:0.681372 73:-0.559846 74:-1 75:0.00392155 76:-0.00392155 77:-0.00743678 78:0.00392155 79:-0.00392155 80:0.00392155 81:0.00392155 82:-0.00392155 83:0.00392155 84:0.00392155 85:-0.00392155 86:0.00392155 87:-0.101355 88:-0.00392155 89:0.00392155 
-0 0.6501229998977054 0 0 0:0.107843 1:-0.258733 2:0.917647 3:0.233333 4:-0.424936 5:0.983333 6:0.334314 7:-0.728248 8:0.97549 9:0.395098 10:-0.978368 11:0.796078 12:0.492157 13:-1 14:0.594118 15:0.786274 16:-1 17:0.530392 18:0.806863 19:-1 20:0.505882 21:0.731373 22:-1 23:0.30098 24:0.67451 25:-1 26:0.127451 27:0.793137 28:-1 29:-0.101961 30:0.847591 31:-1 32:-0.205882 33:0.995628 34:-1 35:-0.336275 36:0.946699 37:-1 38:-0.405882 39:0.828704 40:-1 41:-0.276471 42:0.922133 43:-1 44:-0.158824 45:0.994678 46:-1 47:-0.388235 48:0.949975 49:-1 50:-0.683333 51:0.881373 52:-0.960784 53:-0.513726 54:0.770588 55:-0.866163 56:-0.295098 57:0.72451 58:-0.74217 59:-0.423529 60:0.67451 61:-0.62119 62:-0.652042 63:0.693137 64:-0.437158 65:-0.807545 66:0.697059 67:-0.325183 68:-0.677932 69:0.682353 70:-0.21102 71:-0.71737 72:0.729412 73:-0.223387 74:-0.74808 75:0.727451 76:-0.37549 77:-0.472484 78:0.703922 79:-0.436275 80:-0.209804 81:0.635294 82:-0.431373 83:-0.0294118 84:0.592157 85:-0.344118 86:0.00490194 87:0.542547 88:-0.258824 89:-0.131373 
-0 0.4930634261630432 0 0 0:0.198039 1:-0.805802 2:0.979412 3:0.682353 4:-0.987277 5:0.783333 6:1 7:-0.973778 8:0.717647 9:0.988235 10:-0.971485 11:0.738235 12:0.732353 13:-1 14:0.783333 15:0.759804 16:-1 17:0.508824 18:0.85098 19:-1 20:0.15 21:1 22:-1 23:-0.077451 24:0.853921 25:-1 26:-0.217647 27:0.778431 28:-1 29:0.0215686 30:0.880039 31:-1 32:0.2 33:1 34:-1 35:-0.0941177 36:1 37:-1 38:-0.505882 39:0.997685 40:-1 41:-0.610784 42:0.9648 43:-1 44:-0.490196 45:0.985098 46:-1 47:-0.456863 48:0.947974 49:-0.908823 50:-0.521569 51:0.888235 52:-0.783333 53:-0.418627 54:0.768627 55:-0.573664 56:-0.320588 57:0.880392 58:-0.382374 59:-0.409804 60:0.939216 61:-0.230769 62:-0.601614 63:0.886275 64:-0.215847 65:-0.822854 66:0.72549 67:-0.282396 68:-0.54672 69:0.660784 70:-0.242673 71:-0.295388 72:0.751961 73:-0.24214 74:-0.261649 75:0.777451 76:-0.287255 77:-0.248389 78:0.688235 79:-0.25098 80:-0.25 81:0.595098 82:-0.209804 83:-0.192157 84:0.00392155 85:-0.00392155 86:0.00392155 87:-0.101355 88:-0.00392155 89:0.00392155 
-0 -1.680705355767735 0 0.7252324699739573 0:0.75098 1:-0.509769 2:-0.279412 3:0.752941 4:-0.52799 5:-0.373529 6:0.784314 7:-0.533969 8:-0.362745 9:0.77549 10:-0.641101 11:-0.417647 12:0.840196 13:-0.703922 14:-0.346078 15:0.982353 16:-0.656863 17:-0.253922 18:1 19:-0.62451 20:-0.346078 21:1 22:-0.666667 23:-0.451961 24:1 25:-0.752941 26:-0.359804 27:1 28:-0.87451 29:-0.161765 30:1 31:-0.955882 32:-0.0411765 33:1 34:-1 35:-0.123529 36:0.944276 37:-1 38:-0.0107843 39:0.561343 40:-1 41:0.408824 42:0.325867 43:-1 44:0.52451 45:0.172964 46:-0.989216 47:0.506863 48:0.0315158 49:-0.846078 50:0.630392 51:-0.215686 52:-0.593137 53:0.888235 54:-0.294118 55:-0.260658 56:1 57:0.00392155 58:0.479971 59:0.00392155 60:0.00392155 61:0.474601 62:-0.0247101 63:0.00392155 64:0.387978 65:-0.11099 66:0.00392155 67:0.242054 68:-0.00994035 69:0.00392155 70:0.19109 71:0.00294405 72:0.00392155 73:0.120794 74:-0.0404506 75:0.00392155 76:-0.00392155 77:-0.00743678 78:0.00392155 79:-0.00392155 80:0.00392155 81:0.00392155 82:-0.00392155 83:0.00392155 84:0.00392155 85:-0.00392155 86:0.00392155 87:-0.101355 88:-0.00392155 89:0.00392155 
-0.6337832395923728 -0.2606345792767881 0 0 0:0.552941 1:0.108348 2:-0.192157 3:0.566667 4:0.181934 5:-0.118627 6:0.594118 7:0.102503 8:-0.123529 9:0.679412 10:-0.105211 11:-0.17451 12:0.771569 13:-0.121569 14:-0.183333 15:0.820588 16:-0.121569 17:-0.129412 18:0.918627 19:-0.134314 20:-0.109804 21:0.99902 22:-0.143137 23:-0.0990196 24:1 25:-0.162745 26:-0.137255 27:1 28:-0.159804 29:-0.14902 30:1 31:-0.211765 32:-0.0754902 33:1 34:-0.283333 35:0.00588233 36:1 37:-0.336274 38:0.0470588 39:1 40:-0.382353 41:0.0941176 42:0.966933 43:-0.452941 44:0.173529 45:0.996807 46:-0.528431 47:0.236274 48:1 49:-0.556863 50:0.203922 51:0.902941 52:-0.704902 53:0.164706 54:0.669608 55:-0.713977 56:0.356863 57:0.440196 58:-0.541151 59:0.512745 60:0.191176 61:-0.333817 62:0.431165 63:0.0362745 64:-0.210383 65:0.203937 66:0.0205882 67:-0.240831 68:0.417495 69:-0.0794118 70:-0.192263 71:0.629048 72:-0.12549 73:-0.125207 74:0.590374 75:-0.191176 76:-0.126471 77:0.617253 78:-0.168627 79:-0.107843 80:0.819608 81:-0.108824 82:-0.102941 83:0.978431 84:-0.153922 85:-0.0558823 86:1 87:-0.275881 88:-0.017647 89:0.892157 
-0.3001270874080301 -0 0.4045648983356412 0.7639401715901878 0:0.561765 1:-0.564239 2:-0.45 3:0.469608 4:-0.620865 5:-0.464706 6:0.559804 7:-0.762813 8:-0.423529 9:0.798039 10:-0.898722 11:-0.510784 12:0.839216 13:-0.918627 14:-0.661765 15:0.838235 16:-0.968627 17:-0.551961 18:0.989216 19:-1 20:-0.258824 21:1 22:-0.970588 23:-0.279412 24:1 25:-0.918627 26:-0.411765 27:1 28:-0.977451 29:-0.411765 30:1 31:-1 32:-0.184314 33:1 34:-1 35:0.0147059 36:1 37:-1 38:0.072549 39:1 40:-1 41:0.272549 42:0.936 43:-1 44:0.458824 45:0.54231 46:-1 47:0.643137 48:0.255628 49:-1 50:0.742157 51:-0.00588238 52:-0.932353 53:0.687255 54:-0.239216 55:-0.827307 56:0.806863 57:-0.430392 58:-0.500364 59:1 60:-0.530392 61:-0.0783744 62:1 63:-0.448039 64:0.0546448 65:1 66:-0.208824 67:-0.0366748 68:0.884692 69:0.0490196 70:-0.0257913 71:0.529931 72:0.167647 73:0.019305 74:0.388633 75:0.0852941 76:-0.0460784 77:0.543877 78:-0.05 79:-0.0235294 80:0.7 81:0.0215686 82:-0.0813725 83:0.672549 84:0.113725 85:-0.0843137 86:0.562745 87:0.163144 88:-0.105882 89:0.457843 
-0.1967220971495517 -0 0.07394785340043897 0 0:1 1:-0.76791 2:-0.504902 3:1 4:-0.861323 5:-0.555882 6:1 7:-0.948749 8:-0.308824 9:1 10:-0.930187 11:-0.280392 12:1 13:-0.987255 14:-0.304902 15:1 16:-1 17:-0.147059 18:1 19:-1 20:0.0705882 21:1 22:-1 23:0.334314 24:1 25:-1 26:0.691176 27:0.943137 28:-1 29:0.904902 30:0.531957 31:-0.995098 32:0.761765 33:0.198907 34:-0.966667 35:0.415686 36:-0.201696 37:-0.998039 38:0.389216 39:-0.465278 40:-0.929412 41:0.865686 42:-0.485867 43:-0.736275 44:1 45:-0.399681 46:-0.572549 47:1 48:-0.22061 49:-0.512745 50:1 51:-0.127451 52:-0.481373 53:0.983333 54:-0.111765 55:-0.342688 56:0.733333 57:-0.0313726 58:-0.0444282 59:0.597059 60:0.0833333 61:0.00725689 62:0.630862 63:0.00392155 64:0.387978 65:-0.11099 66:0.00392155 67:0.242054 68:-0.00994035 69:0.00392155 70:0.19109 71:0.00294405 72:0.00392155 73:0.120794 74:-0.0404506 75:0.00392155 76:-0.00392155 77:-0.00743678 78:0.00392155 79:-0.00392155 80:0.00392155 81:0.00392155 82:-0.00392155 83:0.00392155 84:0.00392155 85:-0.00392155 86:0.00392155 87:-0.101355 88:-0.00392155 89:0.00392155 
-0.01189563144455342 -0 0 0 0:0.932353 1:-0.654233 2:-0.59902 3:0.965686 4:-0.735369 5:-0.647059 6:0.952941 7:-0.79261 8:-0.558824 9:1 10:-0.889872 11:-0.432353 12:1 13:-0.910784 14:-0.377451 15:1 16:-0.889216 17:-0.558824 18:1 19:-0.960784 20:-0.635294 21:1 22:-1 23:-0.37549 24:1 25:-1 26:0.0843137 27:1 28:-1 29:0.422549 30:1 31:-1 32:0.547059 33:1 34:-1 35:0.597059 36:0.757723 37:-1 38:0.868627 39:0.318287 40:-0.895098 41:0.977451 42:0.0591999 43:-0.77549 44:0.85098 45:-0.33901 46:-0.718627 47:0.955882 48:-0.462731 49:-0.505882 50:1 51:-0.356863 52:-0.25 53:1 54:0.0245098 55:-0.0652995 56:1 57:0.283333 58:0.347414 59:0.877451 60:0.266667 61:0.41074 62:0.630862 63:0.138235 64:0.368852 65:0.530891 66:0.0362745 67:0.168704 68:0.617296 69:0.136274 70:0.0574443 71:0.67419 72:0.00392155 73:0.120794 74:-0.0404506 75:0.00392155 76:-0.00392155 77:-0.00743678 78:0.00392155 79:-0.00392155 80:0.00392155 81:0.00392155 82:-0.00392155 83:0.00392155 84:0.00392155 85:-0.00392155 86:0.00392155 87:-0.101355 88:-0.00392155 89:0.00392155 
-0.121571938212973 -0 0 0 0:0.956863 1:-0.509769 2:-0.614706 3:1 4:-0.571247 5:-0.577451 6:1 7:-0.734207 8:-0.408824 9:1 10:-0.79941 11:-0.317647 12:1 13:-0.814706 14:-0.253922 15:1 16:-0.882353 17:-0.344118 18:1 19:-0.968627 20:-0.235294 21:1 22:-1 23:0.130392 24:1 25:-1 26:0.62549 27:1 28:-0.905882 29:0.940196 30:1 31:-0.737255 32:0.67549 33:0.996721 34:-0.678431 35:0.432353 36:0.772259 37:-0.643137 38:0.632353 39:0.267361 40:-0.619608 41:0.828431 42:-0.0965334 43:-0.567647 44:0.805882 45:-0.219798 46:-0.404902 47:0.869608 48:-0.118559 49:-0.191176 50:0.997059 51:-0.0656863 52:-0.0607843 53:1 54:-0.0637255 55:0.104155 56:0.966667 57:0.00196076 58:0.579024 59:0.82549 60:-0.0205883 61:0.667634 62:0.799294 63:-0.0235294 64:0.580601 65:0.829415 66:0.0735294 67:0.385086 68:0.890656 69:0.25 70:0.166471 71:0.849853 72:0.321569 73:-0.00496413 74:0.776754 75:0.00392155 76:-0.00392155 77:-0.00743678 78:0.00392155 79:-0.00392155 80:0.00392155 81:0.00392155 82:-0.00392155 83:0.00392155 84:0.00392155 85:-0.00392155 86:0.00392155 87:-0.101355 88:-0.00392155 89:0.00392155 
-0.8434377628493415 -2.48116226231228 0.6247017934278826 1.502279295614241 0:0.741176 1:-0.46714 2:0.0911764 3:0.877451 4:-0.596692 5:0.132353 6:0.976471 7:-0.72348 8:-0.0480392 9:1 10:-0.765978 11:-0.193137 12:0.989216 13:-0.812745 14:-0.0715686 15:0.931372 16:-0.954902 17:-0.0862745 18:0.985294 19:-0.99902 20:-0.431373 21:1 22:-0.969608 23:-0.65098 24:0.939216 25:-0.892157 26:-0.689216 27:0.718627 28:-0.844118 29:-0.772549 30:0.639135 31:-0.802941 32:-0.863726 33:0.671038 34:-0.804902 35:-0.898039 36:0.574803 37:-0.788235 38:-0.845098 39:0.41088 40:-0.761765 41:-0.768627 42:0.3728 43:-0.742157 44:-0.680392 45:0.426291 46:-0.755882 47:-0.584314 48:0.483742 49:-0.760784 50:-0.506863 51:0.590196 52:-0.746078 53:-0.488235 54:0.640196 55:-0.762547 56:-0.487255 57:0.819608 58:-0.752367 59:-0.392157 60:0.97549 61:-0.730043 62:-0.451336 63:1 64:-0.795082 65:-0.610716 66:1 67:-0.859413 68:-0.378728 69:1 70:-0.845252 71:-0.284593 72:1 73:-0.856591 74:-0.243216 75:1 76:-0.916667 77:-0.0342092 78:1 79:-0.934314 80:0.248039 81:1 82:-0.922549 83:0.334314 84:1 85:-0.97451 86:0.285294 87:0.998916 88:-1 89:0.406863 
-0.06478253261562135 -0 0 0.05736477245051991 0:0.927451 1:-0.764358 2:-0.22451 3:0.935294 4:-0.767176 5:-0.528431 6:0.909804 7:-0.694875 8:-0.745098 9:0.892157 10:-0.632252 11:-0.794118 12:0.780392 13:-0.558823 14:-0.703922 15:0.671569 16:-0.5 17:-0.621569 18:0.654902 19:-0.434314 20:-0.588235 21:0.644118 22:-0.432353 23:-0.578431 24:0.62451 25:-0.436275 26:-0.507843 27:0.616667 28:-0.446078 29:-0.490196 30:0.557522 31:-0.460784 32:-0.545098 33:0.459016 34:-0.498039 35:-0.495098 36:0.454876 37:-0.526471 38:-0.448039 39:0.532407 40:-0.526471 41:-0.476471 42:0.661867 43:-0.548039 44:-0.509804 45:0.824375 46:-0.595098 47:-0.466667 48:0.929965 49:-0.659804 50:-0.501961 51:0.947059 52:-0.664706 53:-0.522549 54:0.966667 55:-0.623313 56:-0.514706 57:1 58:-0.507647 59:-0.49902 60:1 61:-0.541364 62:-0.513868 63:1 64:-0.665301 65:-0.562603 66:1 67:-0.817848 68:-0.188867 69:1 70:-0.953107 71:0.077527 72:1 73:-0.996691 74:0.368152 75:1 76:-0.984314 77:0.540902 78:0.901961 79:-0.929412 80:0.877451 81:0.487255 82:-0.75 83:1 84:0.10098 85:-0.552941 86:1 87:-0.197832 88:-0.37549 89:1 
-0 -0 0 0.2028293064189744 0:0.805882 1:-0.178212 2:-0.551961 3:0.980392 4:-0.207379 5:-0.480392 6:1 7:-0.305125 8:-0.383333 9:0.993137 10:-0.390364 11:-0.45098 12:1 13:-0.368627 14:-0.534314 15:1 16:-0.423529 17:-0.54902 18:1 19:-0.490196 20:-0.429412 21:1 22:-0.557843 23:-0.287255 24:1 25:-0.655882 26:-0.170588 27:1 28:-0.859804 29:-0.0637255 30:1 31:-0.990196 32:0.22549 33:1 34:-1 35:0.422549 36:0.96487 37:-1 38:0.47549 39:0.700231 40:-0.995098 41:0.613725 42:0.447467 43:-0.882353 44:0.716667 45:0.237892 46:-0.789216 47:0.643137 48:0.0305153 49:-0.726471 50:0.633333 51:-0.172549 52:-0.582353 53:0.808824 54:-0.260784 55:-0.375067 56:0.960784 57:-0.230392 58:0.0604516 59:1 60:-0.0872549 61:0.219158 62:1 63:0.0333333 64:0.243169 65:1 66:0.0970588 67:0.139364 68:0.887674 69:0.186274 70:0.117233 71:0.664377 72:0.00392155 73:0.120794 74:-0.0404506 75:0.00392155 76:-0.00392155 77:-0.00743678 78:0.00392155 79:-0.00392155 80:0.00392155 81:0.00392155 82:-0.00392155 83:0.00392155 84:0.00392155 85:-0.00392155 86:0.00392155 87:-0.101355 88:-0.00392155 89:0.00392155 
-0 -0.1785158434888982 0.3168639972969283 0 0:0.648039 1:0.0124334 2:-0.281373 3:0.582353 4:0.0483461 5:-0.270588 6:0.529412 7:-0.0405244 8:-0.219608 9:0.504902 10:-0.201573 11:-0.187255 12:0.567647 13:-0.193137 14:-0.193137 15:0.67549 16:-0.202941 17:-0.290196 18:0.797059 19:-0.244118 20:-0.369608 21:0.955882 22:-0.301961 23:-0.468627 24:0.990196 25:-0.27549 26:-0.706863 27:0.987255 28:-0.402941 29:-0.684314 30:0.99115 31:-0.434314 32:-0.370588 33:1 34:-0.371569 35:-0.490196 36:1 37:-0.371569 38:-0.67549 39:1 40:-0.50098 41:-0.451961 42:1 43:-0.541176 44:-0.0656863 45:1 46:-0.567647 47:0.0509804 48:1 49:-0.664706 50:0.118627 51:1 52:-0.782353 53:0.328431 54:0.888235 55:-0.729088 56:0.65 57:0.72549 58:-0.426074 59:0.641176 60:0.777451 61:-0.296081 62:0.484619 63:0.555882 64:-0.32377 65:0.466375 66:0.198039 67:-0.345966 68:0.619284 69:-0.0186275 70:-0.242673 71:0.835132 72:-0.0588236 73:-0.116382 74:1 75:-0.118627 76:-0.132353 77:1 78:-0.146078 79:-0.0411764 80:1 81:-0.0539216 82:0.0343137 83:0.955882 84:0.0313725 85:0.0382353 86:0.822549 87:0.106775 88:0.0343137 89:0.671569 
-0.5205934589009751 -2.384891993803443 0.7329686679834101 2.077868406153903 0:0.702941 1:-0.780935 2:0.718627 3:0.646078 4:-0.575064 5:0.614706 6:0.353922 7:-0.623361 8:0.708823 9:-0.138235 10:-0.609636 11:0.980392 12:-0.257843 13:-0.320588 14:1 15:-0.000980415 16:-0.0617647 17:1 18:0.133333 19:0.0676471 20:0.907843 21:0.0705882 22:0.118627 23:0.754902 24:0.0352941 25:0.146078 26:0.684314 27:0.0333333 28:0.17451 29:0.647059 30:0.100295 31:0.181373 32:0.57451 33:0.0579235 34:0.191176 35:0.546078 36:-0.0660206 37:0.101961 38:0.532353 39:0.0590278 40:0.0245098 41:0.554902 42:0.261867 43:-0.112745 44:0.634314 45:-0.0814263 46:-0.00392155 47:0.00392155 48:-0.0165082 49:-0.00392155 50:0.00392155 51:0.00392155 52:-0.00392155 53:0.00392155 54:0.00392155 55:0.0966001 56:0.00392155 57:0.00392155 58:0.479971 59:0.00392155 60:0.00392155 61:0.474601 62:-0.0247101 63:0.00392155 64:0.387978 65:-0.11099 66:0.00392155 67:0.242054 68:-0.00994035 69:0.00392155 70:0.19109 71:0.00294405 72:0.00392155 73:0.120794 74:-0.0404506 75:0.00392155 76:-0.00392155 77:-0.00743678 78:0.00392155 79:-0.00392155 80:0.00392155 81:0.00392155 82:-0.00392155 83:0.00392155 84:0.00392155 85:-0.00392155 86:0.00392155 87:-0.101355 88:-0.00392155 89:0.00392155 
-0.4159672385240505 -0 0 0 0:1 1:-0.547661 2:-0.701961 3:1 4:-0.548346 5:-0.604902 6:1 7:-0.665077 8:-0.590196 9:1 10:-0.838741 11:-0.408824 12:1 13:-0.984314 14:-0.270588 15:1 16:-1 17:0.0931372 18:0.981373 19:-1 20:0.510784 21:0.829412 22:-1 23:0.730392 24:0.626471 25:-0.928431 26:0.693137 27:0.466667 28:-0.778431 29:0.743137 30:0.129793 31:-0.614706 32:0.970588 33:-0.242623 34:-0.435294 35:1 36:-0.410055 37:-0.215686 38:1 39:-0.114583 40:-0.0372549 41:1 42:0.2 43:0.0833334 44:0.965686 45:0.266631 46:0.128431 47:0.859804 48:0.291646 49:0.161765 50:0.691176 51:0.280392 52:0.178431 53:0.497059 54:0.298039 55:0.276848 56:0.45 57:0.00392155 58:0.479971 59:0.00392155 60:0.00392155 61:0.474601 62:-0.0247101 63:0.00392155 64:0.387978 65:-0.11099 66:0.00392155 67:0.242054 68:-0.00994035 69:0.00392155 70:0.19109 71:0.00294405 72:0.00392155 73:0.120794 74:-0.0404506 75:0.00392155 76:-0.00392155 77:-0.00743678 78:0.00392155 79:-0.00392155 80:0.00392155 81:0.00392155 82:-0.00392155 83:0.00392155 84:0.00392155 85:-0.00392155 86:0.00392155 87:-0.101355 88:-0.00392155 89:0.00392155 
-0 -1.044344934298092 0 0 0:1 1:-0.441089 2:-0.328431 3:1 4:-0.346056 5:-0.576471 6:1 7:-0.307509 8:-0.67451 9:0.996078 10:-0.410029 11:-0.611765 12:0.984314 13:-0.461765 14:-0.551961 15:0.908823 16:-0.50098 17:-0.52451 18:0.768627 19:-0.468627 20:-0.592157 21:0.634314 22:-0.409804 23:-0.70098 24:0.583333 25:-0.421569 26:-0.622549 27:0.537255 28:-0.438235 29:-0.316667 30:0.487709 31:-0.458824 32:-0.180392 33:0.606557 34:-0.321569 35:-0.769608 36:0.811024 37:-0.433333 38:-0.418627 39:0.803241 40:-0.480392 41:-0.378431 42:0.7024 43:-0.527451 44:-0.248039 45:0.889303 46:-0.521569 47:-0.153922 48:0.987994 49:-0.410784 50:-0.635294 51:1 52:-0.505882 53:-0.69902 54:1 55:-0.545602 56:-0.273529 57:0.979412 58:-0.335761 59:-0.163726 60:0.977451 61:-0.364296 62:-0.149773 63:0.986274 64:-0.483606 65:-0.138327 66:0.915686 67:-0.585575 68:0.148111 69:0.763725 70:-0.667057 71:0.311089 72:0.607843 73:-0.667954 74:0.498208 75:0.453922 76:-0.508824 77:0.762023 78:0.334314 79:-0.29902 80:0.796078 81:0.176471 82:-0.220588 83:0.663725 84:-0.00882355 85:-0.142157 86:0.65098 87:-0.2271 88:-0.0294117 89:0.831373 
-0 -0 0 1.102219677868346 0:0.958824 1:-0.218472 2:-0.484314 3:0.932353 4:-0.243002 5:-0.441177 6:0.842157 7:-0.315852 8:-0.551961 9:0.769608 10:-0.410029 11:-0.687255 12:0.783333 13:-0.385294 14:-0.715686 15:0.791176 16:-0.418627 17:-0.644118 18:0.751961 19:-0.427451 20:-0.532353 21:0.822549 22:-0.456863 23:-0.553922 24:0.971569 25:-0.486274 26:-0.479412 27:1 28:-0.518627 29:-0.42451 30:1 31:-0.49902 32:-0.501961 33:1 34:-0.534314 35:-0.608824 36:1 37:-0.609804 38:-0.442157 39:1 40:-0.653922 41:-0.214706 42:1 43:-0.696078 44:-0.0843137 45:1 46:-0.784314 47:0.0647059 48:1 49:-0.876471 50:0.185294 51:0.943137 52:-0.938235 53:0.32451 54:0.640196 55:-0.861846 56:0.703922 57:0.358823 58:-0.474144 59:0.983333 60:0.269608 61:-0.148041 62:0.864851 63:0.167647 64:-0.0642076 65:0.639147 66:0.027451 67:-0.0476772 68:0.806163 69:-0.0421569 70:0.138335 71:0.995093 72:-0.00196081 73:0.215665 74:1 75:0.101961 76:0.128431 77:0.970253 78:0.318627 79:0.082353 80:0.784314 81:0.333333 82:0.10098 83:0.670588 84:0.00392155 85:-0.00392155 86:0.00392155 87:-0.101355 88:-0.00392155 89:0.00392155 
-0.3473346323514774 -0 0.03071402306407582 1.084019659355149 0:0.884314 1:-0.162818 2:-0.254902 3:0.831373 4:-0.0992366 5:-0.454902 6:0.829412 7:-0.125149 8:-0.579412 9:0.841176 10:-0.300885 11:-0.521569 12:0.733333 13:-0.316667 14:-0.558824 15:0.734314 16:-0.319608 17:-0.678431 18:0.739216 19:-0.365686 20:-0.634314 21:0.657843 22:-0.415686 23:-0.441177 24:0.521569 25:-0.437255 26:-0.388235 27:0.50098 28:-0.434314 29:-0.430392 30:0.721731 31:-0.507843 32:-0.49902 33:0.888525 34:-0.588235 35:-0.601961 36:0.898243 37:-0.654902 38:-0.634314 39:0.996528 40:-0.70098 41:-0.559804 42:1 43:-0.717647 44:-0.42549 45:1 46:-0.746078 47:-0.372549 48:1 49:-0.746078 50:-0.412745 51:1 52:-0.797059 53:-0.457843 54:1 55:-0.909336 56:-0.272549 57:1 58:-0.98689 59:0.0196078 60:1 61:-1 62:0.232476 63:1 64:-1 65:0.246583 66:1 67:-1 68:0.361829 69:0.818627 70:-1 71:0.692836 72:0.484314 73:-0.84556 74:0.964158 75:0.311765 76:-0.648039 77:0.845315 78:-0.0529412 79:-0.537255 80:0.860784 81:-0.466667 82:-0.385294 83:1 84:-0.369608 85:-0.136274 86:1 87:-0.0623306 88:0.0205883 89:0.998039 
-0 -0.4015098488971828 0 0.1665545611890713 0:0.994118 1:-0.417407 2:-0.456863 3:1 4:-0.394402 5:-0.390196 6:0.99902 7:-0.454112 8:-0.377451 9:0.996078 10:-0.573255 11:-0.25098 12:1 13:-0.616667 14:-0.168627 15:1 16:-0.726471 17:-0.0509804 18:0.952941 19:-0.80098 20:0.221569 21:0.9 22:-0.793137 23:0.373529 24:0.808824 25:-0.75 26:0.340196 27:0.694118 28:-0.729412 29:0.470588 30:0.403146 31:-0.645098 32:0.779412 33:-0.104918 34:-0.50098 35:0.991176 36:-0.548153 37:-0.318627 38:1 39:-0.398148 40:-0.107843 41:1 42:-0.0165334 43:0.0803922 44:0.97549 45:0.21554 46:0.205882 47:0.746078 48:0.31966 49:0.269608 50:0.520588 51:0.264706 52:0.291177 53:0.440196 54:0.157843 55:0.384781 56:0.481373 57:0.114706 58:0.831027 59:0.561765 60:0.171569 61:0.732946 62:0.573374 63:0.264706 64:0.596995 65:0.515582 66:0.369608 67:0.389976 68:0.560636 69:0.00392155 70:0.19109 71:0.00294405 72:0.00392155 73:0.120794 74:-0.0404506 75:0.00392155 76:-0.00392155 77:-0.00743678 78:0.00392155 79:-0.00392155 80:0.00392155 81:0.00392155 82:-0.00392155 83:0.00392155 84:0.00392155 85:-0.00392155 86:0.00392155 87:-0.101355 88:-0.00392155 89:0.00392155 
-0 -0.5793480088607674 0.1813167928779179 1.762395362729435 0:0.790196 1:-0.238603 2:-0.486275 3:0.715686 4:-0.249364 5:-0.446078 6:0.686274 7:-0.344458 8:-0.489216 9:0.732353 10:-0.477876 11:-0.657843 12:0.720588 13:-0.490196 14:-0.713726 15:0.685294 16:-0.47549 17:-0.615686 18:0.756863 19:-0.494118 20:-0.626471 21:0.858824 22:-0.543137 23:-0.62451 24:0.827451 25:-0.545098 26:-0.583333 27:0.793137 28:-0.522549 29:-0.568627 30:0.900688 31:-0.561765 32:-0.518627 33:1 34:-0.631372 35:-0.529412 36:1 37:-0.65098 38:-0.587255 39:1 40:-0.635294 41:-0.54902 42:1 43:-0.679412 44:-0.360784 45:1 46:-0.684314 47:-0.235294 48:1 49:-0.713725 50:-0.183333 51:1 52:-0.812745 53:-0.0029412 54:0.97549 55:-0.845656 56:0.244118 57:0.841176 58:-0.831027 59:0.37549 60:0.630392 61:-0.878084 62:0.475542 63:0.430392 64:-0.815574 65:0.63368 66:0.161765 67:-0.632029 68:0.900596 69:-0.0705883 70:-0.377491 71:0.997056 72:-0.171569 73:-0.141754 74:1 75:-0.115686 76:-0.00490194 77:1 78:0.0921568 79:0.113726 80:1 81:0.226471 82:0.17451 83:0.823529 84:0.182353 85:0.209804 86:0.456863 87:0.0287263 88:0.286275 89:0.272549 
-0 -0.1653754752768155 0 0 0:0.827451 1:-0.560687 2:-0.367647 3:0.890196 4:-0.559796 5:-0.322549 6:0.95 7:-0.600715 8:-0.289216 9:1 10:-0.684366 11:-0.282353 12:1 13:-0.703922 14:-0.263726 15:1 16:-0.759804 17:-0.168627 18:1 19:-0.801961 20:-0.0421569 21:1 22:-0.802941 23:0.0578431 24:0.927451 25:-0.816667 26:0.105882 27:0.730392 28:-0.846078 29:0.194118 30:0.558505 31:-0.794118 32:0.348039 33:0.368306 34:-0.656863 35:0.460784 36:0.239249 37:-0.47451 38:0.468627 39:0.162037 40:-0.354902 41:0.371569 42:0.149867 43:-0.310784 44:0.346078 45:0.088877 46:-0.290196 47:0.466667 48:0.0605303 49:-0.24902 50:0.670588 51:0.0245098 52:-0.106863 53:0.792157 54:-0.0245098 55:0.0674582 56:0.784314 57:-0.0264706 58:0.456664 59:0.769608 60:0.00784311 61:0.492017 62:0.835603 63:-0.0166667 64:0.463115 65:0.933297 66:-0.0980392 67:0.331296 68:0.974155 69:0.00392155 70:0.19109 71:0.00294405 72:0.00392155 73:0.120794 74:-0.0404506 75:0.00392155 76:-0.00392155 77:-0.00743678 78:0.00392155 79:-0.00392155 80:0.00392155 81:0.00392155 82:-0.00392155 83:0.00392155 84:0.00392155 85:-0.00392155 86:0.00392155 87:-0.101355 88:-0.00392155 89:0.00392155 
-0 -0 0 0.1099399310506151 0:0.618627 1:-0.295441 2:-0.55098 3:0.669608 4:-0.287532 5:-0.565686 6:0.765686 7:-0.395709 8:-0.578431 9:0.786274 10:-0.52999 11:-0.620588 12:0.785294 13:-0.543137 14:-0.622549 15:0.895098 16:-0.540196 17:-0.488235 18:0.981373 19:-0.556863 20:-0.466667 21:0.995098 22:-0.57451 23:-0.50098 24:1 25:-0.598039 26:-0.491176 27:1 28:-0.640196 29:-0.381373 30:1 31:-0.656863 32:-0.108824 33:1 34:-0.638235 35:-0.0813726 36:0.99152 37:-0.734314 38:-0.0852941 39:0.987269 40:-0.867647 41:0.0784313 42:0.941333 43:-0.928431 44:0.421569 45:0.805216 46:-0.823529 47:0.839216 48:0.467734 49:-0.611765 50:1 51:0.238235 52:-0.395098 53:0.982353 54:0.0382353 55:-0.139773 56:0.909804 57:-0.0617647 58:0.398398 59:0.890196 60:0.00392155 61:0.474601 62:-0.0247101 63:0.00392155 64:0.387978 65:-0.11099 66:0.00392155 67:0.242054 68:-0.00994035 69:0.00392155 70:0.19109 71:0.00294405 72:0.00392155 73:0.120794 74:-0.0404506 75:0.00392155 76:-0.00392155 77:-0.00743678 78:0.00392155 79:-0.00392155 80:0.00392155 81:0.00392155 82:-0.00392155 83:0.00392155 84:0.00392155 85:-0.00392155 86:0.00392155 87:-0.101355 88:-0.00392155 89:0.00392155 
-0.1093305222968369 -0 0 0 0:0.692157 1:-0.642392 2:-0.471569 3:0.911765 4:-0.666667 5:-0.536275 6:0.989216 7:-0.808105 8:-0.641177 9:0.952941 10:-0.870206 11:-0.585294 12:0.995098 13:-0.876471 14:-0.577451 15:1 16:-0.904902 17:-0.477451 18:1 19:-0.956863 20:-0.280392 21:1 22:-0.992157 23:-0.0382353 24:1 25:-0.99902 26:0.19902 27:1 28:-1 29:0.381373 30:1 31:-0.933333 32:0.531373 33:0.925683 34:-0.792157 35:0.734314 36:0.618413 37:-0.668627 38:0.816667 39:0.099537 40:-0.563725 41:0.596078 42:-0.197867 43:-0.461765 44:0.681372 45:-0.376264 46:-0.258824 47:0.989216 48:-0.187594 49:-0.0656863 50:1 51:-0.000980415 52:0.0960785 53:0.991176 54:0.0764706 55:0.29088 56:0.946078 57:0.0803921 58:0.835397 59:0.895098 60:0.122549 61:0.892598 62:0.729702 63:0.190196 64:0.810109 65:0.479497 66:0.253922 67:0.638142 68:0.425447 69:0.254902 70:0.560375 71:0.526006 72:0.214706 73:0.405405 74:0.661034 75:0.157843 76:0.166667 77:0.654933 78:0.253922 79:0.106863 80:0.594118 81:0.00392155 82:-0.00392155 83:0.00392155 84:0.00392155 85:-0.00392155 86:0.00392155 87:-0.101355 88:-0.00392155 89:0.00392155 
-0.2193913563811447 -0 0 0 0:0.579412 1:-0.533452 2:-0.995098 3:0.714706 4:-0.62341 5:-0.986275 6:0.704902 7:-0.736591 8:-0.904902 9:0.591176 10:-0.794494 11:-0.795098 12:0.648039 13:-0.806863 14:-0.679412 15:0.855882 16:-0.893137 17:-0.676471 18:0.94902 19:-0.972549 20:-0.789216 21:0.928431 22:-0.97549 23:-0.726471 24:0.998039 25:-0.963726 26:-0.523529 27:1 28:-0.966667 29:-0.346078 30:1 31:-0.99902 32:-0.123529 33:1 34:-1 35:0.0960784 36:1 37:-1 38:0.207843 39:1 40:-1 41:0.309804 42:1 43:-0.988235 44:0.581373 45:0.843534 46:-0.795098 47:0.984314 48:0.489745 49:-0.55098 50:1 51:0.152941 52:-0.386274 53:0.915686 54:-0.0794118 55:-0.175391 56:0.769608 57:-0.155882 58:0.280408 59:0.930392 60:-0.0921569 61:0.499274 62:1 63:0.104902 64:0.536885 65:1 66:0.248039 67:0.44621 68:0.854871 69:0.308824 70:0.44197 71:0.475957 72:0.279412 73:0.409818 74:0.335381 75:0.189216 76:0.263726 77:0.474467 78:0.139216 79:0.212745 80:0.630392 81:0.207843 82:0.167647 83:0.695098 84:0.380392 85:0.104902 86:0.626471 87:-0.101355 88:-0.00392155 89:0.00392155 
-0 -0 0.3186159913737071 0.7798707227870967 0:0.787255 1:-0.233866 2:-0.427451 3:0.920588 4:-0.23028 5:-0.446078 6:0.944118 7:-0.340882 8:-0.517647 9:0.892157 10:-0.505408 11:-0.505882 12:0.922549 13:-0.564706 14:-0.503922 15:0.998039 16:-0.576471 17:-0.519608 18:1 19:-0.604902 20:-0.530392 21:1 22:-0.685294 23:-0.453922 24:1 25:-0.77451 26:-0.254902 27:1 28:-0.926471 29:-0.105882 30:1 31:-1 32:0.141176 33:0.995628 34:-1 35:0.432353 36:0.697153 37:-1 38:0.727451 39:0.353009 40:-0.927451 41:0.941176 42:0.0410666 43:-0.747059 44:1 45:-0.237893 46:-0.565686 47:1 48:-0.293647 49:-0.339216 50:1 51:-0.253922 52:-0.128431 53:1 54:-0.0715686 55:0.0663789 56:1 57:0.144118 58:0.565914 59:0.981373 60:0.187255 61:0.634253 62:0.76702 63:0.123529 64:0.584699 65:0.530891 66:0.0588235 67:0.430318 68:0.507952 69:0.106863 70:0.397421 71:0.498528 72:0.00392155 73:0.120794 74:-0.0404506 75:0.00392155 76:-0.00392155 77:-0.00743678 78:0.00392155 79:-0.00392155 80:0.00392155 81:0.00392155 82:-0.00392155 83:0.00392155 84:0.00392155 85:-0.00392155 86:0.00392155 87:-0.101355 88:-0.00392155 89:0.00392155 
-0 -0 0.05801418507649916 0.1268455574939055 0:0.731373 1:-0.676732 2:-0.545098 3:0.838235 4:-0.611959 5:-0.460784 6:0.995098 7:-0.66031 8:-0.45098 9:1 10:-0.759095 11:-0.496078 12:1 13:-0.830392 14:-0.27549 15:1 16:-0.868627 17:0.0990196 18:1 19:-0.905882 20:0.186274 21:1 22:-0.987255 23:0.271569 24:0.946078 25:-1 26:0.5 27:0.585294 28:-1 29:0.9 30:0.210423 31:-0.843137 32:1 33:-0.172678 34:-0.569608 35:0.982353 36:-0.499697 37:-0.397059 38:0.930392 39:-0.524306 40:-0.246078 41:1 42:-0.255467 43:-0.0647059 44:1 45:-0.0196914 46:0.0186275 47:1 48:0.146573 49:0.0598039 50:0.79902 51:0.179412 52:0.108824 53:0.479412 54:0.134314 55:0.280086 56:0.380392 57:0.122549 58:0.77276 59:0.384314 60:0.135294 61:0.792453 62:0.390822 63:0.140196 64:0.637978 65:0.353745 66:0.219608 67:0.443765 68:0.398608 69:0.285294 70:0.342321 71:0.41315 72:0.00392155 73:0.120794 74:-0.0404506 75:0.00392155 76:-0.00392155 77:-0.00743678 78:0.00392155 79:-0.00392155 80:0.00392155 81:0.00392155 82:-0.00392155 83:0.00392155 84:0.00392155 85:-0.00392155 86:0.00392155 87:-0.101355 88:-0.00392155 89:0.00392155 
-0.00803918712324141 -0 0 0 0:0.861765 1:-0.87093 2:-0.446078 3:0.991176 4:-0.877863 5:-0.392157 6:1 7:-0.891538 8:-0.346078 9:1 10:-0.951819 11:-0.254902 12:1 13:-0.988235 14:-0.0921569 15:1 16:-1 17:0.102941 18:1 19:-1 20:0.255882 21:1 22:-1 23:0.458824 24:0.934314 25:-0.943137 26:0.784314 27:0.65098 28:-0.753922 29:0.904902 30:0.264503 31:-0.576471 32:0.930392 33:-0.122404 34:-0.423529 35:0.911765 36:-0.439128 37:-0.315686 38:0.886275 39:-0.388889 40:-0.180392 41:0.990196 42:-0.1264 43:-0.0127451 44:1 45:0.102714 46:0.0921569 47:0.985294 48:0.285643 49:0.141177 50:0.781372 51:0.271569 52:0.160784 53:0.597059 54:0.180392 55:0.285483 56:0.530392 57:0.138235 58:0.736344 59:0.57549 60:0.148039 61:0.685051 62:0.634897 63:0.216667 64:0.52459 65:0.676326 66:0.363725 67:0.221271 68:0.756461 69:0.00392155 70:0.19109 71:0.00294405 72:0.00392155 73:0.120794 74:-0.0404506 75:0.00392155 76:-0.00392155 77:-0.00743678 78:0.00392155 79:-0.00392155 80:0.00392155 81:0.00392155 82:-0.00392155 83:0.00392155 84:0.00392155 85:-0.00392155 86:0.00392155 87:-0.101355 88:-0.00392155 89:0.00392155 
-0 -0 0.1558506063935607 0.8428901843470216 0:0.798039 1:-0.554766 2:-0.459804 3:0.897059 4:-0.440204 5:-0.523529 6:0.918627 7:-0.438617 8:-0.471569 9:0.994118 10:-0.563422 11:-0.363726 12:1 13:-0.562745 14:-0.366667 15:1 16:-0.544118 17:-0.382353 18:1 19:-0.598039 20:-0.383333 21:1 22:-0.773529 23:-0.260784 24:1 25:-0.945098 26:0.0264706 27:1 28:-1 29:0.433333 30:0.756145 31:-0.971569 32:0.846078 33:0.22623 34:-0.856863 35:0.898039 36:-0.285282 37:-0.726471 38:0.729412 39:-0.496528 40:-0.580392 41:0.808824 42:-0.592533 43:-0.391176 44:0.99902 45:-0.324109 46:-0.142157 47:1 48:0.256628 49:0.0460785 50:0.990196 51:0.539216 52:0.166667 53:0.785294 54:0.372549 55:0.293038 56:0.646078 57:0.133333 58:0.71158 59:0.628431 60:0.0598039 61:0.696662 62:0.541099 63:0.141176 64:0.599727 65:0.418261 66:0.251961 67:0.442543 68:0.482107 69:0.270588 70:0.317702 71:0.567223 72:0.313725 73:0.191395 74:0.567844 75:0.35 76:0.0029412 77:0.526029 78:0.00392155 79:-0.00392155 80:0.00392155 81:0.00392155 82:-0.00392155 83:0.00392155 84:0.00392155 85:-0.00392155 86:0.00392155 87:-0.101355 88:-0.00392155 89:0.00392155 
-0.1131949191668565 -0 0.4892918362148409 0.07615913028113716 0:0.860784 1:-0.469509 2:-0.539216 3:0.726471 4:-0.398219 5:-0.553922 6:0.668627 7:-0.42789 8:-0.552941 9:0.696078 10:-0.528024 11:-0.565686 12:0.713725 13:-0.520588 14:-0.616667 15:0.715686 16:-0.495098 17:-0.773529 18:0.715686 19:-0.471569 20:-0.933333 21:0.664706 22:-0.492157 23:-0.852941 24:0.551961 25:-0.515686 26:-0.567647 27:0.468627 28:-0.497059 29:-0.387255 30:0.526057 31:-0.506863 32:-0.385294 33:0.615301 34:-0.508824 35:-0.471569 36:0.772259 37:-0.532353 38:-0.597059 39:0.850694 40:-0.554902 41:-0.597059 42:0.815467 43:-0.6 44:-0.462745 45:0.786056 46:-0.546078 47:-0.395098 48:0.943972 49:-0.565686 50:-0.412745 51:1 52:-0.580392 53:-0.453922 54:1 55:-0.56503 56:-0.522549 57:1 58:-0.548434 59:-0.5 60:1 61:-0.783744 62:-0.305093 63:1 64:-0.967213 65:0.000546735 66:1 67:-0.976773 68:0.387674 69:0.911765 70:-0.923798 71:0.583906 72:0.667647 73:-0.780474 74:0.628264 75:0.246078 76:-0.718627 77:0.774913 78:-0.193137 79:-0.608824 80:1 81:-0.408824 82:-0.366667 83:1 84:-0.263726 85:-0.116667 86:1 87:0.001626 88:0.0284314 89:0.986274 
-0.2047218437439509 -0 0 0 0:0.967647 1:-0.364121 2:-0.529412 3:0.883333 4:-0.29771 5:-0.665686 6:0.851961 7:-0.305125 8:-0.734314 9:0.777451 10:-0.402163 11:-0.689216 12:0.659804 13:-0.396078 14:-0.542157 15:0.537255 16:-0.404902 17:-0.441177 18:0.50098 19:-0.433333 20:-0.389216 21:0.551961 22:-0.403922 23:-0.319608 24:0.732353 25:-0.427451 26:-0.306863 27:0.854902 28:-0.436275 29:-0.32549 30:0.840708 31:-0.480392 32:-0.291177 33:0.793443 34:-0.508824 35:-0.171569 36:0.88613 37:-0.49902 38:-0.0794118 39:1 40:-0.464706 41:-0.307843 42:1 43:-0.512745 44:-0.361765 45:1 46:-0.568627 47:-0.170588 48:1 49:-0.608824 50:-0.0529412 51:1 52:-0.696078 53:0.0931372 54:1 55:-0.764706 56:0.188235 57:0.960784 58:-0.787327 59:0.310784 60:0.702941 61:-0.828737 62:0.483611 63:0.521569 64:-0.734973 65:0.639147 66:0.282353 67:-0.617359 68:0.928429 69:-0.126471 70:-0.513482 71:1 72:-0.320588 73:-0.252068 74:1 75:-0.118627 76:-0.0764706 77:0.945463 78:0.278431 79:0.0617647 80:0.959804 81:0.520588 82:0.151961 83:0.948039 84:0.418627 85:0.177451 86:0.785294 87:0.257453 88:0.15098 89:0.616667 
-1.513467063439963 -1.80786251064029 0.5719131394418714 1.597848790937191 0:0.102941 1:-0.361752 2:0.880392 3:-0.107843 4:-0.114504 5:0.809804 6:-0.192157 7:0.0393326 8:0.989216 9:-0.135294 10:-0.0255654 11:1 12:-0.0215687 13:0.0696079 14:0.995098 15:0.0647059 16:0.126471 17:0.845098 18:0.108824 19:0.163726 20:0.677451 21:0.142157 22:0.196078 23:0.6 24:0.159804 25:0.215686 26:0.591176 27:0.217647 28:0.173529 29:0.631372 30:0.239921 31:0.116667 32:0.689216 33:0.171585 34:0.0509804 35:0.676471 36:0.130224 37:-0.00294115 38:0.648039 39:0.290509 40:-0.0823529 41:0.606863 42:0.3984 43:-0.123529 44:0.542157 45:0.455029 46:-0.198039 47:0.392157 48:0.552776 49:-0.214706 50:0.278431 51:0.638235 52:-0.291176 53:0.240196 54:0.00392155 55:0.0966001 56:0.00392155 57:0.00392155 58:0.479971 59:0.00392155 60:0.00392155 61:0.474601 62:-0.0247101 63:0.00392155 64:0.387978 65:-0.11099 66:0.00392155 67:0.242054 68:-0.00994035 69:0.00392155 70:0.19109 71:0.00294405 72:0.00392155 73:0.120794 74:-0.0404506 75:0.00392155 76:-0.00392155 77:-0.00743678 78:0.00392155 79:-0.00392155 80:0.00392155 81:0.00392155 82:-0.00392155 83:0.00392155 84:0.00392155 85:-0.00392155 86:0.00392155 87:-0.101355 88:-0.00392155 89:0.00392155 
-0.002246791234853944 -0.6600864477378404 0 0 0:1 1:-0.512137 2:0.0588235 3:1 4:-0.547074 5:-0.00490198 6:1 7:-0.662694 8:0.0656863 9:0.941176 10:-0.721731 11:0.305882 12:0.772549 13:-0.62549 14:0.552941 15:0.704902 16:-0.566667 17:0.460784 18:0.532353 19:-0.652941 20:0.114706 21:0.161765 22:-0.755882 23:0.410784 24:-0.183333 25:-0.658824 26:0.982353 27:-0.19902 28:-0.330392 29:1 30:0.0884956 31:-0.0509804 32:1 33:0.362841 34:0.117647 35:0.821569 36:0.390672 37:0.130392 38:0.696078 39:0.123843 40:0.103922 41:0.704902 42:0.0229333 43:0.128431 44:0.580392 45:0.0207557 46:0.173529 47:0.395098 48:0.168584 49:0.219608 50:0.318627 51:0.169608 52:0.20098 53:0.422549 54:0.25098 55:0.293038 56:0.388235 57:0.373529 58:0.609614 59:0.344118 60:0.00392155 61:0.474601 62:-0.0247101 63:0.00392155 64:0.387978 65:-0.11099 66:0.00392155 67:0.242054 68:-0.00994035 69:0.00392155 70:0.19109 71:0.00294405 72:0.00392155 73:0.120794 74:-0.0404506 75:0.00392155 76:-0.00392155 77:-0.00743678 78:0.00392155 79:-0.00392155 80:0.00392155 81:0.00392155 82:-0.00392155 83:0.00392155 84:0.00392155 85:-0.00392155 86:0.00392155 87:-0.101355 88:-0.00392155 89:0.00392155 
-0 -0 0.1496239373463281 0 0:1 1:-0.759621 2:-0.42549 3:1 4:-0.737913 5:-0.285294 6:1 7:-0.719905 8:-0.215686 9:1 10:-0.784661 11:-0.182353 12:1 13:-0.911765 14:-0.0411765 15:1 16:-0.908823 17:0.162745 18:1 19:-0.923529 20:0.0098039 21:1 22:-1 23:-0.0784314 24:0.82451 25:-1 26:0.239216 27:0.553922 28:-0.995098 29:0.578431 30:0.474926 31:-0.860784 32:0.563725 33:0.333333 34:-0.769608 35:0.401961 36:-0.0708662 37:-0.734314 38:0.42451 39:-0.373843 40:-0.664706 41:0.716667 42:-0.524267 43:-0.515686 44:0.992157 45:-0.583821 46:-0.32549 47:1 48:-0.36068 49:-0.19902 50:1 51:-0.0852941 52:-0.133333 53:0.921569 54:0.128431 55:0.0286023 56:0.651961 57:0.202941 58:0.512017 59:0.672549 60:0.0441176 61:0.563135 62:0.873928 63:0.00784311 64:0.453552 65:0.866594 66:0.00392155 67:0.242054 68:-0.00994035 69:0.00392155 70:0.19109 71:0.00294405 72:0.00392155 73:0.120794 74:-0.0404506 75:0.00392155 76:-0.00392155 77:-0.00743678 78:0.00392155 79:-0.00392155 80:0.00392155 81:0.00392155 82:-0.00392155 83:0.00392155 84:0.00392155 85:-0.00392155 86:0.00392155 87:-0.101355 88:-0.00392155 89:0.00392155 
-0.8117927514444834 -0.7521449381310307 -0.6786477024827273 0.8674284412092401 0:-0.265686 1:0.387803 2:0.679412 3:-0.232353 4:0.456743 5:0.841176 6:-0.152941 7:0.296782 8:0.996078 9:-0.0617647 10:0.0353982 11:1 12:0.0215686 13:-0.0098039 14:1 15:0.0794117 16:-0.110784 17:1 18:0.0843137 19:-0.269608 20:0.82451 21:0.198039 22:-0.340196 23:0.213725 24:0.158824 25:-0.27549 26:-0.381373 27:-0.120588 28:-0.209804 29:-0.544118 30:-0.376598 31:-0.167647 32:-0.783333 33:-0.666667 34:-0.0117647 35:-1 36:-0.980618 37:0.198039 38:-1 39:-1 40:0.254902 41:-1 42:-0.8432 43:0.162745 44:-1 45:-0.760511 46:-0.022549 47:-1 48:-0.516758 49:-0.191176 50:-0.910784 51:-0.385294 52:-0.327451 53:-0.692157 54:-0.315686 55:-0.437669 56:-0.4 57:-0.223529 58:-0.316824 59:0.0813725 60:-0.154902 61:-0.213353 62:0.365608 63:-0.172549 64:-0.286885 65:0.352652 66:-0.132353 67:-0.385086 68:0.560636 69:-0.160784 70:-0.432591 71:0.930324 72:-0.169608 73:-0.426365 74:1 75:-0.12549 76:-0.473529 77:1 78:-0.107843 79:-0.473529 80:1 81:-0.0931373 82:-0.480392 83:1 84:-0.0852941 85:-0.467647 86:1 87:-0.21626 88:-0.490196 89:1 
-0 -0.1865750611341669 -0 0.5091771489995316 0:-0.0333334 1:-0.865009 2:0.564706 3:0.384314 4:-0.917303 5:-0.158824 6:0.253922 7:-0.722288 8:-0.604902 9:-0.183333 10:-0.539823 11:-0.969608 12:-0.0411765 13:-0.356863 14:-1 15:0.0196078 16:-0.205882 17:-1 18:-0.236275 19:-0.0323529 20:-1 21:-0.339216 22:0.05 23:-1 24:-0.301961 25:0.000980415 26:-1 27:-0.284314 28:-0.128431 29:-1 30:-0.26647 31:-0.211765 32:-1 33:-0.339891 34:-0.236274 35:-0.934314 36:-0.430648 37:-0.289216 38:-0.869608 39:-0.364583 40:-0.34902 41:-0.696078 42:-0.259733 43:-0.384314 44:-0.487255 45:-0.211283 46:-0.421569 47:-0.273529 48:-0.128564 49:-0.477451 50:-0.0470588 51:-0.116667 52:-0.536275 53:0.240196 54:-0.235294 55:-0.51538 56:0.576471 57:-0.306863 58:-0.270211 59:0.959804 60:-0.390196 61:-0.217707 62:1 63:-0.461765 64:-0.285519 65:1 66:-0.509804 67:-0.46577 68:1 69:-0.517647 70:-0.520516 71:1 72:-0.492157 73:-0.588527 74:1 75:-0.32549 76:-0.785294 77:1 78:-0.17451 79:-0.946078 80:0.892157 81:-0.0901961 82:-1 83:0.322549 84:0.103922 85:-0.842157 86:-0.556863 87:0.125203 88:-0.52549 89:-0.505882 
-0 -0 -0 0.2067021785620989 0:-0.359804 1:-0.455299 2:0.997059 3:-0.246078 4:-0.759542 5:0.767647 6:0.0460784 7:-0.994041 8:0.173529 9:0.273529 10:-0.816126 11:-0.57549 12:0.0117647 13:-0.448039 14:-0.992157 15:-0.0137255 16:-0.313725 17:-0.930392 18:0.0598039 19:-0.262745 20:-0.997059 21:0.0980392 22:-0.114706 23:-1 24:0.0980392 25:0.0245098 26:-1 27:0.0578431 28:0.0460785 29:-1 30:0.00491641 31:-0.00784311 32:-1 33:-0.120219 34:-0.0970588 35:-1 36:-0.158086 37:-0.177451 38:-1 39:-0.0925926 40:-0.265686 41:-0.992157 42:-0.0250667 43:-0.384314 44:-0.837255 45:-0.0931347 46:-0.491176 47:-0.686275 48:-0.0455228 49:-0.584314 50:-0.453922 51:-0.122549 52:-0.660784 53:-0.293137 54:-0.256863 55:-0.684835 56:-0.00882355 57:-0.283333 58:-0.624181 59:0.251961 60:-0.298039 61:-0.644412 62:0.623802 63:-0.418627 64:-0.550546 65:0.969382 66:-0.513726 67:-0.511002 68:1 69:-0.6 70:-0.486518 71:1 72:-0.658824 73:-0.528958 74:1 75:-0.583333 76:-0.59902 77:1 78:-0.516667 79:-0.60098 80:1 81:-0.52549 82:-0.694118 83:1 84:-0.405882 85:-0.966667 86:1 87:-0.191328 88:-1 89:0.626471 
-0.08641822891000477 -0.4411887675689967 -0.1946589246875818 0.4016051933735821 0:-0.398039 1:0.297809 2:0.829412 3:-0.411765 4:0.282443 5:0.994118 6:-0.396078 7:0.0810489 8:1 9:-0.29902 10:-0.227139 11:1 12:-0.183333 13:-0.352941 14:0.797059 15:-0.0421569 16:-0.476471 17:0.463725 18:0.101961 19:-0.543137 20:0.104902 21:0.0578431 22:-0.582353 23:-0.308824 24:-0.0970588 25:-0.505882 26:-0.861765 27:-0.32549 28:-0.341176 29:-1 30:-0.415929 31:-0.129412 32:-1 33:-0.59235 34:0.0421569 35:-1 36:-0.809812 37:0.0617647 38:-1 39:-0.547454 40:-0.0656863 41:-1 42:-0.202133 43:-0.17451 44:-1 45:-0.255987 46:-0.246078 47:-0.788235 48:-0.227614 49:-0.256863 50:-0.516667 51:-0.176471 52:-0.231373 53:-0.359804 54:-0.336275 55:-0.17755 56:-0.0598039 57:-0.483333 58:0.175528 59:0.231373 60:-0.452941 61:0.272859 62:0.341402 63:-0.442157 64:0.277322 65:0.307818 66:-0.529412 67:0.171149 68:0.307157 69:-0.645098 70:0.143025 71:0.388616 72:-0.761765 73:0.0700497 74:0.583205 75:-0.753922 76:-0.105882 77:0.91175 78:-0.758824 79:-0.183333 80:1 81:-0.831373 82:-0.242157 83:1 84:-0.776471 85:-0.280392 86:1 87:-0.738753 88:-0.383333 89:0.993137 
-0 -0.1305680722381699 -0 0.2068694346763867 0:-0.491176 1:0.026643 2:0.990196 3:-0.181373 4:-0.0852417 5:0.745098 6:0.0137255 7:-0.368296 8:0.586275 9:0.118627 10:-0.648968 11:0.203922 12:0.102941 13:-0.572549 14:-0.569608 15:-0.0754902 16:-0.358823 17:-0.996078 18:-0.243137 19:-0.253922 20:-1 21:-0.202941 22:-0.191176 23:-1 24:-0.0431373 25:-0.0803921 26:-1 27:-0.0343137 28:0.00490198 29:-1 30:-0.093412 31:-0.0421568 32:-1 33:-0.269945 34:-0.138235 35:-1 36:-0.355542 37:-0.168627 38:-0.945098 39:-0.287037 40:-0.177451 41:-0.865686 42:-0.152 43:-0.22549 44:-0.662745 45:-0.182544 46:-0.284314 47:-0.528431 48:-0.206603 49:-0.347059 50:-0.25 51:-0.233333 52:-0.386274 53:-0.0450981 54:-0.188235 55:-0.347005 56:0.344118 57:-0.29902 58:-0.104151 59:0.861765 60:-0.532353 61:-0.0682148 62:1 63:-0.733333 64:-0.0601093 65:1 66:-0.685294 67:-0.160147 68:1 69:-0.446078 70:-0.252052 71:1 72:-0.210784 73:-0.404302 74:1 75:-0.0588236 76:-0.594118 77:0.764997 78:-0.0127451 79:-0.554902 80:0.22451 81:0.0343137 82:-0.410784 83:-0.214706 84:-0.15098 85:-0.186274 86:-0.817647 87:-0.450407 88:0.0421569 89:-1 
-0 -0 -0 0.1788049091406761 0:-0.826471 1:-0.359384 2:0.133333 3:-0.656863 4:-0.248092 5:-0.208824 6:-0.419608 7:-0.1764 8:-0.505882 9:-0.276471 10:-0.231072 11:-0.695098 12:-0.190196 13:-0.072549 14:-0.941176 15:-0.25 16:0.0794118 17:-1 18:-0.151961 19:0.201961 20:-1 21:0.0980392 22:0.259804 23:-1 24:0.135294 25:0.223529 26:-1 27:0.095098 28:0.107843 29:-1 30:0.0875123 31:0.107843 32:-0.822549 33:-0.031694 34:-0.0794117 35:-0.538235 36:-0.275591 37:-0.163725 38:-0.368627 39:-0.415509 40:-0.290196 41:-0.127451 42:-0.537067 43:-0.316667 44:0.246078 45:-0.617882 46:-0.30098 47:0.558823 48:-0.598799 49:-0.245098 50:0.910784 51:-0.69902 52:-0.148039 53:1 54:-0.806863 55:-0.00701562 56:1 57:-0.753922 58:0.343044 59:0.97549 60:-0.563725 61:0.301887 62:0.757942 63:-0.417647 64:0.213115 65:0.813013 66:-0.364706 67:-0.0330073 68:0.998012 69:-0.413725 70:-0.310668 71:0.743867 72:-0.342157 73:-0.33701 74:-0.06298 75:-0.218627 76:-0.25098 77:-0.37531 78:-0.0843137 79:-0.161765 80:-0.234314 81:-0.0735294 82:-0.20098 83:-0.0696079 84:-0.0598039 85:-0.268627 86:-0.415686 87:-0.338753 88:-0.207843 89:-0.955882 
-0.5029529487385297 -0.2279220190344732 -0.6368721493618036 0.5097518450539916 0:0.104902 1:-0.816459 2:0.438235 3:0.25098 4:-0.786259 5:-0.147059 6:0.119608 7:-0.671037 8:-0.407843 9:-0.0352941 10:-0.653884 11:-0.493137 12:-0.227451 13:-0.587255 14:-0.886275 15:-0.360784 16:-0.310784 17:-1 18:-0.364706 19:0.0137255 20:-1 21:-0.480392 22:0.12549 23:-1 24:-0.530392 25:0.0892157 26:-1 27:-0.339216 28:0.0029412 29:-1 30:-0.164208 31:-0.0666666 32:-1 33:-0.2 34:-0.127451 35:-0.980392 36:-0.345851 37:-0.214706 38:-0.767647 39:-0.240741 40:-0.309804 41:-0.506863 42:-0.0357334 43:-0.393137 44:-0.290196 45:-0.0228845 46:-0.509804 47:-0.0656863 48:-0.0185092 49:-0.623529 50:0.234314 51:-0.0950981 52:-0.680392 53:0.623529 54:-0.217647 55:-0.671883 56:0.95098 57:-0.384314 58:-0.587764 59:1 60:-0.490196 61:-0.554427 62:1 63:-0.597059 64:-0.532787 65:1 66:-0.518627 67:-0.541565 68:1 69:-0.4 70:-0.556858 71:1 72:-0.346078 73:-0.621622 74:1 75:-0.382353 76:-0.680392 77:1 78:-0.393137 79:-0.718627 80:1 81:-0.304902 82:-0.865686 83:0.994118 84:-0.0921569 85:-1 86:0.832353 87:0.196748 88:-1 89:0.434314 
-0 -0.1281521858572805 -0 0 0:-0.0833334 1:0.120189 2:0.883333 3:-0.0392157 4:0.0368957 5:0.752941 6:-0.244118 7:-0.178784 8:0.359804 9:-0.35 10:-0.367748 11:-0.204902 12:-0.277451 13:-0.27549 14:-0.635294 15:-0.441177 16:-0.197059 17:-0.858824 18:-0.643137 19:-0.0372549 20:-1 21:-0.597059 22:0.115686 23:-1 24:-0.357843 25:0.148039 26:-1 27:-0.178431 28:0.173529 29:-1 30:-0.107178 31:0.173529 32:-1 33:-0.0710383 34:0.0705883 35:-1 36:-0.165354 37:-0.0294117 38:-0.82451 39:-0.146991 40:-0.106863 41:-0.526471 42:-0.166933 43:-0.195098 44:-0.315686 45:-0.336881 46:-0.243137 47:-0.0441177 48:-0.329665 49:-0.309804 50:0.334314 51:-0.267647 52:-0.284314 53:0.768627 54:-0.404902 55:-0.105235 56:0.933333 57:-0.582353 58:0.293518 59:0.99902 60:-0.723529 61:0.314949 62:1 63:-0.733333 64:0.178962 65:1 66:-0.686275 67:-0.0342298 68:1 69:-0.569608 70:-0.166471 71:1 72:-0.421569 73:-0.335907 74:0.960061 75:-0.278431 76:-0.492157 77:0.685672 78:-0.231373 79:-0.533333 80:0.376471 81:0.00196076 82:-0.552941 83:0.0539215 84:0.39902 85:-0.50098 86:-0.445098 87:0.241192 88:-0.370588 89:-0.62451 
-0.6290675234618173 -1.100053501202328 -0.6377633386044629 1.180235026025808 0:-0.193137 1:0.282416 2:-0.834314 3:-0.189216 4:0.398219 5:-0.967647 6:-0.17451 7:0.363528 8:-1 9:-0.206863 10:0.146509 11:-1 12:-0.189216 13:0.134314 14:-1 15:-0.0598039 16:0.108824 17:-1 18:0.0215686 19:0.0862745 20:-1 21:0.0205882 22:0.0480392 23:-0.984314 24:-0.00392159 25:-0.00784311 26:-0.785294 27:-0.0460785 28:-0.0686274 29:-0.548039 30:-0.148476 31:-0.112745 32:-0.35 33:-0.414208 34:-0.143137 35:-0.213726 36:-0.733495 37:-0.17451 38:-0.0117647 39:-0.737268 40:-0.229412 41:0.192157 42:-0.6192 43:-0.261765 44:0.623529 45:-0.697712 46:-0.169608 47:0.909804 48:-0.798899 49:-0.109804 50:0.99902 51:-0.890196 52:-0.131373 53:1 54:-0.766667 55:-0.11279 56:0.996078 57:-0.586275 58:0.184268 59:0.896078 60:-0.496078 61:0.153846 62:0.904186 63:-0.341176 64:-0.0546448 65:0.659923 66:-0.142157 67:-0.190709 68:0.183897 69:-0.072549 70:-0.0808909 71:-0.262022 72:-0.123529 73:0.00275788 74:-0.469534 75:-0.178431 76:-0.0441176 77:-0.501239 78:-0.208824 79:-0.0284313 80:-0.662745 81:-0.340196 82:0.0294118 83:-0.960784 84:-0.608824 85:0.186275 86:-1 87:-0.803794 88:0.191176 89:-1 
-0.6298589446385159 -0.2755036601316158 -0.663487363741559 0.6528169755176586 0:-0.0421569 1:-0.362937 2:-0.0343137 3:0.0588235 4:-0.0966921 5:-0.67549 6:0.0637255 7:0.11323 8:-0.993137 9:-0.0931373 10:0.126844 11:-1 12:-0.152941 13:0.241176 14:-1 15:-0.0441177 16:0.251961 17:-1 18:-0.0137255 19:0.242157 20:-1 21:0.104902 22:0.180392 23:-1 24:0.122549 25:0.0784314 26:-0.953922 27:0.0754902 28:0.00686277 29:-0.659804 30:0.00983284 31:-0.0745098 32:-0.443137 33:-0.262295 34:-0.177451 35:-0.248039 36:-0.552998 37:-0.256863 38:0.0823529 39:-0.572917 40:-0.297059 41:0.546078 42:-0.611733 43:-0.263725 44:0.853921 45:-0.769026 46:-0.214706 47:1 48:-0.701851 49:-0.182353 50:1 51:-0.661765 52:-0.193137 53:1 54:-0.64902 55:-0.157043 56:1 57:-0.566667 58:0.0502549 59:1 60:-0.398039 61:-0.117562 62:0.993949 63:-0.167647 64:-0.36612 65:0.732094 66:-0.12451 67:-0.52445 68:0.447316 69:-0.146078 70:-0.514654 71:-0.00588814 72:-0.128431 73:-0.470491 74:-0.571941 75:-0.05 76:-0.382353 77:-0.945463 78:-0.27451 79:-0.201961 80:-1 81:-0.581373 82:0.00980395 83:-1 84:-0.690196 85:0.160784 86:-1 87:-0.867751 88:0.106863 89:-1 
-0.1283886417874416 -0.08160679656157198 -0.03859868119264249 0.2367903963704784 0:-0.248039 1:0.207815 2:1 3:-0.0588236 4:0.0890586 5:1 6:-0.105882 7:-0.175209 8:0.905882 9:-0.322549 10:-0.442478 11:0.32549 12:-0.554902 13:-0.386274 14:-0.564706 15:-0.208824 16:-0.152941 17:-1 18:0.167647 19:-0.0196078 20:-1 21:-0.0156863 22:0.0960785 23:-1 24:-0.0392157 25:0.177451 26:-1 27:0.0852941 28:0.209804 29:-1 30:0.12586 31:0.196078 32:-1 33:0.0273224 34:0.14902 35:-1 36:-0.127801 37:0.0813726 38:-0.987255 39:-0.106481 40:0.0029412 41:-0.794118 42:-0.0410667 43:-0.0921568 44:-0.581373 45:-0.124002 46:-0.197059 47:-0.378431 48:-0.195598 49:-0.288235 50:-0.213726 51:-0.388235 52:-0.37549 53:0.0343137 54:-0.467647 55:-0.347005 56:0.488235 57:-0.498039 58:0.0517116 59:0.853921 60:-0.645098 61:0.166909 62:1 63:-0.636275 64:0.0846995 65:1 66:-0.592157 67:-0.0684596 68:1 69:-0.653922 70:-0.152403 71:1 72:-0.679412 73:-0.223387 74:1 75:-0.371569 76:-0.454902 77:0.993059 78:0.109804 79:-0.589216 80:0.639216 81:0.310784 82:-0.5 83:0.262745 84:0.213725 85:-0.398039 86:-0.0137255 87:-0.0449865 88:-0.34902 89:-0.511765 
-0 -0.1969169627144642 -0 0.1658346736713383 0:-0.213726 1:-0.404381 2:0.607843 3:-0.142157 4:-0.306616 5:-0.054902 6:-0.0892157 7:-0.0667461 8:-0.559804 9:-0.0950981 10:-0.0255654 11:-0.74902 12:-0.231373 13:0.0911765 14:-0.930392 15:-0.395098 16:0.206863 17:-1 18:-0.362745 19:0.316667 20:-1 21:-0.198039 22:0.332353 23:-1 24:-0.0647059 25:0.281373 26:-1 27:-0.0156863 28:0.218627 29:-0.957843 30:-0.0235988 31:0.151961 32:-0.759804 33:-0.202186 34:0.0627451 35:-0.558824 36:-0.413689 37:-0.0166666 38:-0.311765 39:-0.498843 40:-0.0764706 41:-0.0852941 42:-0.617067 43:-0.077451 44:0.0754902 45:-0.725386 46:-0.109804 47:0.239216 48:-0.616808 49:-0.161765 50:0.540196 51:-0.483333 52:-0.167647 53:0.94902 54:-0.554902 55:0.024285 56:1 57:-0.769608 58:0.388201 59:1 60:-0.832353 61:0.2627 62:1 63:-0.755882 64:-0.0273224 65:0.905959 66:-0.487255 67:-0.293399 68:0.790258 69:-0.12451 70:-0.431418 71:0.750736 72:-0.000980415 73:-0.521235 74:0.436764 75:0.000980369 76:-0.451961 77:-0.224591 78:0.0823529 79:-0.213725 80:-0.69902 81:0.0656863 82:0.0147059 83:-0.960784 84:-0.2 85:0.191176 86:-1 87:-0.517615 88:0.340196 89:-1 
-0.02434026731107612 -0 -0 0 0:-0.171569 1:-0.179396 2:0.955882 3:-0.238235 4:-0.339695 5:0.54902 6:-0.413725 7:-0.363528 8:-0.27549 9:-0.40098 10:-0.161259 11:-0.942157 12:-0.203922 13:-0.000980369 14:-0.99902 15:-0.484314 16:0.0892157 17:-1 18:-0.676471 19:0.185294 20:-1 21:-0.529412 22:0.230392 23:-1 24:-0.25 25:0.193137 26:-1 27:-0.0421569 28:0.101961 29:-1 30:-0.0226155 31:0.022549 32:-0.803922 33:-0.209836 34:-0.0343137 35:-0.527451 36:-0.373713 37:-0.119608 38:-0.345098 39:-0.416667 40:-0.219608 41:-0.168627 42:-0.4656 43:-0.27451 44:0.077451 45:-0.540181 46:-0.330392 47:0.345098 48:-0.498749 49:-0.29902 50:0.75098 51:-0.565686 52:-0.216667 53:0.984314 54:-0.623529 55:-0.0674581 56:1 57:-0.538235 58:0.229425 59:1 60:-0.542157 61:0.177068 62:1 63:-0.564706 64:0.106557 65:1 66:-0.462745 67:-0.0953545 68:1 69:-0.364706 70:-0.262603 71:0.880275 72:-0.279412 73:-0.423056 74:0.471582 75:-0.195098 76:-0.5 77:-0.0242935 78:-0.0313726 79:-0.39902 80:-0.487255 81:0.0833333 82:-0.17549 83:-0.846078 84:-0.192157 85:0.0637255 86:-0.951961 87:-0.682385 88:0.310784 89:-1 
-0.5097712845176503 -0.1691069253184977 -0.4716420452788189 0.2097220240617703 0:-0.415686 1:-0.605684 2:1 3:-0.310784 4:-0.912214 5:1 6:-0.0960785 7:-1 8:0.673529 9:0.4 10:-0.995084 11:-0.352941 12:0.545098 13:-0.728431 14:-0.971569 15:0.0803921 16:-0.556863 17:-0.973529 18:-0.0980392 19:-0.401961 20:-1 21:-0.198039 22:-0.119608 23:-1 24:-0.289216 25:0.0990196 26:-1 27:-0.312745 28:0.0803922 29:-1 30:-0.316618 31:-0.0921568 32:-1 33:-0.35082 34:-0.218627 35:-0.984314 36:-0.361599 37:-0.284314 38:-0.805882 39:-0.261574 40:-0.353922 41:-0.7 42:-0.179733 43:-0.447059 44:-0.477451 45:-0.235764 46:-0.543137 47:-0.262745 48:-0.171586 49:-0.565686 50:0.0519608 51:-0.204902 52:-0.548039 53:0.42451 54:-0.287255 55:-0.462493 56:0.830392 57:-0.363726 58:-0.203205 59:1 60:-0.397059 61:-0.191582 62:1 63:-0.44902 64:-0.405738 65:1 66:-0.571569 67:-0.685819 68:1 69:-0.67451 70:-0.845252 71:1 72:-0.513726 73:-0.995587 74:1 75:-0.189216 76:-1 77:0.969261 78:0.0715686 79:-1 80:0.357843 81:0.362745 82:-1 83:-0.408824 84:0.453922 85:-0.967647 86:-0.991176 87:-0.173984 88:-0.654902 89:-1 
-0.7612473120283455 -0.7643687969518765 -0.786717516883506 0.6842307864094758 0:-0.473529 1:-0.162818 2:1 3:-0.505882 4:-0.236641 5:1 6:-0.478431 7:-0.49702 8:1 9:-0.361765 10:-0.772861 11:0.801961 12:-0.281373 13:-0.910784 14:0.418627 15:-0.0950981 16:-0.986274 17:0.10098 18:0.255882 19:-0.883333 20:-0.373529 21:0.510784 22:-0.512745 23:-0.906863 24:0.165686 25:-0.314706 26:-0.872549 27:-0.104902 28:-0.307843 29:-0.948039 30:-0.0550639 31:-0.153922 32:-1 33:0.10929 34:-0.0205882 35:-1 36:-0.122956 37:0.0392157 38:-1 39:-0.123843 40:0.0450981 41:-1 42:-0.0368 43:-0.0441176 44:-1 45:-0.064396 46:-0.14902 47:-1 48:0.00450226 49:-0.209804 50:-1 51:0.0382353 52:-0.272549 53:-0.961765 54:0.05 55:-0.343767 56:-0.9 57:0.000980369 58:-0.426074 59:-0.665686 60:-0.0705883 61:-0.650218 62:-0.357539 63:-0.140196 64:-0.706284 65:-0.0180427 66:-0.19902 67:-0.679707 68:0.468191 69:-0.248039 70:-0.609613 71:0.744848 72:-0.372549 73:-0.573083 74:0.971326 75:-0.448039 76:-0.563725 77:1 78:-0.49902 79:-0.55098 80:1 81:-0.530392 82:-0.553922 83:1 84:-0.489216 85:-0.547059 86:1 87:-0.533875 88:-0.516667 89:1 
-0 -0 -0.6820547329908075 -0.3457683959349627 0:0.822549 1:0.208999 2:-0.457843 3:0.865686 4:0.23028 5:-0.656863 6:0.879412 7:0.129917 8:-0.953922 9:0.981373 10:-0.0570305 11:-1 12:0.958824 13:-0.146078 14:-0.989216 15:0.85098 16:-0.246078 17:-0.877451 18:0.748039 19:-0.317647 20:-0.969608 21:0.720588 22:-0.437255 23:-1 24:0.733333 25:-0.546078 26:-0.844118 27:0.801961 28:-0.586275 29:-0.632353 30:0.812193 31:-0.65 32:-0.558824 33:0.8 34:-0.762745 35:-0.506863 36:0.61599 37:-0.911765 38:-0.470588 39:0.439815 40:-0.968627 41:-0.305882 42:0.3536 43:-0.992157 44:-0.202941 45:0.240021 46:-1 47:-0.0696079 48:0.242621 49:-1 50:0.102941 51:0.154902 52:-0.983333 53:0.322549 54:0.0284313 55:-0.927685 56:0.645098 57:-0.201961 58:-0.796067 59:0.972549 60:-0.409804 61:-0.612482 62:1 63:-0.496078 64:-0.480874 65:0.965008 66:-0.437255 67:-0.469438 68:0.791252 69:-0.444118 70:-0.464244 71:0.83317 72:-0.509804 73:-0.483729 74:0.844342 75:-0.433333 76:-0.478431 77:0.672781 78:-0.27549 79:-0.319608 80:0.501961 81:0.0352941 82:-0.0431372 83:0.479412 84:0.598039 85:0.118627 86:0.683333 87:0.9729 88:0.34902 89:0.966667 
-0 -0.2306192287411875 -0.3770373466905111 -0 0:0.588235 1:-0.026643 2:-0.614706 3:0.706863 4:0.0890586 5:-0.836274 6:0.731373 7:-0.0238379 8:-0.931373 9:0.55098 10:-0.244838 11:-1 12:0.54902 13:-0.319608 14:-0.904902 15:0.692157 16:-0.411765 17:-0.790196 18:0.805882 19:-0.410784 20:-0.930392 21:0.840196 22:-0.432353 23:-1 24:0.809804 25:-0.628431 26:-1 27:0.728431 28:-0.811765 29:-0.943137 30:0.79941 31:-0.860784 32:-0.768627 33:0.940984 34:-0.92549 35:-0.745098 36:0.975772 37:-1 38:-0.79902 39:0.790509 40:-1 41:-0.62451 42:0.726933 43:-1 44:-0.413725 45:0.616817 46:-1 47:-0.353922 48:0.506753 49:-1 50:-0.282353 51:0.248039 52:-1 53:-0.108824 54:0.121569 55:-0.988127 56:-0.00980395 57:0.0892157 58:-0.84268 59:0.0392157 60:-0.0352941 61:-0.777939 62:0.169945 63:-0.194118 64:-0.829235 65:0.33953 66:-0.34902 67:-0.938875 68:0.847912 69:-0.451961 70:-0.873388 71:1 72:-0.391176 73:-0.930502 74:1 75:-0.2 76:-1 77:0.697571 78:-0.112745 79:-0.910784 80:0.134314 81:-0.0117647 82:-0.615686 83:0.178431 84:0.231373 85:-0.355882 86:0.510784 87:0.779946 88:-0.288235 89:0.310784 
-0 -0 -0 -0.1865827194804918 0:0.358823 1:-0.0444049 2:-0.729412 3:0.454902 4:-0.171756 5:-0.873529 6:0.75098 7:-0.214541 8:-1 9:0.778431 10:-0.256637 11:-1 12:0.965686 13:-0.585294 14:-1 15:0.988235 16:-0.779412 17:-0.983333 18:0.973529 19:-0.979412 20:-0.918627 21:0.85098 22:-1 23:-0.978431 24:0.862745 25:-1 26:-0.85 27:0.65098 28:-1 29:-0.505882 30:0.351032 31:-1 32:-0.169608 33:0.217486 34:-1 35:-0.00392159 36:0.08298 37:-1 38:0.136274 39:-0.217593 40:-1 41:0.538235 42:-0.661867 43:-1 44:0.993137 45:-1 46:-0.983333 47:1 48:-0.69985 49:-0.879412 50:0.628431 51:-0.293137 52:-0.747059 53:0.364706 54:0.134314 55:-0.571506 56:0.810784 57:0.362745 58:0.0400583 59:1 60:0.661765 61:0.657475 62:1 63:0.988235 64:0.930328 65:1 66:1 67:1 68:1 69:1 70:0.963658 71:0.816487 72:1 73:0.917264 74:-0.237071 75:1 76:0.614706 77:-0.719385 78:1 79:0.154902 80:-0.866667 81:0.996078 82:-0.222549 83:-1 84:0.829412 85:-0.220588 86:-1 87:0.64878 88:-0.204902 89:-1 
-0 -0.1382176812595872 -0 -0.04367202804104776 0:0.973529 1:0.133215 2:-0.538235 3:0.585294 4:0.314249 5:-0.993137 6:0.4 7:0.11919 8:-0.880392 9:0.706863 10:-0.220256 11:-0.546078 12:0.985294 13:-0.284314 14:-0.866667 15:1 16:-0.102941 17:-1 18:1 19:-0.471569 20:-1 21:0.987255 22:-0.888235 23:-0.74902 24:0.948039 25:-1 26:-0.495098 27:1 28:-1 29:-0.671569 30:0.930187 31:-1 32:-0.77549 33:0.493989 34:-1 35:-0.246078 36:0.165354 37:-1 38:0.136274 39:0.1875 40:-1 41:0.0813725 42:-0.0101334 43:-1 44:0.0666666 45:-0.653007 46:-1 47:0.712745 48:-1 49:-1 50:1 51:-0.922549 52:-1 53:1 54:-0.4 55:-0.979493 56:0.879412 57:0.0549019 58:-0.567371 59:0.590196 60:0.302941 61:-0.155297 62:0.899143 63:0.887255 64:0.0505465 65:1 66:1 67:0.0867971 68:0.811133 69:1 70:0.611958 71:-0.368008 72:1 73:0.858798 74:-0.675371 75:1 76:0.221569 77:-0.238473 78:1 79:-0.617647 80:-0.267647 81:0.996078 82:-0.826471 83:-0.984314 84:0.715686 85:-0.358823 86:-1 87:0.514363 88:-0.403922 89:-1 
-0.3514243459743857 -0 -0.5114352341054651 -0.1743542029781687 0:0.706863 1:-0.0870337 2:-0.828431 3:0.727451 4:0.0279898 5:-1 6:0.844118 7:-0.0917759 8:-1 9:0.910784 10:-0.330383 11:-1 12:0.927451 13:-0.469608 14:-1 15:1 16:-0.790196 17:-0.968627 18:0.99902 19:-0.990196 20:-0.883333 21:0.99902 22:-1 23:-0.771569 24:0.961765 25:-1 26:-0.616667 27:0.773529 28:-1 29:-0.273529 30:0.593904 31:-1 32:0.118627 33:0.327869 34:-1 35:0.229412 36:-0.296184 37:-1 38:0.392157 39:-0.811343 40:-1 41:0.692157 42:-1 43:-1 44:0.99902 45:-0.92017 46:-1 47:1 48:-0.297649 49:-1 50:1 51:0.131373 52:-0.858824 53:0.794118 54:0.311765 55:-0.481921 56:0.740196 57:0.876471 58:0.296431 59:0.907843 60:1 61:0.724238 62:1 63:1 64:1 65:0.950793 66:1 67:0.907091 68:0.506958 69:1 70:0.556858 71:-0.0402355 72:1 73:-0.0292333 74:-0.231951 75:1 76:-0.833333 77:-0.61527 78:0.951961 79:-0.888235 80:-1 81:0.745098 82:-0.492157 83:-1 84:0.829412 85:-0.516667 86:-1 87:0.991328 88:-0.448039 89:-1 
-0 -0 -0.9215033150626827 -0.07497885630946304 0:0.77549 1:-0.578449 2:-0.428431 3:0.810784 4:-0.653944 5:-0.686275 6:0.641176 7:-0.438617 8:-0.991176 9:0.507843 10:-0.540806 11:-1 12:0.82451 13:-0.693137 14:-1 15:1 16:-0.694118 17:-1 18:1 19:-0.634314 20:-1 21:1 22:-0.891176 23:-0.961765 24:1 25:-1 26:-0.642157 27:0.99902 28:-1 29:-0.578431 30:0.999017 31:-1 32:-0.535294 33:0.879781 34:-1 35:-0.3 36:0.557844 37:-1 38:-0.10098 39:0.174769 40:-1 41:0.0343137 42:0.104 43:-1 44:0.0196078 45:-0.210218 46:-1 47:0.0647059 48:-0.566783 49:-1 50:0.727451 51:-0.916667 52:-0.996078 53:1 54:-0.913725 55:-0.841338 56:1 57:-0.457843 58:-0.646031 59:0.823529 60:0.00784311 61:-0.206096 62:0.385779 63:0.445098 64:0.0983607 65:0.878622 66:0.953921 67:0.304401 68:1 69:1 70:0.391559 71:0.883219 72:1 73:0.2984 74:0.391705 75:1 76:0.00196081 77:0.0401587 78:1 79:-0.319608 80:-0.327451 81:1 82:-0.836274 83:-0.594118 84:0.708823 85:-0.834314 86:-1 87:0.390786 88:-0.657843 89:-1 
-0.3275219519039319 -0 -0 -0.07740932314496778 0:0.909804 1:-0.230314 2:-0.923529 3:0.914706 4:-0.356234 5:-0.673529 6:0.85 7:-0.300358 8:-0.97549 9:0.536275 10:-0.250737 11:-1 12:0.505882 13:-0.270588 14:-1 15:0.954902 16:-0.416667 17:-1 18:1 19:-0.412745 20:-1 21:1 22:-0.591176 23:-1 24:1 25:-0.928431 26:-0.87451 27:1 28:-1 29:-0.484314 30:1 31:-1 32:-0.530392 33:0.922404 34:-1 35:-0.652941 36:0.590551 37:-1 38:-0.406863 39:0.481481 40:-1 41:-0.17549 42:0.36 43:-1 44:-0.0539216 45:0.037786 46:-1 47:0.184314 48:-0.374687 49:-1 50:0.551961 51:-0.797059 52:-1 53:0.913725 54:-0.946078 55:-1 56:1 57:-0.755882 58:-1 59:1 60:-0.363726 61:-1 62:0.799294 63:0.25098 64:-0.870219 65:0.352652 66:0.940196 67:-0.511002 68:0.717694 69:1 70:-0.138335 71:0.964671 72:1 73:0.344733 74:0.779826 75:1 76:0.217647 77:0.676748 78:1 79:-0.130392 80:-0.0176471 81:1 82:-0.338235 83:-0.905882 84:1 85:-0.547059 86:-0.95098 87:1 88:-0.754902 89:-1 
-0.2669090376007957 -0 -0.1168287479906296 -0.08068666343072836 0:0.864706 1:-0.660154 2:-0.742157 3:0.50098 4:-0.329517 5:-1 6:0.664706 7:-0.292014 8:-1 9:0.914706 10:-0.362832 11:-1 12:0.995098 13:-0.439216 14:-1 15:1 16:-0.72549 17:-1 18:1 19:-0.983333 20:-1 21:0.99902 22:-1 23:-0.862745 24:0.997059 25:-1 26:-0.668627 27:0.872549 28:-1 29:-0.506863 30:0.675516 31:-1 32:-0.313726 33:0.347541 34:-1 35:-0.0784314 36:-0.0151424 37:-1 38:0.222549 39:-0.222222 40:-1 41:0.256863 42:-0.5328 43:-1 44:0.606863 45:-0.953167 46:-0.99902 47:1 48:-0.911956 49:-0.946078 50:1 51:-0.637255 52:-1 53:0.989216 54:-0.25 55:-1 56:0.54902 57:0.267647 58:-1 59:0.247059 60:0.893137 61:-0.656023 62:0.0821987 63:1 64:0.273224 65:-0.0606889 66:1 67:0.591687 68:0.28827 69:1 70:0.409144 71:0.00981353 72:1 73:-0.0987314 74:-0.479775 75:1 76:-0.34902 77:-1 78:1 79:-0.163725 80:-1 81:1 82:-0.293137 83:-1 84:1 85:-0.394118 86:-1 87:0.979404 88:-0.528431 89:-1 
-0.05976368620336441 -0 -0 -0.4139669825639941 0:1 1:0.103612 2:-0.412745 3:0.870588 4:-0.0127226 5:-0.779412 6:0.690196 7:-0.0774731 8:-0.989216 9:0.722549 10:-0.13766 11:-1 12:0.82451 13:-0.129412 14:-1 15:0.92549 16:-0.216667 17:-1 18:1 19:-0.297059 20:-1 21:0.990196 22:-0.410784 23:-1 24:0.797059 25:-0.546078 26:-0.943137 27:0.77549 28:-0.645098 29:-0.682353 30:0.842674 31:-0.713725 32:-0.680392 33:0.713661 34:-0.823529 35:-0.619608 36:0.45003 37:-0.934314 38:-0.453922 39:0.334491 40:-0.992157 41:-0.338235 42:0.266133 43:-1 44:-0.168627 45:0.149548 46:-1 47:-0.106863 48:0.0225113 49:-0.992157 50:0.119608 51:-0.109804 52:-0.960784 53:0.227451 54:-0.295098 55:-0.924447 56:0.306863 57:-0.501961 58:-0.756737 59:0.637255 60:-0.667647 61:-0.634253 62:0.982854 63:-0.518627 64:-0.825137 65:1 66:-0.00980395 67:-0.99511 68:0.843936 69:0.423529 70:-0.907386 71:0.388616 72:0.929412 73:-0.714286 74:0.804403 75:1 76:-0.85098 77:0.995042 78:1 79:-1 80:0.0147059 81:1 82:-0.745098 83:-0.995098 84:1 85:-0.563725 86:-0.979412 87:1 88:-0.948039 89:-0.597059 
-0 -0.08652707071945855 -0.3361768170736975 -0 0:0.988235 1:0.0337478 2:-0.558824 3:0.876471 4:-0.287532 5:-0.306863 6:0.818627 7:-0.632896 8:-0.67451 9:0.684314 10:-0.478859 11:-1 12:0.717647 13:-0.365686 14:-1 15:0.809804 16:-0.54902 17:-1 18:0.909804 19:-0.642157 20:-1 21:1 22:-0.645098 23:-1 24:1 25:-0.811765 26:-1 27:1 28:-1 29:-1 30:0.958702 31:-1 32:-0.85 33:0.805464 34:-1 35:-0.57549 36:0.843731 37:-1 38:-0.363726 39:0.574074 40:-1 41:-0.404902 42:0.329067 43:-1 44:-0.268627 45:0.204896 46:-1 47:-0.181373 48:0.0785393 49:-1 50:-0.0833334 51:-0.0352941 52:-1 53:0.264706 54:-0.316667 55:-1 56:0.794118 57:-0.719608 58:-0.954843 59:1 60:-0.653922 61:-0.857765 62:1 63:-0.267647 64:-0.860656 65:0.972663 66:0.202941 67:-0.698044 68:0.559642 69:0.40098 70:-0.540445 71:0.421001 72:0.655882 73:-0.342526 74:0.735791 75:0.993137 76:-0.390196 77:0.955379 78:1 79:-0.413725 80:0.143137 81:1 82:-0.0254902 83:-0.447059 84:1 85:-0.106863 86:-0.0029412 87:1 88:-0.885294 89:-0.0705883 
-0 -0 -0.3636287269096957 -0 0:1 1:0.0680876 2:-0.0598039 3:1 4:-0.0330788 5:-0.434314 6:0.890196 7:-0.264601 8:-0.917647 9:0.779412 10:-0.247788 11:-0.998039 12:0.860784 13:-0.233333 14:-0.937255 15:0.865686 16:-0.223529 17:-1 18:0.995098 19:-0.30098 20:-1 21:1 22:-0.436275 23:-1 24:0.988235 25:-0.542157 26:-0.938235 27:0.911765 28:-0.646078 29:-0.984314 30:0.93412 31:-0.876471 32:-0.898039 33:0.852459 34:-1 35:-0.757843 36:0.658389 37:-1 38:-0.538235 39:0.244213 40:-1 41:-0.0372549 42:0.0656 43:-1 44:0.267647 45:0.0313996 46:-0.979412 47:0.22549 48:-0.108554 49:-0.972549 50:0.22549 51:-0.338235 52:-0.886275 53:0.551961 54:-0.45098 55:-0.653535 56:0.982353 57:-0.276471 58:-0.276038 59:1 60:-0.0480392 61:-0.184325 62:0.961674 63:0.067647 64:-0.125683 65:0.642427 66:0.139216 67:-0.0183374 68:0.429423 69:0.479412 70:0.256741 71:0.429833 72:0.836274 73:0.419746 74:0.812596 75:1 76:0.316667 77:0.931582 78:1 79:0.338235 80:0.531373 81:1 82:0.329412 83:0.0754902 84:1 85:0.164706 86:-0.0686275 87:1 88:-0.285294 89:-0.0852941 
-0.9022261871565586 -0.4225131892600247 -1.773154691660194 -0.9914476363251025 0:0.777451 1:0.584369 2:0.110784 3:0.970588 4:0.625954 5:-0.386275 6:0.947059 7:0.42789 8:-0.704902 9:0.827451 10:-0.0216322 11:-0.788235 12:0.65098 13:-0.267647 14:-0.987255 15:0.55098 16:-0.364706 17:-1 18:0.587255 19:-0.371569 20:-1 21:0.634314 22:-0.409804 23:-1 24:0.516667 25:-0.522549 26:-1 27:0.484314 28:-0.60098 29:-1 30:0.738446 31:-0.567647 32:-1 33:0.971585 34:-0.665686 35:-1 36:0.9043 37:-0.991176 38:-1 39:0.936343 40:-1 41:-0.872549 42:1 43:-1 44:-0.581373 45:1 46:-1 47:-0.579412 48:0.991996 49:-1 50:-0.593137 51:0.790196 52:-1 53:-0.436275 54:0.561765 55:-1 56:-0.0833334 57:0.426471 58:-1 59:0.10098 60:0.230392 61:-1 62:0.174987 63:0.0294117 64:-1 65:0.199563 66:-0.205882 67:-1 68:0.429423 69:-0.405882 70:-0.950762 71:0.583906 72:-0.495098 73:-0.879757 74:0.74808 75:-0.497059 76:-0.851961 77:0.956371 78:-0.463725 79:-0.862745 80:1 81:-0.609804 82:-0.938235 83:1 84:-0.5 85:-1 86:0.893137 87:0.270461 88:-0.987255 89:0.351961 
-0 -0.2623885033637994 -0 -0 0:0.991176 1:0.208999 2:-0.263726 3:1 4:0.568702 5:-0.89902 6:1 7:0.365912 8:-0.659804 9:0.819608 10:-0.14061 11:-0.119608 12:0.695098 13:-0.397059 14:-0.223529 15:0.692157 16:-0.322549 17:-0.894118 18:0.683333 19:-0.135294 20:-1 21:0.733333 22:-0.261765 23:-1 24:0.92549 25:-0.453922 26:-0.928431 27:1 28:-0.443137 29:-0.819608 30:0.996067 31:-0.478431 32:-0.997059 33:1 34:-0.679412 35:-1 36:0.804967 37:-0.988235 38:-0.929412 39:0.65162 40:-1 41:-0.633333 42:0.706667 43:-1 44:-0.493137 45:0.449707 46:-1 47:-0.420588 48:0.23962 49:-1 50:-0.206863 51:0.144118 52:-1 53:-0.0813726 54:-0.032353 55:-1 56:0.101961 57:-0.359804 58:-1 59:0.643137 60:-0.542157 61:-0.825835 62:1 63:-0.542157 64:-0.551913 65:1 66:-0.363726 67:-0.584352 68:0.985089 69:0.0401961 70:-0.559203 71:0.728165 72:0.254902 73:-0.412024 74:0.467486 75:0.481373 76:-0.233333 77:0.497273 78:0.882353 79:-0.0460784 80:0.694118 81:1 82:0.0715686 83:0.779412 84:1 85:0.0911765 86:0.401961 87:1 88:-0.0362745 89:0.122549 
-0 -0.5540492936935749 -0.104319383931764 -0 0:0.828431 1:0.799882 2:-1 3:0.715686 4:0.87659 5:-0.986275 6:0.669608 7:0.706794 8:-0.745098 9:0.55098 10:0.305801 11:-0.527451 12:0.433333 13:0.24902 14:-0.443137 15:0.466667 16:0.193137 17:-0.45 18:0.571569 19:0.0843137 20:-0.67549 21:0.527451 22:-0.0264706 23:-0.765686 24:0.296078 25:-0.138235 26:-0.55098 27:0.409804 28:-0.235294 29:-0.548039 30:0.53589 31:-0.37549 32:-0.703922 33:0.353005 34:-0.569608 35:-0.7 36:0.150818 37:-0.729412 38:-0.362745 39:0.0648148 40:-0.755882 41:0.0303921 42:0.0154666 43:-0.633333 44:0.171569 45:-0.0580096 46:-0.521569 47:0.181373 48:0.0305153 49:-0.467647 50:0.167647 51:0.146078 52:-0.409804 53:0.265686 54:0.176471 55:-0.232596 56:0.403922 57:0.17549 58:0.225055 59:0.862745 60:0.158824 61:0.380261 62:1 63:0.396078 64:0.386612 65:1 66:0.567647 67:0.374083 68:0.889662 69:0.559804 70:0.757327 71:0.67419 72:0.521569 73:0.970215 74:0.850486 75:0.755882 76:0.737255 77:0.797719 78:1 79:0.802941 80:0.457843 81:1 82:0.726471 83:0.360784 84:1 85:0.530392 86:-0.121569 87:1 88:0.330392 89:-0.410784 
-0.3252835097091016 -0 -0.3786506670591372 -0.1404193058262882 0:1 1:1 2:0.113725 3:1 4:1 5:0.0254902 6:0.996078 7:0.599523 8:-0.0941177 9:0.908823 10:0.251721 11:-0.556863 12:0.528431 13:0.277451 14:-0.678431 15:0.314706 16:0.2 17:-0.787255 18:0.496078 19:0.122549 20:-0.957843 21:0.591176 22:0.0960785 23:-1 24:0.7 25:-0.0960784 26:-1 27:0.864706 28:-0.312745 29:-0.919608 30:0.823009 31:-0.527451 32:-0.743137 33:0.626229 34:-0.702941 35:-0.728431 36:0.439128 37:-0.861765 38:-0.655882 39:0.265046 40:-0.989216 41:-0.434314 42:0.140267 43:-1 44:-0.147059 45:0.0441724 46:-1 47:0.0852941 48:-0.000500243 49:-0.985294 50:0.32451 51:-0.240196 52:-0.771569 53:0.815686 54:-0.284314 55:-0.526174 56:1 57:0.0441176 58:-0.203205 59:0.785294 60:0.40098 61:-0.011611 62:0.577408 63:0.537255 64:0.248634 65:0.944232 66:0.484314 67:0.442543 68:1 69:0.37549 70:0.513482 71:0.966634 72:0.567647 73:0.660232 74:0.668203 75:0.733333 76:0.784314 77:0.844323 78:0.860784 79:0.907843 80:0.934314 81:0.997059 82:0.854902 83:0.656863 84:1 85:0.701961 86:0.0549019 87:1 88:0.642157 89:-0.743137 
