svm_type c_svc
kernel_type rbf
gamma 0.0078125
nr_class 3
total_sv 26
rho -1.09129 -0.565352 0.667692
label -1 1 2
nr_sv 10 6 10
SV
2.446834171829007 1.333450088522847 0:0.583333 1:-0.129217 2:0.706039 3:0.886275 4:0.655225 5:1 6:1 7:1 8:1 9:1 10:1 11:1 12:1 13:1 14:1 15:1 16:1 17:1 18:1 19:0.82451 20:1 21:0.97549 22:0.409804 23:0.944118 24:0.788235 25:0.0705883 26:0.873529 27:0.559804 28:-0.228431 29:0.841176 30:0.277286 31:-0.465686 32:0.769608 33:-0.0928962 34:-0.581373 35:0.64416 36:-0.319201 37:-0.592157 38:0.521569 39:-0.358796 40:-0.6 41:0.353922 42:-0.498843 43:-0.635294 44:0.12549 45:-0.87485 46:-0.747059 47:-0.113726 48:-1 49:-0.835294 50:-0.0745098 51:-1 52:-0.863726 53:0.277451 54:-1 55:-0.955747 56:0.398039 57:-0.929412 58:-1 59:0.194118 60:-0.281373 61:-1 62:-0.0408472 63:0.377451 64:-1 65:-0.31766 66:0.951782 67:-0.816929 68:0.0258449 69:1 70:0.318898 71:0.896958 72:1 73:0.786548 74:1 75:1 76:0.998039 77:0.909276 78:1 79:1 80:0.565686 81:1 82:1 83:0.656863 84:0.956863 85:0.979412 86:0.706863 87:0.843902 88:0.844118 89:0.394118 
0.4695431584959733 0 0:-0.292157 1:-0.34182 2:0.00908602 3:0.205882 4:-0.243326 5:-0.019432 6:0.579412 7:-0.352801 8:-0.0705883 9:0.681372 10:-0.419862 11:0.268627 12:0.810784 13:-0.147059 14:0.95 15:1 16:0.631373 17:1 18:1 19:1 20:0.754902 21:1 22:1 23:0.195098 24:1 25:1 26:0.521569 27:1 28:0.992157 29:0.613725 30:1 31:0.723529 32:0.443137 33:0.945355 34:0.384314 35:0.448004 36:0.728649 37:0.0852941 38:0.498039 39:0.451389 40:-0.173529 41:0.50098 42:0.125 43:-0.37549 44:0.6 45:-0.139591 46:-0.45 47:0.590196 48:-0.0705646 49:-0.472549 50:0.4 51:-0.155882 52:-0.485294 53:0.167647 54:-0.316667 55:-0.522936 56:-0.0784314 57:-0.709804 58:-0.576111 59:-0.215686 60:-1 61:-0.582677 62:0.0499243 63:-1 64:-0.659449 65:0.291416 66:-0.98847 67:-0.923228 68:0.146123 69:-0.514706 70:-1 71:-0.296369 72:0.0568627 73:-1 74:-0.661034 75:0.666667 76:-0.984314 77:-0.373089 78:0.983333 79:-0.690196 80:0.561765 81:1 82:-0.00882351 83:1 84:1 85:0.721569 86:1 87:1 88:1 89:1 
0.4597382047473825 0 0:-0.0441177 1:0.446213 2:0.0358097 3:-0.215686 4:0.490465 5:0.0951669 6:-0.371569 7:-0.0834326 8:0.0617647 9:-0.694118 10:-0.468043 11:-0.0617647 12:-0.995098 13:-0.67549 14:-0.00686277 15:-1 16:-0.814706 17:0.0568627 18:-0.957843 19:-0.945098 20:0.0421568 21:-0.278431 22:-0.953921 23:-0.0490196 24:0.387255 25:-0.778431 26:-0.15098 27:0.710784 28:-0.45098 29:0.208823 30:0.996067 31:0.223529 32:0.914706 33:1 34:0.933333 35:1 36:1 37:1 38:0.422549 39:1 40:1 41:-0.184314 42:1 43:1 44:-0.328431 45:1 46:0.861765 47:-0.236275 48:0.984879 49:0.378431 50:0.142157 51:0.820588 52:0.00392159 53:0.381373 54:0.573529 55:-0.243389 56:0.389216 57:0.24902 58:-0.286234 59:0.448039 60:-0.0117647 61:-0.389764 62:0.371659 63:-0.505882 64:-0.923228 65:-0.0508475 66:-1 67:-1 68:-0.138171 69:-1 70:-1 71:0.256133 72:-1 73:-1 74:0.0855095 75:-0.32549 76:-1 77:-0.59633 78:0.730392 79:-0.817647 80:-0.442157 81:0.996078 82:-0.207843 83:0.543137 84:1 85:0.647059 86:1 87:1 88:0.995098 89:0.920588 
0 0.5095675851365635 0:-0.389216 1:-0.22979 2:-0.104222 3:-0.768627 4:-0.391304 5:-0.298455 6:-1 7:-0.676996 8:-0.254902 9:-1 10:-0.880039 11:0.160784 12:-0.901961 13:-0.967647 14:0.297059 15:-0.338235 16:-0.941176 17:0.077451 18:0.143137 19:-0.832353 20:-0.184314 21:0.544118 22:-0.712745 23:-0.129412 24:0.932353 25:-0.297059 26:0.45098 27:1 28:0.486275 29:0.990196 30:1 31:0.997059 32:0.823529 33:1 34:1 35:-0.00640711 36:1 37:1 38:-0.236275 39:1 40:1 41:-0.101961 42:1 43:0.929412 44:-0.0382353 45:1 46:0.528431 47:0.227451 48:0.936492 49:0.121569 50:0.388235 51:0.747059 52:-0.173529 53:0.376471 54:0.533333 55:-0.345925 56:0.391176 57:0.259804 58:-0.354698 59:0.480392 60:0.0470588 61:-0.265748 62:0.416036 63:-0.137255 64:-0.474409 65:0.108803 66:-0.658281 67:-0.897638 68:-0.145129 69:-1 70:-1 71:-0.0736016 72:-1 73:-1 74:0.344598 75:-1 76:-1 77:0.360856 78:-0.646078 79:-1 80:-0.0303922 81:-0.0264706 82:-0.990196 83:-0.290196 84:0.383333 85:-0.938235 86:-0.235294 87:0.744173 88:-0.773529 89:0.376471 
1.831911082707935 0.5260139697563015 0:-0.717647 1:-0.0184596 2:-0.0956708 3:-0.777451 4:0.0556827 5:0.00847036 6:-0.681373 7:-0.28963 8:0.0558823 9:-0.362745 10:-0.489676 11:-0.0372549 12:0.178431 13:-0.466667 14:-0.0833334 15:0.39902 16:-0.381373 17:0.0470588 18:0.538235 19:-0.213725 20:0.385294 21:0.969608 22:0.155882 23:0.815686 24:1 25:0.721569 26:0.941176 27:1 28:1 29:0.803922 30:1 31:1 32:0.598039 33:1 34:1 35:0.200591 36:1 37:1 38:0.0156863 39:1 40:0.838235 41:0.227451 42:0.984954 43:0.406863 44:0.465686 45:0.754513 46:0.00490198 47:0.635294 48:0.541331 49:-0.280392 50:0.59902 51:0.369608 52:-0.459804 53:0.440196 54:0.217647 55:-0.539126 56:0.355882 57:0.045098 58:-0.453751 59:0.469608 60:-0.0843137 61:-0.275591 62:0.312153 63:-0.198039 64:-0.259842 65:-0.0617824 66:-0.409853 67:-0.470472 68:-0.238569 69:-0.918627 70:-0.753937 71:-0.323847 72:-1 73:-0.85881 74:-0.0947261 75:-1 76:-0.958824 77:0.221203 78:-1 79:-1 80:0.166667 81:-0.864706 82:-1 83:-0.128431 84:-0.194118 85:-1 86:-0.266667 87:0.653116 88:-1 89:0.310784 
3.622104224426529 2.432199452191454 0:0.502941 1:1 2:0.298771 3:0.301961 4:1 5:0.17987 6:0.0568627 7:0.256257 8:0.095098 9:-0.168627 10:-0.174041 11:0.0970588 12:-0.416667 13:-0.421569 14:0.163725 15:-0.802941 16:-0.666667 17:-0.0235294 18:-1 19:-0.837255 20:-0.247059 21:-1 22:-0.926471 23:-0.126471 24:-0.996078 25:-1 26:0.0480392 27:-0.589216 28:-1 29:0.027451 30:0.0353982 31:-0.992157 32:-0.0578432 33:0.500546 34:-0.859804 35:0.0970921 36:0.946699 37:-0.428431 38:0.853921 39:1 40:0.458824 41:1 42:1 43:1 44:0.892157 45:1 46:1 47:0.0519608 48:1 49:1 50:-0.0411765 51:1 52:1 53:0.0254902 54:1 55:1 56:0.0568627 57:1 58:1 59:0.217647 60:0.959804 61:0.870079 62:0.302068 63:0.689216 64:0.159449 65:0.376709 66:0.450734 67:-0.271654 68:0.602386 69:0.0833333 70:-0.431102 71:0.622179 72:-0.054902 73:-0.73652 74:0.308756 75:-0.435294 76:-0.926471 77:-0.0937819 78:-0.986275 79:-1 80:-0.12549 81:-1 82:-1 83:0.414706 84:-1 85:-1 86:0.544118 87:-0.97832 88:-1 89:0.0715686 
0.4110272855373851 0.4000440056169062 0:0.173529 1:0.492043 2:0.0892571 3:-0.0627451 4:0.405034 5:0.136024 6:-0.334314 7:-0.239571 8:0.135294 9:-0.778431 10:-0.674533 11:-0.00784316 12:-1 13:-0.885294 14:-0.054902 15:-1 16:-0.995098 17:0.144118 18:-1 19:-1 20:0.164706 21:-0.555882 22:-1 23:-0.0627451 24:0.382353 25:-1 26:-0.119608 27:0.839216 28:-0.9 29:0.405882 30:1 31:-0.2 32:0.980392 33:1 34:0.747059 35:0.899458 36:1 37:1 38:0.151961 39:1 40:1 41:-0.231373 42:1 43:1 44:-0.218627 45:1 46:0.891177 47:-0.283333 48:1 49:0.407843 50:-0.0186275 51:0.956863 52:-0.0794117 53:0.279412 54:0.653922 55:-0.353481 56:0.434314 57:0.39902 58:-0.442098 59:0.540196 60:0.0803921 61:-0.425197 62:0.598588 63:-0.148039 64:-0.476378 65:0.431383 66:-0.371069 67:-0.811024 68:0.0437376 69:-0.941176 70:-1 71:-0.16683 72:-1 73:-1 74:0.364055 75:-1 76:-1 77:0.534149 78:-0.935294 79:-1 80:0.045098 81:0.0303921 82:-1 83:-0.45 84:0.865686 85:-1 86:-0.455882 87:1 88:-0.75098 89:0.248039 
0 1.157454306586527 0:-0.717647 1:-0.29599 2:-0.050775 3:-0.983333 4:-0.374523 5:0.324365 6:-0.960784 7:-0.673421 8:0.434314 9:-0.432353 10:-0.909538 11:0.35098 12:0.353922 13:-0.903922 14:0.385294 15:0.871569 16:-0.539216 17:0.571569 18:1 19:0.0803922 20:0.928431 21:1 22:0.851961 23:0.977451 24:1 25:1 26:0.558823 27:1 28:1 29:0.0107843 30:1 31:1 32:-0.214706 33:1 34:0.943137 35:-0.234105 36:0.967293 37:0.533333 38:-0.104902 39:0.72338 40:0.165686 41:0.141176 42:0.415509 43:-0.131373 44:0.322549 45:0.078219 46:-0.306863 47:0.326471 48:-0.046371 49:-0.395098 50:0.261765 51:-0.213726 52:-0.408824 53:0.206863 54:-0.368627 55:-0.395575 56:0.0598039 57:-0.605882 58:-0.434814 59:-0.0696079 60:-0.980392 61:-0.669291 62:0.0146243 63:-1 64:-0.63189 65:0.451066 66:-1 67:-0.92126 68:0.437376 69:-0.819608 70:-1 71:0.0549558 72:-0.22549 73:-1 74:-0.147977 75:0.406863 76:-1 77:-0.0570846 78:0.968627 79:-0.997059 80:0.245098 81:1 82:-0.334314 83:0.569608 84:1 85:0.402941 86:0.643137 87:1 88:0.923529 89:0.812745 
0.5352146682923198 0.5005286321299821 0:-0.147059 1:0.133036 2:0.0529128 3:-0.346078 4:-0.125858 5:0.099153 6:-0.867647 7:-0.84267 8:0.178431 9:-1 10:-1 11:0.307843 12:-1 13:-1 14:0.320588 15:-0.77451 16:-1 17:0.110784 18:0.239216 19:-0.95098 20:-0.0421569 21:0.968627 22:-0.370588 23:0.316667 24:1 25:0.490196 26:0.422549 27:1 28:0.997059 29:0.0568627 30:1 31:1 32:-0.213726 33:1 34:1 35:-0.272548 36:1 37:0.993137 38:-0.270588 39:1 40:0.644118 41:-0.119608 42:0.855324 43:0.227451 44:0.182353 45:0.519856 46:-0.107843 47:0.328431 48:0.274194 49:-0.404902 50:0.455882 51:-0.0372549 52:-0.526471 53:0.592157 54:-0.276471 55:-0.58122 56:0.487255 57:-0.496078 58:-0.678077 59:0.0882353 60:-0.942157 61:-0.990157 62:-0.22945 63:-1 64:-1 65:0.11099 66:-1 67:-1 68:0.306163 69:-0.779412 70:-1 71:-1.74202e-08 72:0.343137 73:-0.969983 74:-0.197133 75:0.972549 76:-0.506863 77:0.107034 78:1 79:0.162745 80:0.687255 81:1 82:0.839216 83:0.72451 84:1 85:1 86:0.703922 87:1 88:1 89:0.793137 
1.492234995573305 0.871771363450516 0:-0.902941 1:-0.335455 2:0.372528 3:-0.539216 4:-0.319603 5:0.171898 6:-0.0490196 7:-0.439809 8:-0.0343137 9:0.493137 10:-0.385447 11:0.0705882 12:0.941176 13:0.00784316 14:0.492157 15:1 16:0.602941 17:0.896078 18:1 19:0.994118 20:0.866667 21:1 22:1 23:0.535294 24:1 25:1 26:0.179412 27:1 28:0.97451 29:-0.00686277 30:1 31:0.627451 32:0.102941 33:0.783607 34:0.17549 35:0.398719 36:0.373713 37:-0.163725 38:0.543137 39:0.159722 40:-0.404902 41:0.580392 42:-0.148148 43:-0.561765 44:0.461765 45:-0.512635 46:-0.686274 47:0.288235 48:-0.717742 49:-0.957843 50:0.15 51:-1 52:-1 53:0.352941 54:-1 55:-1 56:0.584314 57:-1 58:-1 59:0.171569 60:-0.606863 61:-1 62:-0.465456 63:0.164706 64:-0.933071 65:-0.72444 66:0.912998 67:-0.295276 68:-0.00497017 69:1 70:0.988189 71:0.617272 72:1 73:1 74:0.701997 75:1 76:1 77:0.553517 78:1 79:1 80:0.805882 81:0.876471 82:0.982353 83:0.831373 84:0.62451 85:0.817647 86:0.752941 87:0.415718 88:0.65098 89:0.516667 
-1.541911556096712 0.3649156953795717 0:-0.734314 1:0.0579249 2:1 3:-0.660784 4:0.174676 5:1 6:-0.483333 7:-0.184744 8:1 9:-0.251961 10:-0.448378 11:1 12:-0.0470588 13:-0.652941 14:1 15:0.351961 16:-0.95 17:1 18:0.887255 19:-1 20:0.933333 21:1 22:-1 23:0.632353 24:0.802941 25:-1 26:0.456863 27:0.606863 28:-1 29:0.529412 30:0.834808 31:-1 32:0.747059 33:0.84918 34:-1 35:0.299162 36:0.697153 37:-1 38:-0.3 39:0.829861 40:-1 41:0.0852941 42:0.835648 43:-1 44:0.215686 45:0.79663 46:-1 47:-0.197059 48:0.980847 49:-1 50:-0.482353 51:1 52:-1 53:-0.740196 54:1 55:-1 56:-0.737255 57:1 58:-1 59:-0.711765 60:0.946078 61:-1 62:-0.76702 63:0.847059 64:-1 65:-0.855659 66:0.979036 67:-0.864173 68:-0.616302 69:0.842157 70:-0.360236 71:-0.506379 72:0.781372 73:-0.566426 74:-0.476702 75:0.00392155 76:-0.00392155 77:-0.0356779 78:0.00392155 79:-0.00392155 80:0.00392155 81:0.00392155 82:-0.00392155 83:0.00392155 84:0.00392155 85:-0.00392155 86:0.00392155 87:-0.101355 88:-0.00392155 89:0.00392155 
-3.809033190581642 3.777932760341187 0:0.517647 1:-0.0553787 2:-0.294495 3:0.521569 4:0.135011 5:-0.207773 6:0.5 7:-0.0977354 8:-0.182353 9:0.00392155 10:-0.000983278 11:0.00392155 12:0.00392155 13:-0.00392155 14:0.00392155 15:0.00392155 16:-0.00392155 17:0.00392155 18:0.00392155 19:-0.00392155 20:0.00392155 21:0.00392155 22:-0.00392155 23:0.00392155 24:0.00392155 25:-0.00392155 26:0.00392155 27:0.00392155 28:-0.00392155 29:0.00392155 30:0.000983278 31:-0.00392155 32:0.00392155 33:-0.110383 34:-0.00392155 35:0.0093642 36:-0.230769 37:-0.00392155 38:0.00392155 39:-0.175926 40:-0.00392155 41:0.00392155 42:-0.175926 43:-0.00392155 44:0.00392155 45:-0.222623 46:-0.00392155 47:0.00392155 48:-0.0241936 49:-0.00392155 50:0.00392155 51:0.00392155 52:-0.00392155 53:0.00392155 54:0.00392155 55:0.0966001 56:0.00392155 57:0.00392155 58:0.479971 59:0.00392155 60:0.00392155 61:1 62:-0.0247101 63:0.00392155 64:1 65:-0.11099 66:0.0733752 67:1 68:-0.00994035 69:0.00392155 70:1 71:0.00294405 72:0.00392155 73:0.129516 74:-0.0404506 75:0.00392155 76:-0.00392155 77:-0.0356779 78:0.00392155 79:-0.00392155 80:0.00392155 81:0.00392155 82:-0.00392155 83:0.00392155 84:0.00392155 85:-0.00392155 86:0.00392155 87:-0.101355 88:-0.00392155 89:0.00392155 
-0 1.053173878616479 0:-0.402941 1:-0.0388288 2:1 3:-0.232353 4:0.000762792 5:1 6:0.0578431 7:-0.418355 8:1 9:0.467647 10:-0.791544 11:1 12:0.657843 13:-0.99902 14:1 15:0.894118 16:-1 17:1 18:1 19:-1 20:0.993137 21:1 22:-1 23:0.594118 24:0.998039 25:-1 26:0.0107843 27:0.867647 28:-1 29:-0.226471 30:0.911504 31:-1 32:-0.427451 33:0.990164 34:-1 35:-0.954658 36:0.800121 37:-1 38:-0.947059 39:0.458333 40:-1 41:-0.486275 42:0.303241 43:-1 44:-0.472549 45:0.363418 46:-1 47:-0.716667 48:0.551411 49:-1 50:-0.846078 51:0.656863 52:-0.986274 53:-0.87451 54:0.547059 55:-0.943875 56:-0.917647 57:0.407843 58:-0.753824 59:-0.695098 60:0.435294 61:-0.411417 62:-0.531014 63:0.541176 64:-0.106299 65:-0.743029 66:0.0733752 67:1 68:-0.00994035 69:0.00392155 70:1 71:0.00294405 72:0.00392155 73:0.129516 74:-0.0404506 75:0.00392155 76:-0.00392155 77:-0.0356779 78:0.00392155 79:-0.00392155 80:0.00392155 81:0.00392155 82:-0.00392155 83:0.00392155 84:0.00392155 85:-0.00392155 86:0.00392155 87:-0.101355 88:-0.00392155 89:0.00392155 
-2.81839247937039 4.735734923045702 0:0.688235 1:-0.0222788 2:-0.122394 3:0.77549 4:0.212815 5:-0.0523169 6:0.00392155 7:0.210965 8:0.00392155 9:0.00392155 10:-0.000983278 11:0.00392155 12:0.00392155 13:-0.00392155 14:0.00392155 15:0.00392155 16:-0.00392155 17:0.00392155 18:0.00392155 19:-0.00392155 20:0.00392155 21:0.00392155 22:-0.00392155 23:0.00392155 24:0.00392155 25:-0.00392155 26:0.00392155 27:0.00392155 28:-0.00392155 29:0.00392155 30:0.000983278 31:-0.00392155 32:0.00392155 33:-0.110383 34:-0.00392155 35:0.0093642 36:-0.230769 37:-0.00392155 38:0.00392155 39:-0.175926 40:-0.00392155 41:0.00392155 42:-0.175926 43:-0.00392155 44:0.00392155 45:-0.222623 46:-0.00392155 47:0.00392155 48:-0.0241936 49:-0.00392155 50:0.00392155 51:0.00392155 52:-0.00392155 53:0.00392155 54:0.00392155 55:0.0966001 56:0.00392155 57:0.00392155 58:0.479971 59:0.00392155 60:0.00392155 61:1 62:-0.0247101 63:0.00392155 64:1 65:-0.11099 66:0.0733752 67:1 68:-0.00994035 69:0.00392155 70:1 71:0.00294405 72:0.00392155 73:0.129516 74:-0.0404506 75:0.00392155 76:-0.00392155 77:-0.0356779 78:0.00392155 79:-0.00392155 80:0.00392155 81:0.00392155 82:-0.00392155 83:0.00392155 84:0.00392155 85:-0.00392155 86:0.00392155 87:-0.101355 88:-0.00392155 89:0.00392155 
-0.6039722647239205 0.7666633929989732 0:1 1:-1 2:0.897381 3:1 4:-1 5:0.632287 6:1 7:-1 8:0.286274 9:1 10:-1 11:-0.0637255 12:1 13:-1 14:-0.295098 15:1 16:-1 17:-0.296078 18:1 19:-1 20:-0.164706 21:1 22:-1 23:-0.37451 24:0.915686 25:-1 26:-0.652941 27:0.796078 28:-1 29:-0.671569 30:0.780728 31:-1 32:-0.72451 33:0.784699 34:-1 35:-0.892558 36:0.745609 37:-1 38:-1 39:0.640046 40:-0.952941 41:-1 42:0.503472 43:-0.856863 44:-0.983333 45:0.465704 46:-0.723529 47:-0.821569 48:0.553427 49:-0.636274 50:-0.701961 51:0.631372 52:-0.545098 53:-0.671569 54:0.716667 55:-0.468969 56:-0.64902 57:0.711765 58:-0.446468 59:-0.523529 60:0.67451 61:-0.324803 62:-0.282905 63:0.693137 64:-0.283465 65:-0.118644 66:0.866876 67:-0.147638 68:0.054672 69:0.783333 70:-0.00393698 71:0.00490675 72:0.00392155 73:0.129516 74:-0.0404506 75:0.00392155 76:-0.00392155 77:-0.0356779 78:0.00392155 79:-0.00392155 80:0.00392155 81:0.00392155 82:-0.00392155 83:0.00392155 84:0.00392155 85:-0.00392155 86:0.00392155 87:-0.101355 88:-0.00392155 89:0.00392155 
-2.495298300837172 0.002446584666355701 0:-0.57549 1:0.635901 2:0.883485 3:-0.545098 4:0.89016 5:1 6:-0.490196 7:0.446961 8:1 9:-0.443137 10:0.167158 11:0.970588 12:-0.333333 13:0.0754902 14:0.977451 15:-0.215686 16:-0.05 17:1 18:-0.123529 19:-0.254902 20:1 21:0.0333333 22:-0.498039 23:1 24:0.382353 25:-0.713725 26:0.948039 27:0.871569 28:-0.873529 29:0.72549 30:0.958702 31:-0.997059 32:0.629412 33:0.76612 34:-1 35:0.691474 36:0.861902 37:-1 38:0.490196 39:0.940972 40:-1 41:-0.0803922 42:0.869213 43:-1 44:-0.315686 45:0.723225 46:-1 47:-0.430392 48:0.680444 49:-1 50:-0.469608 51:0.806863 52:-1 53:-0.553922 54:0.915686 55:-1 56:-0.701961 57:0.99902 58:-1 59:-0.776471 60:1 61:-0.968504 62:-0.807363 63:1 64:-0.933071 65:-0.944232 66:1 67:-0.824803 68:-1 69:0.758823 70:-0.627953 71:-1 72:0.681372 73:-0.55642 74:-1 75:0.00392155 76:-0.00392155 77:-0.0356779 78:0.00392155 79:-0.00392155 80:0.00392155 81:0.00392155 82:-0.00392155 83:0.00392155 84:0.00392155 85:-0.00392155 86:0.00392155 87:-0.101355 88:-0.00392155 89:0.00392155 
-1.827048130556164 -1.897235585869852 0:-0.265686 1:0.492043 2:0.650454 3:-0.232353 4:0.746758 5:0.838565 6:-0.152941 7:0.296782 8:0.996078 9:-0.0617647 10:0.0353982 11:1 12:0.0215686 13:-0.0098039 14:1 15:0.0794117 16:-0.110784 17:1 18:0.0843137 19:-0.269608 20:0.82451 21:0.198039 22:-0.340196 23:0.213725 24:0.158824 25:-0.27549 26:-0.381373 27:-0.120588 28:-0.209804 29:-0.544118 30:-0.376598 31:-0.167647 32:-0.783333 33:-0.666667 34:-0.0117647 35:-1 36:-0.980618 37:0.198039 38:-1 39:-1 40:0.254902 41:-1 42:-1 43:0.162745 44:-1 45:-0.990373 46:-0.022549 47:-1 48:-0.528226 49:-0.191176 50:-0.910784 51:-0.385294 52:-0.327451 53:-0.692157 54:-0.315686 55:-0.437669 56:-0.4 57:-0.223529 58:-0.316824 59:0.0813725 60:-0.154902 61:0.0669291 62:0.365608 63:-0.172549 64:0.0275591 65:0.352652 66:-0.0723271 67:-0.00984251 68:0.560636 69:-0.160784 70:-0.047244 71:0.930324 72:-0.169608 73:-0.421901 74:1 75:-0.12549 76:-0.473529 77:1 78:-0.107843 79:-0.473529 80:1 81:-0.0931373 82:-0.480392 83:1 84:-0.0852941 85:-0.467647 86:1 87:-0.21626 88:-0.490196 89:1 
-0 -0.05750125504963888 0:-0.0333334 1:-0.85487 2:0.525387 3:0.384314 4:-0.900839 5:-0.177877 6:0.253922 7:-0.722288 8:-0.604902 9:-0.183333 10:-0.539823 11:-0.969608 12:-0.0411765 13:-0.356863 14:-1 15:0.0196078 16:-0.205882 17:-1 18:-0.236275 19:-0.0323529 20:-1 21:-0.339216 22:0.05 23:-1 24:-0.301961 25:0.000980415 26:-1 27:-0.284314 28:-0.128431 29:-1 30:-0.26647 31:-0.211765 32:-1 33:-0.339891 34:-0.236274 35:-0.933958 36:-0.430648 37:-0.289216 38:-0.869608 39:-0.364583 40:-0.34902 41:-0.696078 42:-0.366898 43:-0.384314 44:-0.487255 45:-0.369434 46:-0.421569 47:-0.273529 48:-0.137097 49:-0.477451 50:-0.0470588 51:-0.116667 52:-0.536275 53:0.240196 54:-0.235294 55:-0.51538 56:0.576471 57:-0.306863 58:-0.270211 59:0.959804 60:-0.390196 61:0.0610237 62:1 63:-0.461765 64:0.0295275 65:1 66:-0.475891 67:-0.139764 68:1 69:-0.517647 70:-0.194882 71:1 72:-0.492157 73:-0.585325 74:1 75:-0.32549 76:-0.785294 77:1 78:-0.17451 79:-0.946078 80:0.892157 81:-0.0901961 82:-1 83:0.322549 84:0.103922 85:-0.842157 86:-0.556863 87:0.125203 88:-0.52549 89:-0.505882 
-0 -1.943464940658128 0:-0.398039 1:0.39529 2:0.814003 3:-0.411765 4:0.537757 5:0.994021 6:-0.396078 7:0.0810489 8:1 9:-0.29902 10:-0.227139 11:1 12:-0.183333 13:-0.352941 14:0.797059 15:-0.0421569 16:-0.476471 17:0.463725 18:0.101961 19:-0.543137 20:0.104902 21:0.0578431 22:-0.582353 23:-0.308824 24:-0.0970588 25:-0.505882 26:-0.861765 27:-0.32549 28:-0.341176 29:-1 30:-0.415929 31:-0.129412 32:-1 33:-0.59235 34:0.0421569 35:-1 36:-0.809812 37:0.0617647 38:-1 39:-0.547454 40:-0.0656863 41:-1 42:-0.304398 43:-0.17451 44:-1 45:-0.419976 46:-0.246078 47:-0.788235 48:-0.236895 49:-0.256863 50:-0.516667 51:-0.176471 52:-0.231373 53:-0.359804 54:-0.336275 55:-0.17755 56:-0.0598039 57:-0.483333 58:0.175528 59:0.231373 60:-0.452941 61:0.726378 62:0.341402 63:-0.442157 64:0.840551 65:0.307818 66:-0.496855 67:0.885827 68:0.307157 69:-0.645098 70:0.919291 71:0.388616 72:-0.761765 73:0.0783769 74:0.583205 75:-0.753922 76:-0.105882 77:0.909276 78:-0.758824 79:-0.183333 80:1 81:-0.831373 82:-0.242157 83:1 84:-0.776471 85:-0.280392 86:1 87:-0.738753 88:-0.383333 89:0.993137 
-0.04344995245200078 -0 0:0.104902 1:-0.802673 2:0.387493 3:0.25098 4:-0.743707 5:-0.165919 6:0.119608 7:-0.671037 8:-0.407843 9:-0.0352941 10:-0.653884 11:-0.493137 12:-0.227451 13:-0.587255 14:-0.886275 15:-0.360784 16:-0.310784 17:-1 18:-0.364706 19:0.0137255 20:-1 21:-0.480392 22:0.12549 23:-1 24:-0.530392 25:0.0892157 26:-1 27:-0.339216 28:0.0029412 29:-1 30:-0.164208 31:-0.0666666 32:-1 33:-0.2 34:-0.127451 35:-0.980286 36:-0.345851 37:-0.214706 38:-0.767647 39:-0.240741 40:-0.309804 41:-0.506863 42:-0.123843 43:-0.393137 44:-0.290196 45:-0.156438 46:-0.509804 47:-0.0656863 48:-0.0262097 49:-0.623529 50:0.234314 51:-0.0950981 52:-0.680392 53:0.623529 54:-0.217647 55:-0.671883 56:0.95098 57:-0.384314 58:-0.587764 59:1 60:-0.490196 61:-0.395669 62:1 63:-0.597059 64:-0.326772 65:1 66:-0.485325 67:-0.261811 68:1 69:-0.4 70:-0.255905 71:1 72:-0.346078 73:-0.618677 74:1 75:-0.382353 76:-0.680392 77:1 78:-0.393137 79:-0.718627 80:1 81:-0.304902 82:-0.865686 83:0.994118 84:-0.0921569 85:-1 86:0.832353 87:0.196748 88:-1 89:0.434314 
-0 -0.4177556742826075 0:-0.0833334 1:0.204328 2:0.872795 3:-0.0392157 4:0.243326 5:0.748879 6:-0.244118 7:-0.178784 8:0.359804 9:-0.35 10:-0.367748 11:-0.204902 12:-0.277451 13:-0.27549 14:-0.635294 15:-0.441177 16:-0.197059 17:-0.858824 18:-0.643137 19:-0.0372549 20:-1 21:-0.597059 22:0.115686 23:-1 24:-0.357843 25:0.148039 26:-1 27:-0.178431 28:0.173529 29:-1 30:-0.107178 31:0.173529 32:-1 33:-0.0710383 34:0.0705883 35:-1 36:-0.165354 37:-0.0294117 38:-0.82451 39:-0.146991 40:-0.106863 41:-0.526471 42:-0.266204 43:-0.195098 44:-0.315686 45:-0.511432 46:-0.243137 47:-0.0441177 48:-0.339718 49:-0.309804 50:0.334314 51:-0.267647 52:-0.284314 53:0.768627 54:-0.404902 55:-0.105235 56:0.933333 57:-0.582353 58:0.293518 59:0.99902 60:-0.723529 61:0.783465 62:1 63:-0.733333 64:0.698819 65:1 66:-0.66457 67:0.555118 68:1 69:-0.569608 70:0.399606 71:1 72:-0.421569 73:-0.330739 74:0.960061 75:-0.278431 76:-0.492157 77:0.67686 78:-0.231373 79:-0.533333 80:0.376471 81:0.00196076 82:-0.552941 83:0.0539215 84:0.39902 85:-0.50098 86:-0.445098 87:0.241192 88:-0.370588 89:-0.62451 
-0.3403541629705946 -4.353717693105645 0:-0.193137 1:0.37874 2:-1 3:-0.189216 4:0.676583 5:-1 6:-0.17451 7:0.363528 8:-1 9:-0.206863 10:0.146509 11:-1 12:-0.189216 13:0.134314 14:-1 15:-0.0598039 16:0.108824 17:-1 18:0.0215686 19:0.0862745 20:-1 21:0.0205882 22:0.0480392 23:-0.984314 24:-0.00392159 25:-0.00784311 26:-0.785294 27:-0.0460785 28:-0.0686274 29:-0.548039 30:-0.148476 31:-0.112745 32:-0.35 33:-0.414208 34:-0.143137 35:-0.209463 36:-0.733495 37:-0.17451 38:-0.0117647 39:-0.737268 40:-0.229412 41:0.192157 42:-0.756944 43:-0.261765 44:0.623529 45:-0.919374 46:-0.169608 47:0.909804 48:-0.8125 49:-0.109804 50:0.99902 51:-0.890196 52:-0.131373 53:1 54:-0.766667 55:-0.11279 56:0.996078 57:-0.586275 58:0.184268 59:0.896078 60:-0.496078 61:0.564961 62:0.904186 63:-0.341176 64:0.362205 65:0.659923 66:-0.0828093 67:0.30315 68:0.183897 69:-0.072549 70:0.543307 71:-0.262022 72:-0.123529 73:0.0105615 74:-0.469534 75:-0.178431 76:-0.0441176 77:-0.543323 78:-0.208824 79:-0.0284313 80:-0.662745 81:-0.340196 82:0.0294118 83:-0.960784 84:-0.608824 85:0.186275 86:-1 87:-0.803794 88:0.191176 89:-1 
-2.578303908258493 -0.2438581830233399 0:-0.0421569 1:-0.315086 2:-0.127739 3:0.0588235 4:0.0831426 5:-0.703039 6:0.0637255 7:0.11323 8:-0.993137 9:-0.0931373 10:0.126844 11:-1 12:-0.152941 13:0.241176 14:-1 15:-0.0441177 16:0.251961 17:-1 18:-0.0137255 19:0.242157 20:-1 21:0.104902 22:0.180392 23:-1 24:0.122549 25:0.0784314 26:-0.953922 27:0.0754902 28:0.00686277 29:-0.659804 30:0.00983284 31:-0.0745098 32:-0.443137 33:-0.262295 34:-0.177451 35:-0.243963 36:-0.552998 37:-0.256863 38:0.0823529 39:-0.572917 40:-0.297059 41:0.546078 42:-0.748843 43:-0.263725 44:0.853921 45:-1 46:-0.214706 47:1 48:-0.714718 49:-0.182353 50:1 51:-0.661765 52:-0.193137 53:1 54:-0.64902 55:-0.157043 56:1 57:-0.566667 58:0.0502549 59:1 60:-0.398039 61:0.19685 62:0.993949 63:-0.167647 64:-0.0866142 65:0.732094 66:-0.0639413 67:-0.234252 68:0.447316 69:-0.146078 70:-0.185039 71:-0.00588814 72:-0.128431 73:-0.46637 74:-0.571941 75:-0.05 76:-0.382353 77:-1 78:-0.27451 79:-0.201961 80:-1 81:-0.581373 82:0.00980395 83:-1 84:-0.690196 85:0.160784 86:-1 87:-0.867751 88:0.106863 89:-1 
-0.6616792071760575 -0 0:-0.248039 1:-0.423297 2:1 3:-0.0431373 4:-0.61251 5:0.998007 6:0.0529412 7:-0.966627 8:0.642157 9:0.131373 10:-0.99705 11:-0.134314 12:0.101961 13:-0.880392 14:-0.817647 15:-0.0215687 16:-0.55 17:-1 18:-0.0362745 19:-0.103922 20:-1 21:-0.230392 22:0.106863 23:-1 24:-0.363726 25:0.192157 26:-1 27:-0.181373 28:0.14902 29:-1 30:-0.0855457 31:-0.0205882 32:-1 33:-0.186885 34:-0.131373 35:-0.882701 36:-0.314355 37:-0.180392 38:-0.644118 39:-0.212963 40:-0.24902 41:-0.528431 42:-0.168981 43:-0.331373 44:-0.363726 45:-0.205776 46:-0.442157 47:-0.119608 48:-0.0836694 49:-0.54902 50:0.157843 51:-0.0990196 52:-0.57451 53:0.439216 54:-0.186275 55:-0.512142 56:0.832353 57:-0.389216 58:-0.318281 59:1 60:-0.484314 61:-0.0649606 62:1 63:-0.537255 64:-0.0413385 65:1 66:-0.52935 67:-0.0629922 68:1 69:-0.516667 70:-0.208661 71:1 72:-0.395098 73:-0.645359 74:1 75:-0.318627 76:-0.746078 77:1 78:-0.30098 79:-0.852941 80:1 81:-0.188235 82:-0.997059 83:0.977451 84:0.15 85:-1 86:0.52451 87:0.459079 88:-1 89:-0.301961 
-0 -0.07213337129731855 0:-0.248039 1:0.298536 2:1 3:-0.0588236 4:0.305873 5:1 6:-0.105882 7:-0.175209 8:0.905882 9:-0.322549 10:-0.442478 11:0.32549 12:-0.554902 13:-0.386274 14:-0.564706 15:-0.208824 16:-0.152941 17:-1 18:0.167647 19:-0.0196078 20:-1 21:-0.0156863 22:0.0960785 23:-1 24:-0.0392157 25:0.177451 26:-1 27:0.0852941 28:0.209804 29:-1 30:0.12586 31:0.196078 32:-1 33:0.0273224 34:0.14902 35:-1 36:-0.127801 37:0.0813726 38:-0.987255 39:-0.106481 40:0.0029412 41:-0.794118 42:-0.12963 43:-0.0921568 44:-0.581373 45:-0.270758 46:-0.197059 47:-0.378431 48:-0.204637 49:-0.288235 50:-0.213726 51:-0.388235 52:-0.37549 53:0.0343137 54:-0.467647 55:-0.347005 56:0.488235 57:-0.498039 58:0.0517116 59:0.853921 60:-0.645098 61:0.582677 62:1 63:-0.636275 64:0.562992 65:1 66:-0.563941 67:0.5 68:1 69:-0.653922 70:0.423228 71:1 72:-0.679412 73:-0.217343 74:1 75:-0.371569 76:-0.454902 77:0.992864 78:0.109804 79:-0.589216 80:0.639216 81:0.310784 82:-0.5 83:0.262745 84:0.213725 85:-0.398039 86:-0.0137255 87:-0.0449865 88:-0.34902 89:-0.511765 
-2.280194041977787 -1.715200531761739 0:-0.473529 1:-0.0999363 2:1 3:-0.505882 4:-0.0846681 5:1 6:-0.478431 7:-0.49702 8:1 9:-0.361765 10:-0.772861 11:0.801961 12:-0.281373 13:-0.910784 14:0.418627 15:-0.0950981 16:-0.986274 17:0.10098 18:0.255882 19:-0.883333 20:-0.373529 21:0.510784 22:-0.512745 23:-0.906863 24:0.165686 25:-0.314706 26:-0.872549 27:-0.104902 28:-0.307843 29:-0.948039 30:-0.0550639 31:-0.153922 32:-1 33:0.10929 34:-0.0205882 35:-1 36:-0.122956 37:0.0392157 38:-1 39:-0.123843 40:0.0450981 41:-1 42:-0.125 43:-0.0441176 44:-1 45:-0.203369 46:-0.14902 47:-1 48:-0.00302423 49:-0.209804 50:-1 51:0.0382353 52:-0.272549 53:-0.961765 54:0.05 55:-0.343767 56:-0.9 57:0.000980369 58:-0.426074 59:-0.665686 60:-0.0705883 61:-0.52559 62:-0.357539 63:-0.140196 64:-0.576772 65:-0.0180427 66:-0.143606 67:-0.484252 68:0.468191 69:-0.248039 70:-0.344488 71:0.744848 72:-0.372549 73:-0.569761 74:0.971326 75:-0.448039 76:-0.563725 77:1 78:-0.49902 79:-0.55098 80:1 81:-0.530392 82:-0.553922 83:1 84:-0.489216 85:-0.547059 86:1 87:-0.533875 88:-0.516667 89:1 
