svm_type c_svc
kernel_type rbf
gamma 0.0078125
nr_class 2
total_sv 16
rho 0.797583
label 1 -1
nr_sv 6 10
SV
0.6341958168146415 0:0.395098 1:-0.663908 2:1 3:0.847059 4:-0.8627 5:1 6:1 7:-0.998808 8:0.845312 9:0.906863 10:-1 11:0.498311 12:0.784314 13:-1 14:0.615443 15:1 16:-1 17:1 18:1 19:-1 20:0.433962 21:1 22:-1 23:-0.082739 24:1 25:-1 26:0.252669 27:0.977791 28:-1 29:0.0236453 30:1 31:-1 32:-0.202941 33:1 34:-1 35:-0.596846 36:1 37:-1 38:-0.819608 39:1 40:-1 41:-0.663726 42:1 43:-1 44:-0.6 45:1 46:-0.985294 47:-0.561765 48:1 49:-0.839216 50:-0.287982 51:0.955882 52:-0.765686 53:-0.202797 54:0.779412 55:-0.450621 56:-0.361386 57:0.00392155 58:0.479971 59:0.127133 60:0.00392155 61:1 62:0.0556769 63:0.00392155 64:1 65:-0.0067196 66:0.0733752 67:1 68:0.122886 69:0.00392155 70:1 71:0.0574237 72:0.00392155 73:0.129516 74:-0.0404506 75:0.00392155 76:-0.00392155 77:-0.200236 78:0.00392155 79:-0.00392155 80:-0.286076 81:0.00392155 82:-0.00392155 83:-0.322056 84:0.00392155 85:-0.00392155 86:-0.320338 87:-0.113425 88:-0.00392155 89:-0.391781 
0.670345341266057 0:-0.734314 1:0.0579249 2:1 3:-0.660784 4:0.174676 5:1 6:-0.483333 7:-0.184744 8:1 9:-0.251961 10:-0.448378 11:1 12:-0.0470588 13:-0.652941 14:1 15:0.351961 16:-0.95 17:1 18:0.887255 19:-1 20:0.893082 21:1 22:-1 23:0.46505 24:0.802554 25:-1 26:0.342823 27:0.505244 28:-1 29:0.527094 30:0.669291 31:-1 32:0.747059 33:0.728347 34:-1 35:0.299162 36:0.540863 37:-1 38:-0.3 39:0.749574 40:-1 41:0.0852941 42:0.780695 43:-1 44:0.215686 45:0.783055 46:-1 47:-0.197059 48:0.980847 49:-1 50:-0.401361 51:1 52:-1 53:-0.691142 54:1 55:-1 56:-0.668317 57:1 58:-1 59:-0.67639 60:0.946078 61:-1 62:-0.747817 63:0.847059 64:-1 65:-0.838729 66:0.979036 67:-0.864173 68:-0.564825 69:0.842157 70:-0.360236 71:-0.479565 72:0.781372 73:-0.566426 74:-0.476702 75:0.00392155 76:-0.00392155 77:-0.200236 78:0.00392155 79:-0.00392155 80:-0.286076 81:0.00392155 82:-0.00392155 83:-0.322056 84:0.00392155 85:-0.00392155 86:-0.320338 87:-0.113425 88:-0.00392155 89:-0.391781 
2.751147362236093 0:0.517647 1:-0.0553787 2:-1 3:0.521569 4:0.135011 5:-0.860322 6:0.5 7:-0.0977354 8:-0.884375 9:0.00392155 10:-0.000983278 11:-0.716216 12:0.00392155 13:-0.00392155 14:-0.538229 15:0.00392155 16:-0.00392155 17:-0.537065 18:0.00392155 19:-0.00392155 20:-0.597484 21:0.00392155 22:-0.00392155 23:-0.449358 24:0.00196462 25:-0.00392155 26:-0.205219 27:-0.253547 28:-0.00392155 29:-0.000985242 30:-1 31:-0.00392155 32:0.00392155 33:-1 34:-0.00392155 35:0.0093642 36:-0.865932 37:-0.00392155 38:0.00392155 39:-0.730835 40:-0.00392155 41:0.00392155 42:-0.569112 43:-0.00392155 44:0.00392155 45:-0.304236 46:-0.00392155 47:0.00392155 48:-0.0241936 49:-0.00392155 50:0.160998 51:0.00392155 52:-0.00392155 53:0.193473 54:0.00392155 55:0.0966001 56:0.267327 57:0.00392155 58:0.479971 59:0.127133 60:0.00392155 61:1 62:0.0556769 63:0.00392155 64:1 65:-0.0067196 66:0.0733752 67:1 68:0.122886 69:0.00392155 70:1 71:0.0574237 72:0.00392155 73:0.129516 74:-0.0404506 75:0.00392155 76:-0.00392155 77:-0.200236 78:0.00392155 79:-0.00392155 80:-0.286076 81:0.00392155 82:-0.00392155 83:-0.322056 84:0.00392155 85:-0.00392155 86:-0.320338 87:-0.113425 88:-0.00392155 89:-0.391781 
2.439583419150857 0:0.688235 1:-0.0222788 2:-0.734104 3:0.77549 4:0.212815 5:-0.620875 6:0.00392155 7:0.210965 8:-0.5875 9:0.00392155 10:-0.000983278 11:-0.716216 12:0.00392155 13:-0.00392155 14:-0.538229 15:0.00392155 16:-0.00392155 17:-0.537065 18:0.00392155 19:-0.00392155 20:-0.597484 21:0.00392155 22:-0.00392155 23:-0.449358 24:0.00196462 25:-0.00392155 26:-0.205219 27:-0.253547 28:-0.00392155 29:-0.000985242 30:-1 31:-0.00392155 32:0.00392155 33:-1 34:-0.00392155 35:0.0093642 36:-0.865932 37:-0.00392155 38:0.00392155 39:-0.730835 40:-0.00392155 41:0.00392155 42:-0.569112 43:-0.00392155 44:0.00392155 45:-0.304236 46:-0.00392155 47:0.00392155 48:-0.0241936 49:-0.00392155 50:0.160998 51:0.00392155 52:-0.00392155 53:0.193473 54:0.00392155 55:0.0966001 56:0.267327 57:0.00392155 58:0.479971 59:0.127133 60:0.00392155 61:1 62:0.0556769 63:0.00392155 64:1 65:-0.0067196 66:0.0733752 67:1 68:0.122886 69:0.00392155 70:1 71:0.0574237 72:0.00392155 73:0.129516 74:-0.0404506 75:0.00392155 76:-0.00392155 77:-0.200236 78:0.00392155 79:-0.00392155 80:-0.286076 81:0.00392155 82:-0.00392155 83:-0.322056 84:0.00392155 85:-0.00392155 86:-0.320338 87:-0.113425 88:-0.00392155 89:-0.391781 
0.6944261026421007 0:1 1:-1 2:0.841453 3:1 4:-1 5:0.433615 6:1 7:-1 8:-0.1375 9:1 10:-1 11:-0.83277 12:1 13:-1 14:-1 15:1 16:-1 17:-1 18:1 19:-1 20:-0.867925 21:1 22:-1 23:-1 24:0.915521 25:-1 26:-1 27:0.743368 28:-1 29:-0.679803 30:0.561024 31:-1 32:-0.72451 33:0.612205 34:-1 35:-0.892558 36:0.614325 37:-1 38:-1 39:0.470187 40:-0.952941 41:-1 42:0.337452 43:-0.856863 44:-0.983333 45:0.430038 46:-0.723529 47:-0.821569 48:0.553427 49:-0.636274 50:-0.655329 51:0.631372 52:-0.545098 53:-0.609557 54:0.716667 55:-0.468969 56:-0.556931 57:0.711765 58:-0.446468 59:-0.465052 60:0.67451 61:-0.324803 62:-0.223799 63:0.693137 64:-0.283465 65:-0.0152718 66:0.866876 67:-0.147638 68:0.196167 69:0.783333 70:-0.00393698 71:0.059493 72:0.00392155 73:0.129516 74:-0.0404506 75:0.00392155 76:-0.00392155 77:-0.200236 78:0.00392155 79:-0.00392155 80:-0.286076 81:0.00392155 82:-0.00392155 83:-0.322056 84:0.00392155 85:-0.00392155 86:-0.320338 87:-0.113425 88:-0.00392155 89:-0.391781 
2.637983960608025 0:-0.57549 1:0.635901 2:0.819983 3:-0.545098 4:0.89016 5:1 6:-0.490196 7:0.446961 8:1 9:-0.443137 10:0.167158 11:0.949324 12:-0.333333 13:0.0754902 14:0.965178 15:-0.215686 16:-0.05 17:1 18:-0.123529 19:-0.254902 20:1 21:0.0333333 22:-0.498039 23:1 24:0.381139 25:-0.713725 26:0.937129 27:0.838371 28:-0.873529 29:0.724138 30:0.917323 31:-0.997059 32:0.629412 33:0.57874 34:-1 35:0.691474 36:0.790634 37:-1 38:0.490196 39:0.913117 40:-1 41:-0.0803922 42:0.825483 43:-1 44:-0.315686 45:0.70475 46:-1 47:-0.430392 48:0.680444 49:-1 50:-0.386621 51:0.806863 52:-1 53:-0.469697 54:0.915686 55:-1 56:-0.623762 57:0.99902 58:-1 59:-0.749037 60:1 61:-0.968504 62:-0.791485 63:1 64:-0.933071 65:-0.937691 66:1 67:-0.824803 68:-1 69:0.758823 70:-0.627953 71:-1 72:0.681372 73:-0.55642 74:-1 75:0.00392155 76:-0.00392155 77:-0.200236 78:0.00392155 79:-0.00392155 80:-0.286076 81:0.00392155 82:-0.00392155 83:-0.322056 84:0.00392155 85:-0.00392155 86:-0.320338 87:-0.113425 88:-0.00392155 89:-0.391781 
-2.223935578105782 0:0.583333 1:-0.129217 2:0.54583 3:0.886275 4:0.655225 5:1 6:1 7:1 8:1 9:1 10:1 11:1 12:1 13:1 14:1 15:1 16:1 17:1 18:1 19:0.82451 20:1 21:0.97549 22:0.409804 23:0.918688 24:0.787819 25:0.0705883 26:0.846975 27:0.446021 28:-0.228431 29:0.840394 30:-0.44685 31:-0.465686 32:0.769608 33:-0.968504 34:-0.581373 35:0.64416 36:-1 37:-0.592157 38:0.521569 39:-1 40:-0.6 41:0.353922 42:-1 43:-0.635294 44:0.12549 45:-1 46:-0.747059 47:-0.113726 48:-1 49:-0.835294 50:0.0702948 51:-1 52:-0.863726 53:0.518648 54:-1 55:-0.955747 56:0.764851 57:-0.929412 58:-1 59:0.340671 60:-0.281373 61:-1 62:0.0382096 63:0.377451 64:-1 65:-0.23763 66:0.951782 67:-0.816929 68:0.163472 69:1 70:0.318898 71:1 72:1 73:0.786548 74:1 75:1 76:0.998039 77:0.894861 78:1 79:1 80:0.43924 81:1 82:1 83:0.544567 84:0.956863 85:0.979412 86:0.611436 87:0.842192 88:0.844118 89:0.153425 
-0.5465641012334297 0:-0.292157 1:-0.34182 2:-0.530966 3:0.205882 4:-0.243326 5:-0.570223 6:0.579412 7:-0.352801 8:-0.70625 9:0.681372 10:-0.419862 11:-0.260135 12:0.810784 13:-0.147059 14:0.922786 15:1 16:0.631373 17:1 18:1 19:1 20:0.606918 21:1 22:1 23:-0.171184 24:1 25:1 26:0.421115 27:1 28:0.992157 29:0.611823 30:1 31:0.723529 32:0.443137 33:0.901575 34:0.384314 35:0.448004 36:0.588613 37:0.0852941 38:0.498039 39:0.192504 40:-0.173529 41:0.50098 42:-0.167568 43:-0.37549 44:0.6 45:-0.215661 46:-0.45 47:0.590196 48:-0.0705646 49:-0.472549 50:0.619048 51:-0.155882 52:-0.485294 53:0.388112 54:-0.316667 55:-0.522936 56:0.163366 57:-0.709804 58:-0.576111 59:-0.119428 60:-1 61:-0.582677 62:0.136463 63:-1 64:-0.659449 65:0.442883 66:-0.98847 67:-0.923228 68:0.299887 69:-0.514706 70:-1 71:-0.258148 72:0.0568627 73:-1 74:-0.661034 75:0.666667 76:-0.984314 77:-0.591258 78:0.983333 79:-0.690196 80:0.434177 81:1 82:-0.00882351 83:1 84:1 85:0.721569 86:1 87:1 88:1 89:1 
-0.08784089402772466 0:-0.0441177 1:0.446213 2:-0.489678 3:-0.215686 4:0.490465 5:-0.393707 6:-0.371569 7:-0.0834326 8:-0.495313 9:-0.694118 10:-0.468043 11:-0.829392 12:-0.995098 13:-0.67549 14:-0.554883 15:-1 16:-0.814706 17:-0.455371 18:-0.957843 19:-0.945098 20:-0.536164 21:-0.278431 22:-0.953921 23:-0.526391 24:0.386051 25:-0.778431 26:-0.392645 27:0.636027 28:-0.45098 29:0.204926 30:0.992126 31:0.223529 32:0.914706 33:1 34:0.933333 35:1 36:1 37:1 38:0.422549 39:1 40:1 41:-0.184314 42:1 43:1 44:-0.328431 45:1 46:0.861765 47:-0.236275 48:0.984879 49:0.378431 50:0.320862 51:0.820588 52:0.00392159 53:0.642191 54:0.573529 55:-0.243389 56:0.753713 57:0.24902 58:-0.286234 59:0.625757 60:-0.0117647 61:-0.389764 62:0.484716 63:-0.505882 64:-0.923228 65:0.0604765 66:-1 67:-1 68:-0.0225479 69:-1 70:-1 71:0.324366 72:-1 73:-1 74:0.0855095 75:-0.32549 76:-1 77:-0.849971 78:0.730392 79:-0.817647 80:-0.862025 81:0.996078 82:-0.207843 83:0.393624 84:1 85:0.647059 86:1 87:1 88:0.995098 89:0.889041 
-1.348837595291168 0:-0.717647 1:-0.0184596 2:-0.692816 3:-0.777451 4:0.0556827 5:-0.527245 6:-0.681373 7:-0.28963 8:-0.504688 9:-0.362745 10:-0.489676 11:-0.787162 12:0.178431 13:-0.466667 14:-0.672975 15:0.39902 16:-0.381373 17:-0.470499 18:0.538235 19:-0.213725 20:0.0141509 21:0.969608 22:0.155882 23:0.731812 24:1 25:0.721569 26:0.928826 27:1 28:1 29:0.802956 30:1 31:1 32:0.598039 33:1 34:1 35:0.200591 36:1 37:1 38:0.0156863 39:1 40:0.838235 41:0.227451 42:0.979923 43:0.406863 44:0.465686 45:0.738126 46:0.00490198 47:0.635294 48:0.541331 49:-0.280392 50:0.849206 51:0.369608 52:-0.459804 53:0.712121 54:0.217647 55:-0.539126 56:0.711634 57:0.045098 58:-0.453751 59:0.649972 60:-0.0843137 61:-0.275591 62:0.420306 63:-0.198039 64:-0.259842 65:0.048259 66:-0.409853 67:-0.470472 68:-0.136415 69:-0.918627 70:-0.753937 71:-0.287118 72:-1 73:-0.85881 74:-0.0947261 75:-1 76:-0.958824 77:0.0974601 78:-1 79:-1 80:-0.0759494 81:-0.864706 82:-1 83:-0.497723 84:-0.194118 85:-1 86:-0.679012 87:0.649315 88:-1 89:0.0369863 
-3.126645737214514 0:0.502941 1:1 2:-0.0834022 3:0.301961 4:1 5:-0.263239 6:0.0568627 7:0.256257 8:-0.442188 9:-0.168627 10:-0.174041 11:-0.555743 12:-0.416667 13:-0.421569 14:-0.291446 15:-0.802941 16:-0.666667 17:-0.579425 18:-1 19:-0.837255 20:-1 21:-1 22:-0.926471 23:-0.639087 24:-1 25:-1 26:-0.151839 27:-1 28:-1 29:0.0226601 30:-0.931102 31:-0.992157 32:-0.0578432 33:0.100394 34:-0.859804 35:0.0970921 36:0.919192 37:-0.428431 38:0.853921 39:1 40:0.458824 41:1 42:1 43:1 44:0.892157 45:1 46:1 47:0.0519608 48:1 49:1 50:0.108844 51:1 52:1 53:0.219114 54:1 55:1 56:0.334158 57:1 58:1 59:0.367089 60:0.959804 61:0.870079 62:0.409389 63:0.689216 64:0.159449 65:0.53818 66:0.450734 67:-0.271654 68:0.817362 69:0.0833333 70:-0.431102 71:0.710295 72:-0.054902 73:-0.73652 74:0.308756 75:-0.435294 76:-0.926471 77:-0.267572 78:-0.986275 79:-1 80:-0.453165 81:-1 82:-1 83:0.223162 84:-1 85:-1 86:0.395711 87:-1 88:-1 89:-0.29726 
-0.6730661951854253 0:0.173529 1:0.492043 2:-0.407102 3:-0.0627451 4:0.405034 5:-0.330775 6:-0.334314 7:-0.239571 8:-0.378125 9:-0.778431 10:-0.674533 11:-0.736486 12:-1 13:-0.885294 14:-0.629069 15:-1 16:-0.995098 17:-0.320726 18:-1 19:-1 20:-0.339623 21:-0.555882 22:-1 23:-0.546362 24:0.381139 25:-1 26:-0.354686 27:0.797656 28:-0.9 29:0.402956 30:1 31:-0.2 32:0.980392 33:1 34:0.747059 35:0.899458 36:1 37:1 38:0.151961 39:1 40:1 41:-0.231373 42:1 43:1 44:-0.218627 45:1 46:0.891177 47:-0.283333 48:1 49:0.407843 50:0.134921 51:0.956863 52:-0.0794117 53:0.520979 54:0.653922 55:-0.353481 56:0.810644 57:0.39902 58:-0.442098 59:0.729224 60:0.0803921 61:-0.425197 62:0.730349 63:-0.148039 64:-0.476378 65:0.599267 66:-0.371069 67:-0.811024 68:0.183766 69:-0.941176 70:-1 71:-0.121573 72:-1 73:-1 74:0.364055 75:-1 76:-1 77:0.46013 78:-0.935294 79:-1 80:-0.232911 81:0.0303921 82:-1 83:-0.924528 84:0.865686 85:-1 86:-0.929825 87:1 88:-0.75098 89:-0.0506849 
-0.020655806171435 0:-0.956863 1:-0.433482 2:0.0107349 3:-0.412745 4:-0.50267 5:-0.154259 6:0.201961 7:-0.466031 8:-0.639063 9:0.270588 10:-0.435595 11:-1 12:0.214706 13:-0.453922 14:-0.0643452 15:0.823529 16:-0.166667 17:0.939486 18:1 19:0.617647 20:1 21:1 22:1 23:0.562054 24:1 25:1 26:0.0237248 27:1 28:1 29:0.20197 30:1 31:0.973529 32:0.247059 33:0.970472 34:0.598039 35:0.405619 36:0.660239 37:0.20098 38:0.409804 39:0.321976 40:-0.117647 41:0.418627 42:-0.0131274 43:-0.404902 44:0.558823 45:-0.166881 46:-0.532353 47:0.44902 48:-0.106855 49:-0.601961 50:0.480726 51:-0.318627 52:-0.767647 53:0.25641 54:-0.835294 55:-0.993524 56:0.0420792 57:-1 58:-1 59:0.0379747 60:-1 61:-0.879921 62:0.240175 63:-0.993137 64:-0.826772 65:0.0360415 66:-0.481132 67:-0.793307 68:-0.291995 69:0.222549 70:-0.649606 71:-0.526125 72:0.626471 73:-0.726515 74:-0.305684 75:0.993137 76:-0.398039 77:0.578263 78:1 79:0.442157 80:1 81:1 82:0.956863 83:1 84:1 85:1 86:0.789474 87:1 88:1 89:0.30411 
-0.1337531685328549 0:-0.531373 1:-0.0872056 2:-0.463254 3:-0.881373 4:-0.133486 5:0.0130468 6:-1 7:-0.454112 8:0.328125 9:-0.995098 10:-0.704031 11:0.170608 12:-0.655882 13:-0.902941 14:-0.100681 15:-0.00980395 16:-0.995098 17:-0.323752 18:0.705882 19:-0.910784 20:-0.166667 21:0.996078 22:-0.516667 23:0.2097 24:1 25:0.0970588 26:0.795967 27:1 28:0.762745 29:0.819704 30:1 31:1 32:0.265686 33:1 34:1 35:-0.196649 36:1 37:1 38:-0.370588 39:1 40:0.918627 41:-0.360784 42:1 43:0.523529 44:-0.237255 45:0.938382 46:0.166667 47:0.0627451 48:0.769153 49:-0.0990196 50:0.460317 51:0.593137 52:-0.309804 53:0.586247 54:0.357843 55:-0.400971 56:0.717822 57:0.146078 58:-0.271668 59:0.520088 60:-0.0137255 61:-0.141732 62:0.441048 63:-0.190196 64:-0.545275 65:0.189982 66:-0.70021 67:-1 68:0.16009 69:-1 70:-1 71:0.80031 72:-1 73:-1 74:0.974398 75:-0.957843 76:-1 77:0.308919 78:-0.107843 79:-1 80:-0.611392 81:0.776471 82:-0.959804 83:-0.74756 84:0.951961 85:-0.554902 86:0.0396361 87:1 88:0.0892157 89:0.693151 
-0.4309038707371674 0:-0.147059 1:0.133036 2:-0.463254 3:-0.346078 4:-0.125858 5:-0.387567 6:-0.867647 7:-0.84267 8:-0.309375 9:-1 10:-1 11:-0.192568 12:-1 13:-1 14:-0.0492052 15:-0.77451 16:-1 17:-0.372163 18:0.239216 19:-0.95098 20:-0.671384 21:0.968627 22:-0.370588 23:0.0057061 24:1 25:0.490196 26:0.301305 27:1 28:0.997059 29:0.0522167 30:1 31:1 32:-0.213726 33:1 34:1 35:-0.272548 36:1 37:0.993137 38:-0.270588 39:1 40:0.644118 41:-0.119608 42:0.80695 43:0.227451 44:0.182353 45:0.487805 46:-0.107843 47:0.328431 48:0.274194 49:-0.404902 50:0.683673 51:-0.0372549 52:-0.526471 53:0.892774 54:-0.276471 55:-0.58122 56:0.877475 57:-0.496078 58:-0.678077 59:0.221794 60:-0.942157 61:-0.990157 62:-0.165939 63:-1 64:-1 65:0.241295 66:-1 67:-1 68:0.481398 69:-0.779412 70:-1 71:0.0543197 72:0.343137 73:-0.969983 74:-0.197133 75:0.972549 76:-0.506863 77:-0.0348494 78:1 79:0.162745 80:0.596203 81:1 82:0.839216 83:0.634353 84:1 85:1 86:0.607537 87:1 88:1 89:0.710959 
-1.235479056218274 0:-0.902941 1:-0.335455 2:0.0305532 3:-0.539216 4:-0.319603 5:-0.275518 6:-0.0490196 7:-0.439809 8:-0.648438 9:0.493137 10:-0.385447 11:-0.601351 12:0.941176 13:0.00784316 14:0.215746 15:1 16:0.602941 17:0.839637 18:1 19:0.994118 20:0.786163 21:1 22:1 23:0.323823 24:1 25:1 26:0.00711741 27:1 28:0.97451 29:-0.0118227 30:1 31:0.627451 32:0.102941 33:0.610236 34:0.17549 35:0.398719 36:0.050505 37:-0.163725 38:0.543137 39:-0.236797 40:-0.404902 41:0.580392 42:-0.532046 43:-0.561765 44:0.461765 45:-0.613607 46:-0.686274 47:0.288235 48:-0.717742 49:-0.957843 50:0.329932 51:-1 52:-1 53:0.608392 54:-1 55:-1 56:1 57:-1 58:-1 59:0.315355 60:-0.606863 61:-1 62:-0.421397 63:0.164706 64:-0.933071 65:-0.69212 66:0.912998 67:-0.295276 68:0.128523 69:1 70:0.988189 71:0.705122 72:1 73:1 74:0.701997 75:1 76:1 77:0.482575 78:1 79:1 80:0.749367 81:0.876471 82:0.982353 83:0.776187 84:0.62451 85:0.817647 86:0.672515 87:0.409315 88:0.65098 89:0.324658 
